svm_type one_class
kernel_type rbf
gamma 0.05
nr_class 2
total_sv 409
rho 384.30184777052307
SV
1.0 1:6.693340745743184E-5 2:0.002952153603779159 3:0.0025488026617249498 4:0.7272613659209799 5:3.729576113478378E-4 6:1.253602865165606E-5 7:1.2279094105895042E-4 8:4.273518689496869E-5 9:3.3825301578918236E-4 10:1.2626997915320958E-5 11:1.5336688423841073E-4 12:1.1984833691570886E-5 13:3.033954545310348E-4 14:8.825380118263146E-6 15:0.26340822179884116 16:2.4052147199128384E-5 17:4.836162727659349E-5 18:0.0022736502174587466 19:2.5532995672579343E-5 20:1.1453285373105943E-5 
1.0 1:2.4323678499144697E-5 2:0.0012309237480801483 3:5.845599727657134E-4 4:0.8695867743635733 5:1.3650124444660513E-4 6:3.462104402571332E-6 7:7.222028851650997E-5 8:1.6272131981639484E-5 9:2.4124270436143736E-4 10:5.123084735413323E-6 11:7.762722002387014E-5 12:4.7453325438606305E-6 13:8.438184535444088E-5 14:4.230550783096226E-6 15:0.12660954619558495 16:9.127532224493954E-6 17:2.8663238146022636E-5 18:0.0012669075242633732 19:9.400385963076022E-6 20:3.9668537504939755E-6 
1.0 1:9.99549182588503E-4 2:2.5771771166210736E-4 3:2.6411338539410667E-4 4:0.7629526543090636 5:0.18007555102340528 6:1.4323619536218493E-4 7:2.592485535702709E-4 8:6.278246357944782E-4 9:2.6679205435353153E-5 10:7.774401470628999E-6 11:0.018378139128302728 12:2.8695472432919137E-4 13:0.03342866744244129 14:4.4163933210133327E-4 15:7.101426606954813E-4 16:5.335861526163217E-4 17:3.278730430864699E-5 18:3.1553128020172795E-4 19:1.001936166760013E-4 20:1.5800975458078902E-4 
1.0 1:2.4323678499144697E-5 2:0.0012309237480801483 3:5.845599727657134E-4 4:0.8695867743635733 5:1.3650124444660513E-4 6:3.462104402571332E-6 7:7.222028851650997E-5 8:1.6272131981639484E-5 9:2.4124270436143736E-4 10:5.123084735413323E-6 11:7.762722002387014E-5 12:4.7453325438606305E-6 13:8.438184535444088E-5 14:4.230550783096226E-6 15:0.12660954619558495 16:9.127532224493954E-6 17:2.8663238146022636E-5 18:0.0012669075242633732 19:9.400385963076022E-6 20:3.9668537504939755E-6 
1.0 1:3.5841089180134293E-4 2:5.2796799342671996E-5 3:2.7855113012367348E-5 4:2.681560789977078E-6 5:4.403792917278545E-5 6:2.606234218891362E-4 7:1.54269307062632E-4 8:2.8944602765501305E-4 9:0.9133511917265169 10:3.223457604428243E-4 11:5.183625669188565E-5 12:2.2376517822960087E-4 13:1.1357122192219885E-4 14:2.970452479700996E-4 15:6.717143525519203E-4 16:2.923574646466512E-4 17:2.4058875393104546E-4 18:2.8313356987552466E-5 19:3.2682756716244214E-5 20:0.08318446687266724 
1.0 1:0.00424137469813088 2:0.0014856564891276684 3:5.671144960201766E-4 4:3.3443269164476193E-4 5:4.321855540722253E-4 6:1.63912202026024E-4 7:4.012526144535292E-4 8:0.002267304602905859 9:0.0020838532315432625 10:0.0014121738321030046 11:8.4708525668259E-5 12:2.014898556651309E-4 13:0.7519252301439214 14:2.3938391392427786E-4 15:0.22533203108147495 16:3.1830253847413394E-6 17:2.890496093337527E-4 18:3.3138850928517496E-4 19:2.708580854021368E-5 20:0.008177189114774695 
1.0 1:1.004173686052212E-5 2:4.901251035275411E-4 3:5.247561225087457E-4 4:4.0871296171498585E-4 5:4.683281404760746E-5 6:5.530091364927352E-5 7:7.026242133022318E-5 8:1.126141859575175E-5 9:0.3994455483327136 10:1.2817313995817638E-4 11:0.5954902230955463 12:5.718365879195412E-5 13:0.0013334821167256988 14:8.656372918876641E-5 15:9.180800518254401E-4 16:4.658379648622782E-4 17:5.2310020107564694E-5 18:3.5333524147900403E-4 19:5.062442614683613E-6 20:4.690671395200008E-5 
1.0 1:3.6905668734407167E-4 2:2.0417869876920448E-4 3:1.883993833846246E-4 4:1.2127674251651126E-4 5:1.0010199443479289E-4 6:2.1035236874616156E-4 7:8.936947394578449E-5 8:5.20940275810134E-5 9:3.6719126757436176E-4 10:1.1441187134405972E-4 11:1.812547258014164E-5 12:1.1491461456015665E-4 13:1.197271075884703E-4 14:0.13790554729539656 15:1.4881416769972112E-4 16:3.124904723673697E-4 17:0.8591136450856105 18:9.247579975559627E-5 19:2.722097486460557E-4 20:8.561772015507333E-5 
1.0 1:0.0017627355105188183 2:3.0096908443954066E-5 3:6.600601223529663E-5 4:3.340554199333141E-5 5:2.7509189795452783E-4 6:3.5425247609030904E-4 7:-5.218720294274394E-4 8:0.3475463919532096 9:3.088738749085914E-4 10:1.6979505974813896E-4 11:7.3723894826132E-5 12:-3.5301762377167565E-4 13:4.1734136053677925E-4 14:2.1526515871600786E-4 15:1.9770757567676576E-4 16:6.376110890073093E-4 17:3.9073413370775743E-4 18:2.7868903772080894E-5 19:2.3832741002926383E-4 20:0.6481296608918246 
1.0 1:4.182016790692415E-5 2:1.84741950971828E-4 3:2.2512582150762298E-4 4:9.467932225542237E-5 5:1.1543439673832651E-4 6:1.7302459375523872E-5 7:6.669713588204807E-5 8:4.7524419845786537E-4 9:2.787868807403156E-4 10:9.025338863528761E-5 11:0.6980761004870973 12:3.9293361362716244E-5 13:5.036211551949784E-5 14:6.648334936262275E-5 15:0.2998464812514637 16:6.597038900138623E-5 17:7.939980565570772E-5 18:1.3562176089709958E-4 19:7.0850172265287395E-6 20:4.3116739942300674E-5 
1.0 1:0.021885521710581893 2:0.0010274185008558772 3:0.0011824746681191366 4:7.604012873073764E-4 5:3.7644806268919583E-4 6:1.8002177409544773E-4 7:3.4113028688362697E-4 8:9.485795678077976E-5 9:6.657805268866395E-5 10:9.557951707499971E-6 11:1.1407371699828094E-4 12:2.0623431047703098E-4 13:0.9723265792931668 14:3.019436413496049E-4 15:3.3020628710451506E-4 16:5.585946315394367E-6 17:3.7862303774868696E-4 18:3.6871283750813716E-4 19:2.6081648593136792E-5 20:1.7549029028812375E-5 
1.0 1:2.5138802596936965E-5 2:9.16688656554229E-4 3:6.686213394991783E-4 4:0.0021235520163323984 5:8.388713149156252E-5 6:2.7172584833187996E-6 7:3.1183014330516946E-5 8:1.456157448975168E-5 9:1.0644757949492856E-4 10:2.7190614720527464E-6 11:1.839268192671996E-5 12:5.202072308803533E-6 13:1.0639669203657746E-4 14:2.713621996247763E-7 15:5.680257017282235E-4 16:1.0182265560307399E-5 17:3.0252391009638517E-5 18:0.9952714053241236 19:9.494879609996447E-6 20:4.860194751538109E-6 
1.0 1:2.5138802596936965E-5 2:9.16688656554229E-4 3:6.686213394991783E-4 4:0.0021235520163323984 5:8.388713149156252E-5 6:2.7172584833187996E-6 7:3.1183014330516946E-5 8:1.456157448975168E-5 9:1.0644757949492856E-4 10:2.7190614720527464E-6 11:1.839268192671996E-5 12:5.202072308803533E-6 13:1.0639669203657746E-4 14:2.713621996247763E-7 15:5.680257017282235E-4 16:1.0182265560307399E-5 17:3.0252391009638517E-5 18:0.9952714053241236 19:9.494879609996447E-6 20:4.860194751538109E-6 
1.0 1:1.3803526382144313E-4 2:6.338732512770218E-4 3:5.848890126954215E-4 4:0.0033553117909188527 5:7.136778820201866E-5 6:1.3228019650044242E-5 7:3.608765697327315E-5 8:1.4174677505670184E-5 9:3.5801120410713E-5 10:4.353203948823554E-6 11:1.4347935058337896E-5 12:1.13133580664285E-5 13:8.994056394492659E-5 14:2.4195728469976217E-5 15:1.2473318317748243E-4 16:7.976327528008405E-6 17:3.773560618652757E-5 18:0.9947755795737683 19:2.3136031668044038E-5 20:3.919906728647736E-6 
1.0 1:1.3800326653333995E-4 2:6.337932293625702E-4 3:5.847759098277859E-4 4:0.0033539338873966274 5:7.134424017644191E-5 6:1.3212218399117677E-5 7:3.6071898597981975E-5 8:1.4161221683039415E-5 9:3.579049850145422E-5 10:4.34266996949616E-6 11:1.4324241656143539E-5 12:1.1302385679722084E-5 13:8.992321639880874E-5 14:2.419031600428101E-5 15:1.247162526940256E-4 16:7.966865357081073E-6 17:3.7709666962181055E-5 18:0.9947774100707802 19:2.3119471668261306E-5 20:3.908472351419664E-6 
1.0 1:1.3800326653333995E-4 2:6.337932293625702E-4 3:5.847759098277859E-4 4:0.0033539338873966274 5:7.134424017644191E-5 6:1.3212218399117677E-5 7:3.6071898597981975E-5 8:1.4161221683039415E-5 9:3.579049850145422E-5 10:4.34266996949616E-6 11:1.4324241656143539E-5 12:1.1302385679722084E-5 13:8.992321639880874E-5 14:2.419031600428101E-5 15:1.247162526940256E-4 16:7.966865357081073E-6 17:3.7709666962181055E-5 18:0.9947774100707802 19:2.3119471668261306E-5 20:3.908472351419664E-6 
1.0 1:1.3803526382144313E-4 2:6.338732512770218E-4 3:5.848890126954215E-4 4:0.0033553117909188527 5:7.136778820201866E-5 6:1.3228019650044242E-5 7:3.608765697327315E-5 8:1.4174677505670184E-5 9:3.5801120410713E-5 10:4.353203948823554E-6 11:1.4347935058337896E-5 12:1.13133580664285E-5 13:8.994056394492659E-5 14:2.4195728469976217E-5 15:1.2473318317748243E-4 16:7.976327528008405E-6 17:3.773560618652757E-5 18:0.9947755795737683 19:2.3136031668044038E-5 20:3.919906728647736E-6 
1.0 1:1.3800326653333995E-4 2:6.337932293625702E-4 3:5.847759098277858E-4 4:0.0033539338873966253 5:7.134424017644191E-5 6:1.3212218399117677E-5 7:3.607189859798198E-5 8:1.4161221683039415E-5 9:3.579049850145423E-5 10:4.34266996949616E-6 11:1.4324241656143539E-5 12:1.1302385679722084E-5 13:8.992321639880874E-5 14:2.419031600428101E-5 15:1.247162526940256E-4 16:7.966865357081073E-6 17:3.7709666962181055E-5 18:0.9947774100707802 19:2.3119471668261306E-5 20:3.908472351419664E-6 
1.0 1:1.4755626465505083E-4 2:6.309949642062038E-4 3:6.186715552625821E-4 4:0.997289651628332 5:3.4918714433480434E-5 6:1.2413320576857518E-5 7:4.194787230474022E-5 8:2.1474541904531517E-5 9:3.436552315909966E-5 10:6.455870772528527E-6 11:1.9224846069029057E-5 12:1.7604965287051266E-5 13:1.1484168303916788E-4 14:2.5144788001709652E-5 15:2.7935317965657443E-4 16:1.7852044175211037E-5 17:4.308932484964234E-5 18:6.135190454516913E-4 19:2.3960194205222404E-5 20:6.959673657454333E-6 
1.0 1:3.204587227255733E-5 2:0.0022441483753167734 3:6.491226174039227E-4 4:0.881405993688319 5:5.483600858075129E-5 6:1.412549651542331E-6 7:4.4150059050656565E-5 8:2.2691681049270155E-5 9:3.7802778425448554E-4 10:7.918888758342884E-6 11:1.0732817297194638E-4 12:7.315549422096859E-6 13:9.764915256278383E-5 14:6.279208870084676E-6 15:0.11394170044220868 16:1.364132664629903E-5 17:3.450691781747894E-5 18:9.32015148271842E-4 19:1.3101442337045578E-5 20:6.115114234504401E-6 
1.0 1:1.0141591376051664E-4 2:0.001849521903139029 3:0.0020122802899046124 4:0.8128401907411262 5:1.1222325704010566E-4 6:7.03618001631054E-5 7:1.0219054467366767E-4 8:8.244245861181151E-5 9:3.870801908151885E-4 10:5.506661458202049E-5 11:2.6743163086801044E-4 12:5.398601244493662E-5 13:1.9755139194275456E-4 14:2.4739597337454546E-5 15:0.18008169738950802 16:5.478045434350786E-5 17:1.8676692210135008E-4 18:0.0013797077744730712 19:8.183056660521985E-5 20:5.873454655962642E-5 
1.0 1:1.6603823248933713E-4 2:0.0019171402657682615 3:0.002866848671324697 4:0.9928195255815471 5:1.2626920342026632E-4 6:1.6975239755938826E-5 7:4.4205644420506264E-5 8:2.404447208182058E-5 9:3.949320927302118E-5 10:6.339893861250811E-6 11:1.9147153242648624E-5 12:1.819177719461478E-5 13:1.777795327761159E-4 14:2.6982285759096744E-5 15:3.499577565246457E-4 16:1.8531138691763687E-5 17:6.217164794359908E-5 18:0.0012668355205584909 19:2.677855386860291E-5 20:6.74421949831873E-6 
1.0 1:1.6603823248933713E-4 2:0.0019171402657682615 3:0.002866848671324697 4:0.9928195255815471 5:1.2626920342026632E-4 6:1.6975239755938826E-5 7:4.4205644420506264E-5 8:2.404447208182058E-5 9:3.949320927302118E-5 10:6.339893861250811E-6 11:1.9147153242648624E-5 12:1.819177719461478E-5 13:1.777795327761159E-4 14:2.6982285759096744E-5 15:3.499577565246457E-4 16:1.8531138691763687E-5 17:6.217164794359908E-5 18:0.0012668355205584909 19:2.677855386860291E-5 20:6.74421949831873E-6 
1.0 1:0.26528403383891547 2:2.7129680968608025E-4 3:2.728549338347519E-4 4:1.1869119483972155E-4 5:3.857782331781724E-4 6:1.633972753803057E-5 7:1.2878262737529622E-4 8:3.7172716049571625E-4 9:0.0027177450292917823 10:6.154196391226604E-4 11:6.128660657657154E-4 12:3.0060416047824066E-4 13:3.9069224937765144E-4 14:5.984731121051722E-5 15:0.727371985297582 16:3.522441701844111E-5 17:6.788706107978816E-4 18:1.8601730878315317E-4 19:4.495298989780448E-5 20:1.3627039481087875E-4 
1.0 1:9.090220981070575E-5 2:6.95006426221807E-4 3:2.747484139256527E-4 4:7.491669325361825E-4 5:1.8480047655666132E-5 6:-2.4221774779967635E-4 7:6.787032731051756E-5 8:1.0683216488450615E-4 9:5.02876157943946E-4 10:1.344708137939959E-5 11:-2.2147489576109083E-4 12:-8.55375224980574E-5 13:0.0959300595574157 14:-8.519534474704912E-5 15:0.9017746559454658 16:-2.7012297533516916E-4 17:2.225367638790265E-5 18:5.963886980349264E-4 19:1.741440903204635E-5 20:4.444643813642887E-5 
1.0 1:9.79449900497457E-5 2:9.216939058018761E-5 3:4.897795374527748E-5 4:5.427593842166398E-5 5:9.23960706504421E-5 6:2.805261715105231E-5 7:5.670870794809086E-5 8:5.1882623131829694E-5 9:0.7934969581486137 10:1.2487300132513128E-4 11:2.0634040965713358E-5 12:3.6852262196321913E-4 13:0.20480484438966878 14:8.794376965717742E-5 15:1.7588464435995283E-4 16:1.304143387023244E-4 17:7.502809805859618E-5 18:4.092198175223099E-5 19:7.221885591922604E-5 20:7.934781733577316E-5 
1.0 1:0.013838829769177243 2:2.2429032090392424E-4 3:1.7788492573752655E-4 4:1.6439866173222425E-4 5:-1.9044008080265633E-5 6:1.0690430472798313E-4 7:7.678783958621757E-5 8:0.706715890302688 9:1.6220835453519485E-4 10:1.4784934259578708E-4 11:1.6805918935244767E-4 12:2.0718107071175247E-4 13:0.13850977387273217 14:0.1388556862542211 15:1.6669153138128618E-4 16:5.74139805925528E-5 17:2.9708547685013473E-4 18:7.979307337092336E-5 19:1.5376532641602587E-4 20:-9.14495892320905E-5 
1.0 1:7.1786755017859E-5 2:0.8170215647398841 3:5.957234202713827E-4 4:0.18127742184082035 5:5.879512913233598E-5 6:8.668933858755314E-6 7:2.2182325120849885E-5 8:1.3429027725198193E-5 9:3.0388633339833192E-5 10:4.560730460683572E-6 11:1.2310193928484154E-5 12:8.010598015332106E-6 13:8.97534357290456E-5 14:1.1838818266522017E-5 15:1.1034352085618853E-4 16:8.360169174569322E-6 17:4.77880196248389E-5 18:5.808222845735336E-4 19:2.169700792422184E-5 20:4.554416275786442E-6 
1.0 1:7.1786755017859E-5 2:0.8170215647398841 3:5.957234202713827E-4 4:0.18127742184082035 5:5.879512913233598E-5 6:8.668933858755314E-6 7:2.2182325120849885E-5 8:1.3429027725198193E-5 9:3.0388633339833192E-5 10:4.560730460683572E-6 11:1.2310193928484154E-5 12:8.010598015332106E-6 13:8.97534357290456E-5 14:1.1838818266522017E-5 15:1.1034352085618853E-4 16:8.360169174569322E-6 17:4.77880196248389E-5 18:5.808222845735336E-4 19:2.169700792422184E-5 20:4.554416275786442E-6 
0.3548292082910901 1:2.997720339605614E-4 2:0.04689807492074164 3:0.7005249160231547 4:0.24923400251383643 5:5.888008644763142E-5 6:2.5273309652543322E-5 7:7.250918402868185E-5 8:3.744916713708496E-5 9:3.3965724710918945E-5 10:6.969652325328089E-6 11:3.0323731552527276E-5 12:3.0165971423951353E-5 13:2.990517111952877E-4 14:5.4694663850685505E-5 15:4.385329909232169E-4 16:2.6881687342427677E-5 17:2.2013213165654992E-4 18:0.001677309777725895 19:1.983935494965536E-5 20:1.1255363384332751E-5 
1.0 1:4.5467151103397844E-5 2:4.576394029306205E-4 3:3.914072270851599E-4 4:0.9985223229726392 5:3.478650608361868E-5 6:5.4014240663109885E-6 7:1.3312074127961245E-5 8:7.5405977722383816E-6 9:1.189684018299904E-5 10:2.0869728299280446E-6 11:6.268786999873179E-6 12:5.6927434458646475E-6 13:4.6713786183463164E-5 14:8.41178649799661E-6 15:7.993552537934056E-5 16:5.851910046954487E-6 17:3.651474631974511E-5 18:3.078407913043151E-4 19:8.67249651046191E-6 20:2.2362584907127436E-6 
1.0 1:4.5468883684249404E-5 2:4.5764533464034637E-4 3:3.9141476130291744E-4 4:0.9985222837270501 5:3.4788205937706544E-5 6:5.402733475228641E-6 7:1.3313265627736731E-5 8:7.541726890310491E-6 9:1.189763594020273E-5 10:2.087878223280023E-6 11:6.270747213621288E-6 12:5.693668784219427E-6 13:4.6715019582200406E-5 14:8.41221486441943E-6 15:7.993679773364415E-5 16:5.852729329405152E-6 17:3.651712201111756E-5 18:3.0784649078165075E-4 19:8.673811093477258E-6 20:2.237245834090141E-6 
1.0 1:4.5467151103397844E-5 2:4.576394029306205E-4 3:3.914072270851599E-4 4:0.9985223229726392 5:3.478650608361868E-5 6:5.4014240663109885E-6 7:1.3312074127961245E-5 8:7.5405977722383816E-6 9:1.189684018299904E-5 10:2.0869728299280446E-6 11:6.268786999873179E-6 12:5.6927434458646475E-6 13:4.6713786183463164E-5 14:8.41178649799661E-6 15:7.993552537934056E-5 16:5.851910046954487E-6 17:3.651474631974511E-5 18:3.078407913043151E-4 19:8.67249651046191E-6 20:2.2362584907127436E-6 
1.0 1:4.5467151103397844E-5 2:4.576394029306205E-4 3:3.914072270851599E-4 4:0.9985223229726392 5:3.478650608361868E-5 6:5.4014240663109885E-6 7:1.3312074127961245E-5 8:7.5405977722383816E-6 9:1.189684018299904E-5 10:2.0869728299280446E-6 11:6.268786999873179E-6 12:5.6927434458646475E-6 13:4.6713786183463164E-5 14:8.41178649799661E-6 15:7.993552537934056E-5 16:5.851910046954487E-6 17:3.651474631974511E-5 18:3.078407913043151E-4 19:8.67249651046191E-6 20:2.2362584907127436E-6 
1.0 1:4.5468883684249404E-5 2:4.5764533464034637E-4 3:3.9141476130291744E-4 4:0.9985222837270501 5:3.4788205937706544E-5 6:5.402733475228641E-6 7:1.3313265627736731E-5 8:7.541726890310491E-6 9:1.189763594020273E-5 10:2.087878223280023E-6 11:6.270747213621288E-6 12:5.693668784219427E-6 13:4.6715019582200406E-5 14:8.41221486441943E-6 15:7.993679773364415E-5 16:5.852729329405152E-6 17:3.651712201111756E-5 18:3.0784649078165075E-4 19:8.673811093477258E-6 20:2.237245834090141E-6 
1.0 1:4.5467151103397844E-5 2:4.576394029306205E-4 3:3.914072270851599E-4 4:0.9985223229726392 5:3.478650608361868E-5 6:5.4014240663109885E-6 7:1.3312074127961245E-5 8:7.5405977722383816E-6 9:1.189684018299904E-5 10:2.0869728299280446E-6 11:6.268786999873179E-6 12:5.6927434458646475E-6 13:4.6713786183463164E-5 14:8.41178649799661E-6 15:7.993552537934056E-5 16:5.851910046954487E-6 17:3.651474631974511E-5 18:3.078407913043151E-4 19:8.67249651046191E-6 20:2.2362584907127436E-6 
1.0 1:4.5467151103397844E-5 2:4.576394029306205E-4 3:3.914072270851599E-4 4:0.9985223229726392 5:3.478650608361868E-5 6:5.4014240663109885E-6 7:1.3312074127961245E-5 8:7.5405977722383816E-6 9:1.189684018299904E-5 10:2.0869728299280446E-6 11:6.268786999873179E-6 12:5.6927434458646475E-6 13:4.6713786183463164E-5 14:8.41178649799661E-6 15:7.993552537934056E-5 16:5.851910046954487E-6 17:3.651474631974511E-5 18:3.078407913043151E-4 19:8.67249651046191E-6 20:2.2362584907127436E-6 
1.0 1:4.5467151103397844E-5 2:4.576394029306205E-4 3:3.914072270851599E-4 4:0.9985223229726392 5:3.478650608361868E-5 6:5.4014240663109885E-6 7:1.3312074127961245E-5 8:7.5405977722383816E-6 9:1.189684018299904E-5 10:2.0869728299280446E-6 11:6.268786999873179E-6 12:5.6927434458646475E-6 13:4.6713786183463164E-5 14:8.41178649799661E-6 15:7.993552537934056E-5 16:5.851910046954487E-6 17:3.651474631974511E-5 18:3.078407913043151E-4 19:8.67249651046191E-6 20:2.2362584907127436E-6 
1.0 1:1.5066906655381963E-5 2:6.851178750765442E-4 3:6.240541607511994E-4 4:5.601321710218882E-4 5:6.200372919392646E-5 6:4.46201017308121E-5 7:1.1301563155907049E-4 8:1.751806378977272E-5 9:0.39015313691398185 10:1.6816890270458275E-4 11:0.6033634277403217 12:7.219991912250302E-5 13:0.002022609794589877 14:1.1504758811936084E-4 15:7.427431873259186E-4 16:6.595723607461334E-4 17:4.176157871929089E-5 18:4.7420954052644024E-4 19:7.007398099561726E-6 20:5.858643596406671E-5 
1.0 1:1.3510131606346795E-4 2:3.626994176514585E-5 3:6.311794857843506E-5 4:4.8408274186798714E-5 5:3.8885500645159726E-5 6:1.744376225188513E-5 7:0.7969708154382467 8:1.8526546245128738E-4 9:3.7416176006827774E-5 10:1.306263522666591E-5 11:1.3269574909775881E-4 12:1.1643960439744941E-4 13:8.664413221724385E-5 14:4.114599225621078E-5 15:1.7343587237880138E-4 16:1.9542303850474258E-5 17:8.676456664172987E-5 18:3.470673717232441E-5 19:3.63702679899366E-5 20:0.20172646831857577 
1.0 1:2.723518421730884E-4 2:5.6761639237928914E-5 3:7.423839703269242E-5 4:6.058366243850523E-5 5:0.17767959260297603 6:5.017737032651406E-4 7:0.6609988579930302 8:5.170972320512467E-4 9:2.8159599111847924E-5 10:1.020313185566653E-5 11:1.284833022796366E-4 12:1.916470174540808E-4 13:6.53844166264747E-5 14:0.0014260336081003896 15:1.379875820729958E-4 16:2.558050568694602E-5 17:7.642673675055189E-5 18:3.814485971838489E-5 19:2.5523715719750264E-5 20:0.15768516845241834 
1.0 1:1.5346859139934562E-4 2:4.1983875563164025E-5 3:7.30571382634246E-5 4:5.473980833953127E-5 5:9.917667458440541E-5 6:1.5165179953678657E-6 7:0.9981491142014219 8:1.946097635001777E-4 9:5.968625363077956E-5 10:2.8060844886493045E-5 11:1.3171820958743577E-4 12:1.1706967916609328E-4 13:1.3815569174712765E-4 14:7.434810456129093E-5 15:3.4090273232689235E-4 16:4.1701930854830865E-5 17:1.3489065228297178E-4 18:6.179389986815157E-5 19:4.05944000446122E-5 20:6.34110299759084E-5 
1.0 1:1.3697439299577678E-4 2:3.0682013791952927E-5 3:6.95242867831867E-5 4:3.9848131987153285E-5 5:7.103486706601602E-5 6:7.3000753714945126E-6 7:0.9983168264049577 8:1.8498439228499137E-4 9:8.465625698904011E-5 10:3.580255124917041E-5 11:9.467148478567779E-5 12:1.4595739496161802E-4 13:1.274065302415098E-4 14:5.699205828799204E-5 15:2.687282343409709E-4 16:3.9462992494484414E-5 17:1.2681030824981688E-4 18:4.482283177949968E-5 19:3.33334991124612E-5 20:8.418129226959392E-5 
1.0 1:1.5346859139934562E-4 2:4.1983875563164025E-5 3:7.30571382634246E-5 4:5.473980833953127E-5 5:9.917667458440541E-5 6:1.5165179953678657E-6 7:0.9981491142014219 8:1.946097635001777E-4 9:5.968625363077956E-5 10:2.8060844886493045E-5 11:1.3171820958743577E-4 12:1.1706967916609328E-4 13:1.3815569174712765E-4 14:7.434810456129093E-5 15:3.4090273232689235E-4 16:4.1701930854830865E-5 17:1.3489065228297178E-4 18:6.179389986815157E-5 19:4.05944000446122E-5 20:6.34110299759084E-5 
1.0 1:1.5346859139934562E-4 2:4.1983875563164025E-5 3:7.30571382634246E-5 4:5.473980833953127E-5 5:9.917667458440541E-5 6:1.5165179953678657E-6 7:0.9981491142014219 8:1.946097635001777E-4 9:5.968625363077956E-5 10:2.8060844886493045E-5 11:1.3171820958743577E-4 12:1.1706967916609328E-4 13:1.3815569174712765E-4 14:7.434810456129093E-5 15:3.4090273232689235E-4 16:4.1701930854830865E-5 17:1.3489065228297178E-4 18:6.179389986815157E-5 19:4.05944000446122E-5 20:6.34110299759084E-5 
1.0 1:4.5467151103397844E-5 2:4.576394029306205E-4 3:3.914072270851599E-4 4:0.9985223229726392 5:3.478650608361868E-5 6:5.4014240663109885E-6 7:1.3312074127961245E-5 8:7.5405977722383816E-6 9:1.189684018299904E-5 10:2.0869728299280446E-6 11:6.268786999873179E-6 12:5.6927434458646475E-6 13:4.6713786183463164E-5 14:8.41178649799661E-6 15:7.993552537934056E-5 16:5.851910046954487E-6 17:3.651474631974511E-5 18:3.078407913043151E-4 19:8.67249651046191E-6 20:2.2362584907127436E-6 
1.0 1:8.124527681835636E-4 2:1.6172662122468205E-4 3:1.1340942075955592E-4 4:5.009977139003307E-5 5:1.4309140352819017E-4 6:2.51698321949978E-4 7:0.09768584326737638 8:5.477013621189077E-4 9:0.25027373989878066 10:3.396710991736999E-4 11:1.3604153184659943E-5 12:2.2122147516769297E-4 13:4.4933655332247534E-4 14:3.324395503146953E-4 15:0.0018589918840049167 16:2.1275629365122514E-4 17:0.645411439244015 18:8.742813231806654E-5 19:3.9764911134718687E-4 20:6.356996681882492E-4 
1.0 1:1.472199581922447E-4 2:4.1003637669595194E-5 3:5.286605704496379E-5 4:3.806380128163733E-5 5:0.0017034665790466833 6:7.170594250807365E-4 7:0.038238023757878575 8:3.54694092046498E-4 9:7.283251840568839E-4 10:0.18543129171465958 11:1.2188039828599416E-4 12:0.014752981255348314 13:7.647895438982892E-5 14:0.7557025210857509 15:2.4171213096401512E-4 16:5.870833000684672E-4 17:3.458080468713358E-4 18:4.4919728225225884E-5 19:1.135992849341571E-4 20:5.610016082043693E-4 
1.0 1:3.3216226760483703E-5 2:1.7060328240588745E-5 3:1.0598298416366856E-5 4:1.3551445758834536E-5 5:0.6915000335183981 6:6.682822437359508E-4 7:-2.5568917456976096E-4 8:-3.9795095756445546E-5 9:-7.879603965044032E-5 10:-2.841397448271193E-4 11:4.2885469313967815E-5 12:-2.1653373691971222E-4 13:-8.792666431705E-6 14:0.30837005066932793 15:8.330292728332556E-5 16:7.0990453295081E-5 17:-1.4603029296031107E-6 18:6.263353215613837E-6 19:6.923787898898956E-5 20:-2.660516503201185E-7 
1.0 1:1.6861694637243315E-5 2:0.802768053610224 3:4.591235284277326E-4 4:0.01652412406990794 5:2.0469681591439096E-4 6:-9.024206181448405E-7 7:2.824902975460795E-4 8:9.56694662868841E-6 9:1.8600771081864344E-4 10:1.2216030283288873E-6 11:8.950375165563364E-6 12:2.993869390703119E-6 13:7.923077351393472E-5 14:-2.0105239119327323E-7 15:0.020755765537531327 16:6.7919227654018E-6 17:3.758821530157522E-5 18:0.1586493030229787 19:5.433454926829783E-6 20:2.900024302308709E-6 
1.0 1:1.4063363467451036E-5 2:5.769560333390543E-4 3:4.127643516039141E-4 4:3.000485195990696E-4 5:3.286120382648638E-5 6:1.6004310712716402E-6 7:4.929191712696772E-6 8:8.21198576732984E-6 9:4.7790686240743675E-5 10:1.5789059652813117E-6 11:6.8084226733477395E-6 12:2.9585014701061745E-6 13:6.074838473312581E-5 14:1.7847206578676047E-7 15:1.5424150517817043E-4 16:5.743131923437427E-6 17:3.070368468607357E-5 18:0.9983295510727563 19:5.47680960948067E-6 20:2.7853423107123863E-6 
1.0 1:1.4063363467451036E-5 2:5.769560333390543E-4 3:4.127643516039141E-4 4:3.000485195990696E-4 5:3.286120382648638E-5 6:1.6004310712716402E-6 7:4.929191712696772E-6 8:8.21198576732984E-6 9:4.7790686240743675E-5 10:1.5789059652813117E-6 11:6.8084226733477395E-6 12:2.9585014701061745E-6 13:6.074838473312581E-5 14:1.7847206578676047E-7 15:1.5424150517817043E-4 16:5.743131923437427E-6 17:3.070368468607357E-5 18:0.9983295510727563 19:5.47680960948067E-6 20:2.7853423107123863E-6 
1.0 1:1.823788124912591E-4 2:0.7553465746400635 3:0.0012718882318156005 4:0.23943444674681985 5:1.029526938276866E-4 6:8.27261240312499E-5 7:9.28294046232897E-5 8:7.802055856698307E-5 9:7.45170229069972E-5 10:5.4851539533140164E-5 11:1.4572822865872954E-4 12:5.9317200790124424E-5 13:1.6084579808127658E-4 14:3.3810501814424985E-5 15:1.8629258307499121E-4 16:5.305943385386826E-5 17:2.1176603380319414E-4 18:0.002265628058342759 19:1.0216415023341156E-4 20:6.020223666816821E-5 
1.0 1:1.4063363467451036E-5 2:5.769560333390543E-4 3:4.127643516039141E-4 4:3.000485195990696E-4 5:3.286120382648638E-5 6:1.6004310712716402E-6 7:4.929191712696772E-6 8:8.21198576732984E-6 9:4.7790686240743675E-5 10:1.5789059652813117E-6 11:6.8084226733477395E-6 12:2.9585014701061745E-6 13:6.074838473312581E-5 14:1.7847206578676047E-7 15:1.5424150517817043E-4 16:5.743131923437427E-6 17:3.070368468607357E-5 18:0.9983295510727563 19:5.47680960948067E-6 20:2.7853423107123863E-6 
1.0 1:1.4063363467451036E-5 2:5.769560333390543E-4 3:4.127643516039141E-4 4:3.000485195990696E-4 5:3.286120382648638E-5 6:1.6004310712716402E-6 7:4.929191712696772E-6 8:8.21198576732984E-6 9:4.7790686240743675E-5 10:1.5789059652813117E-6 11:6.8084226733477395E-6 12:2.9585014701061745E-6 13:6.074838473312581E-5 14:1.7847206578676047E-7 15:1.5424150517817043E-4 16:5.743131923437427E-6 17:3.070368468607357E-5 18:0.9983295510727563 19:5.47680960948067E-6 20:2.7853423107123863E-6 
1.0 1:1.4064927316417181E-5 2:5.76965338541609E-4 3:4.127734880607635E-4 4:3.0005255435188713E-4 5:3.286317650154952E-5 6:1.601935424244113E-6 7:4.930501419542779E-6 8:8.213337627038709E-6 9:4.7791964674561034E-5 10:1.579980363922099E-6 11:6.810767863010938E-6 12:2.9595753762068044E-6 13:6.0749997946539265E-5 14:1.7894365235284023E-7 15:1.542438529080356E-4 16:5.744106494317354E-6 17:3.0706353262713583E-5 18:0.9983295043451782 19:5.4783273362156315E-6 20:2.7865257008644848E-6 
1.0 1:1.4063363467451036E-5 2:5.769560333390543E-4 3:4.127643516039141E-4 4:3.000485195990696E-4 5:3.286120382648638E-5 6:1.6004310712716402E-6 7:4.929191712696772E-6 8:8.21198576732984E-6 9:4.7790686240743675E-5 10:1.5789059652813117E-6 11:6.8084226733477395E-6 12:2.9585014701061745E-6 13:6.074838473312581E-5 14:1.7847206578676047E-7 15:1.5424150517817043E-4 16:5.743131923437427E-6 17:3.070368468607357E-5 18:0.9983295510727563 19:5.47680960948067E-6 20:2.7853423107123863E-6 
1.0 1:0.0011577015207767086 2:1.4169425345373919E-4 3:4.083956647680795E-4 4:1.583486045446483E-4 5:4.4208891028326775E-4 6:1.3078728092913132E-4 7:2.2057138493162485E-4 8:2.2292019630909605E-4 9:6.298532969075347E-4 10:0.087440942938981 11:1.344065816388563E-4 12:4.641662647443844E-4 13:0.8951363093389924 14:4.829367344867321E-4 15:6.603425932445644E-4 16:0.006035144425774422 17:0.0057689515655276495 18:1.323483619805404E-4 19:1.484728687033623E-4 20:8.361721302251771E-5 
1.0 1:0.18158547499983171 2:2.0398333700496945E-4 3:3.934510073310131E-4 4:1.892348901890718E-4 5:4.547936223794266E-5 6:4.0654630215612675E-5 7:4.370422873687818E-4 8:4.663269996931623E-4 9:1.0299331652753852E-4 10:1.7542772698637272E-5 11:7.129056934841464E-5 12:2.2121770304205372E-4 13:0.8129162610936055 14:3.085210307935905E-4 15:1.8867513833780155E-4 16:2.6981661821012755E-4 17:1.5586204710197206E-4 18:1.4384859681638345E-4 19:0.001109964656601158 20:0.0011323589430445283 
1.0 1:0.0011449820951687955 2:5.058953256450499E-4 3:7.773517172684701E-4 4:3.68799616450872E-4 5:1.6113963694837087E-4 6:6.423347493198365E-5 7:1.4476555337860836E-4 8:6.981730619651117E-5 9:4.912441495240745E-5 10:9.615153733933101E-5 11:4.946703605671177E-5 12:1.2923111128847038E-4 13:0.8031906862891031 14:0.19153094478187105 15:3.9012509047024713E-4 16:8.0093332864347E-5 17:3.472727089625915E-4 18:2.1473999910248654E-4 19:6.487955341741776E-4 20:3.638343782626789E-5 
1.0 1:1.4531751259026494E-4 2:0.0031803116773954617 3:0.0018157862322323813 4:0.0016089168728481522 5:7.505340276014555E-5 6:1.3651585480839224E-5 7:3.771180070739257E-5 8:1.470603768842208E-5 9:3.7650782074758484E-5 10:4.445176319809361E-6 11:9.686958975661587E-6 12:1.1713777192734366E-5 13:1.0390551747660322E-4 14:2.5261880902697667E-5 15:1.4549403314711296E-4 16:8.27070110994422E-6 17:6.301052727688087E-5 18:0.9926707972442873 19:2.4343008202414863E-5 20:3.965271330976394E-6 
1.0 1:1.4063363467451036E-5 2:5.769560333390543E-4 3:4.127643516039141E-4 4:3.000485195990696E-4 5:3.286120382648638E-5 6:1.6004310712716402E-6 7:4.929191712696772E-6 8:8.21198576732984E-6 9:4.7790686240743675E-5 10:1.5789059652813117E-6 11:6.8084226733477395E-6 12:2.9585014701061745E-6 13:6.074838473312581E-5 14:1.7847206578676047E-7 15:1.5424150517817043E-4 16:5.743131923437427E-6 17:3.070368468607357E-5 18:0.9983295510727563 19:5.47680960948067E-6 20:2.7853423107123863E-6 
1.0 1:1.4063363467451036E-5 2:5.769560333390543E-4 3:4.127643516039141E-4 4:3.000485195990696E-4 5:3.286120382648638E-5 6:1.6004310712716402E-6 7:4.929191712696772E-6 8:8.21198576732984E-6 9:4.7790686240743675E-5 10:1.5789059652813117E-6 11:6.8084226733477395E-6 12:2.9585014701061745E-6 13:6.074838473312581E-5 14:1.7847206578676047E-7 15:1.5424150517817043E-4 16:5.743131923437427E-6 17:3.070368468607357E-5 18:0.9983295510727563 19:5.47680960948067E-6 20:2.7853423107123863E-6 
1.0 1:1.4531751259026494E-4 2:0.0031803116773954617 3:0.0018157862322323813 4:0.0016089168728481522 5:7.505340276014555E-5 6:1.3651585480839224E-5 7:3.771180070739257E-5 8:1.470603768842208E-5 9:3.7650782074758484E-5 10:4.445176319809361E-6 11:9.686958975661587E-6 12:1.1713777192734366E-5 13:1.0390551747660322E-4 14:2.5261880902697667E-5 15:1.4549403314711296E-4 16:8.27070110994422E-6 17:6.301052727688087E-5 18:0.9926707972442873 19:2.4343008202414863E-5 20:3.965271330976394E-6 
1.0 1:0.013801306079082047 2:0.0030276884936383673 3:0.9423403758858976 4:6.463733337479002E-4 5:7.032132843603898E-5 6:1.6318331873072967E-5 7:1.934474989442397E-4 8:6.735014314799807E-4 9:4.4024226072927316E-5 10:2.7056658516311133E-6 11:6.654538939807176E-4 12:1.5294898517883895E-5 13:8.505641916212314E-4 14:1.7758506198664635E-4 15:0.035712580824932644 16:1.0221280369387818E-5 17:4.822853328324027E-4 18:9.8040325320941E-4 19:1.2137283580421776E-4 20:1.6817615172176826E-4 
1.0 1:4.1047583702263343E-4 2:0.028582381618661393 3:0.8487193985774912 4:5.272655670076099E-4 5:5.657205722692379E-5 6:2.147313263252313E-6 7:1.0171728180942207E-4 8:2.500321159727368E-4 9:2.044691950591941E-4 10:2.495623196411041E-6 11:2.538335841468329E-4 12:6.28757959552272E-6 13:3.050903997041564E-4 14:8.58781999709749E-5 15:0.11861029722005709 16:9.508162877976304E-6 17:3.150522092645436E-4 18:0.0014059792469599982 19:5.6671241031837643E-5 20:9.44469696798625E-5 
1.0 1:4.335998334057421E-5 2:0.9771123439440434 3:0.006504913513229192 4:0.00885945480477351 5:1.989309640681053E-5 6:3.577416139480204E-7 7:1.6465296903697516E-5 8:2.5984223859016147E-5 9:9.477809799900153E-5 10:4.7523652632261E-6 11:2.747967829266302E-5 12:9.034473769358356E-6 13:2.2779453248591674E-4 14:1.0342914243225458E-7 15:4.89221106445468E-4 16:1.835613790462361E-5 17:9.901617843676775E-5 18:0.006421573442574855 19:1.5980999566924405E-5 20:9.136953948767917E-6 
1.0 1:2.1385489586050988E-4 2:3.052607788997598E-5 3:3.80387603839808E-5 4:2.553512999061874E-5 5:1.744547196813673E-4 6:5.691908672835318E-4 7:3.3977005911722645E-4 8:0.028400281207983855 9:3.7678464549678744E-4 10:0.004661433081667485 11:3.6038530592104193E-4 12:0.2659569149151558 13:2.03121856469355E-4 14:0.6968424939025752 15:1.2492341217920888E-4 16:3.932871433303597E-4 17:8.69000523846346E-4 18:1.7199127427254162E-5 19:1.4556634948078299E-4 20:2.572380182593139E-4 
1.0 1:7.855246152454169E-4 2:2.7430603483226495E-6 3:4.432838949012804E-6 4:2.8636654142712406E-6 5:4.510749894203299E-4 6:2.6027774820450226E-4 7:0.36278743661690765 8:0.5884776060261602 9:3.3895471382515066E-4 10:1.7523546190850806E-4 11:9.764574935499558E-5 12:4.8624743922220264E-4 13:4.836210339952285E-5 14:0.04405386923511499 15:3.5047963593934535E-5 16:7.494075556937061E-4 17:6.24739750044424E-4 18:4.4216082478961525E-6 19:4.1252726088419716E-4 20:2.0158159806071957E-4 
1.0 1:1.107360318485828E-4 2:1.3369170147786016E-4 3:8.689530864121129E-5 4:4.3196840178194376E-5 5:6.861696599137559E-5 6:5.870472842492754E-5 7:1.1383753961084996E-4 8:2.2910284783171905E-4 9:0.0013260826609540824 10:-1.438612735950122E-4 11:-7.948501933935922E-4 12:0.5533638198815478 13:2.506369693196983E-4 14:1.7832613607619632E-4 15:0.4444915390859828 16:1.1785543536992672E-4 17:9.346994819078616E-5 18:6.11216362568445E-5 19:1.608657727235167E-5 20:1.949911720134106E-4 
1.0 1:1.7100374697169683E-5 2:0.9982024010833114 3:4.4431757458222274E-4 4:4.282204293370457E-4 5:3.915970296541496E-5 6:1.9184237530253405E-6 7:5.319455754947045E-6 8:9.098018156804307E-6 9:5.50889171129843E-5 10:3.3458244806608078E-6 11:8.830834013350647E-6 12:1.4135365993269648E-5 13:1.0718603164981095E-4 14:1.694692652746922E-7 15:1.694327037599562E-4 16:5.863488837356531E-6 17:4.00911402682748E-5 18:4.3932570912032963E-4 19:5.994242780162967E-6 20:3.001210160419475E-6 
1.0 1:1.7100374697169683E-5 2:0.9982024010833114 3:4.4431757458222274E-4 4:4.282204293370457E-4 5:3.915970296541496E-5 6:1.9184237530253405E-6 7:5.319455754947045E-6 8:9.098018156804307E-6 9:5.50889171129843E-5 10:3.3458244806608078E-6 11:8.830834013350647E-6 12:1.4135365993269648E-5 13:1.0718603164981095E-4 14:1.694692652746922E-7 15:1.694327037599562E-4 16:5.863488837356531E-6 17:4.00911402682748E-5 18:4.3932570912032963E-4 19:5.994242780162967E-6 20:3.001210160419475E-6 
1.0 1:1.7100374697169683E-5 2:0.9982024010833114 3:4.4431757458222274E-4 4:4.282204293370457E-4 5:3.915970296541496E-5 6:1.9184237530253405E-6 7:5.319455754947045E-6 8:9.098018156804307E-6 9:5.50889171129843E-5 10:3.3458244806608078E-6 11:8.830834013350647E-6 12:1.4135365993269648E-5 13:1.0718603164981095E-4 14:1.694692652746922E-7 15:1.694327037599562E-4 16:5.863488837356531E-6 17:4.00911402682748E-5 18:4.3932570912032963E-4 19:5.994242780162967E-6 20:3.001210160419475E-6 
1.0 1:1.840674973266048E-5 2:0.18095622032509856 3:9.647893681157258E-4 4:0.8155418996911762 5:7.487289007089416E-5 6:3.154565678626134E-6 7:6.8269999714495145E-6 8:1.0916821095651681E-5 9:2.215302819982696E-4 10:2.725582514752835E-6 11:1.0772284358895003E-5 12:5.126028225777902E-6 13:7.254356474804272E-5 14:4.737527240145885E-7 15:9.542848089433617E-4 16:8.978372503041118E-6 17:4.6761576655654734E-5 18:0.0010879427453374495 19:7.76769510414771E-6 20:4.005895947277446E-6 
1.0 1:1.8315611833292675E-5 2:0.1808424014443154 3:9.638162740525789E-4 4:0.8156582470878232 5:7.475793090531776E-5 6:3.0671035446964927E-6 7:6.751041973173943E-6 8:1.0838279323889624E-5 9:2.215689960954751E-4 10:2.663359737642041E-6 11:1.0634637166159705E-5 12:5.063615184512368E-6 13:7.245049604396582E-5 14:4.4652850139044135E-7 15:9.548298773791647E-4 16:8.92163179820876E-6 17:4.660021621850304E-5 18:0.0010870090252039864 19:7.67946928062947E-6 20:3.937373618919779E-6 
1.0 1:1.8315611833292675E-5 2:0.1808424014443154 3:9.638162740525789E-4 4:0.8156582470878232 5:7.475793090531776E-5 6:3.0671035446964927E-6 7:6.751041973173943E-6 8:1.0838279323889624E-5 9:2.215689960954751E-4 10:2.663359737642041E-6 11:1.0634637166159705E-5 12:5.063615184512368E-6 13:7.245049604396582E-5 14:4.4652850139044135E-7 15:9.548298773791647E-4 16:8.92163179820876E-6 17:4.660021621850304E-5 18:0.0010870090252039864 19:7.67946928062947E-6 20:3.937373618919779E-6 
1.0 1:1.840674973266048E-5 2:0.18095622032509856 3:9.647893681157258E-4 4:0.8155418996911762 5:7.487289007089416E-5 6:3.154565678626135E-6 7:6.8269999714495145E-6 8:1.0916821095651681E-5 9:2.215302819982696E-4 10:2.725582514752835E-6 11:1.0772284358895003E-5 12:5.126028225777902E-6 13:7.254356474804272E-5 14:4.737527240145885E-7 15:9.542848089433617E-4 16:8.978372503041118E-6 17:4.6761576655654734E-5 18:0.0010879427453374495 19:7.76769510414771E-6 20:4.005895947277446E-6 
1.0 1:1.8315611833292675E-5 2:0.1808424014443154 3:9.638162740525789E-4 4:0.8156582470878232 5:7.475793090531776E-5 6:3.0671035446964927E-6 7:6.751041973173943E-6 8:1.0838279323889624E-5 9:2.215689960954751E-4 10:2.663359737642041E-6 11:1.0634637166159705E-5 12:5.063615184512368E-6 13:7.245049604396582E-5 14:4.4652850139044135E-7 15:9.548298773791647E-4 16:8.92163179820876E-6 17:4.660021621850304E-5 18:0.0010870090252039864 19:7.67946928062947E-6 20:3.937373618919779E-6 
1.0 1:9.6912360775979E-5 2:0.9977763422522122 3:5.305421025162041E-4 4:7.084499133175838E-4 5:5.271885616579353E-5 6:9.492186582132589E-6 7:2.4416810910169106E-5 8:1.0351447683424802E-5 9:2.7585534997701404E-5 10:4.928745064238314E-6 11:8.444051951288871E-6 12:1.89305226420099E-5 13:1.0989671498010017E-4 14:1.7253934401135207E-5 15:9.054410995598863E-5 16:5.635020851048238E-6 17:4.9028994561894645E-5 18:4.3744474720153285E-4 19:1.8183189706999467E-5 20:2.8985035227161373E-6 
1.0 1:9.6912360775979E-5 2:0.9977763422522122 3:5.305421025162041E-4 4:7.084499133175838E-4 5:5.271885616579353E-5 6:9.492186582132589E-6 7:2.4416810910169106E-5 8:1.0351447683424802E-5 9:2.7585534997701404E-5 10:4.928745064238314E-6 11:8.444051951288871E-6 12:1.89305226420099E-5 13:1.0989671498010017E-4 14:1.7253934401135207E-5 15:9.054410995598863E-5 16:5.635020851048238E-6 17:4.9028994561894645E-5 18:4.3744474720153285E-4 19:1.8183189706999467E-5 20:2.8985035227161373E-6 
1.0 1:9.6912360775979E-5 2:0.9977763422522122 3:5.305421025162041E-4 4:7.084499133175838E-4 5:5.271885616579353E-5 6:9.492186582132589E-6 7:2.4416810910169106E-5 8:1.0351447683424802E-5 9:2.7585534997701404E-5 10:4.928745064238314E-6 11:8.444051951288871E-6 12:1.89305226420099E-5 13:1.0989671498010017E-4 14:1.7253934401135207E-5 15:9.054410995598863E-5 16:5.635020851048238E-6 17:4.9028994561894645E-5 18:4.3744474720153285E-4 19:1.8183189706999467E-5 20:2.8985035227161373E-6 
1.0 1:9.6912360775979E-5 2:0.9977763422522122 3:5.305421025162041E-4 4:7.084499133175838E-4 5:5.271885616579353E-5 6:9.492186582132589E-6 7:2.4416810910169106E-5 8:1.0351447683424802E-5 9:2.7585534997701404E-5 10:4.928745064238314E-6 11:8.444051951288871E-6 12:1.89305226420099E-5 13:1.0989671498010017E-4 14:1.7253934401135207E-5 15:9.054410995598863E-5 16:5.635020851048238E-6 17:4.9028994561894645E-5 18:4.3744474720153285E-4 19:1.8183189706999467E-5 20:2.8985035227161373E-6 
1.0 1:9.6912360775979E-5 2:0.9977763422522122 3:5.305421025162041E-4 4:7.084499133175838E-4 5:5.271885616579353E-5 6:9.492186582132589E-6 7:2.4416810910169106E-5 8:1.0351447683424802E-5 9:2.7585534997701404E-5 10:4.928745064238314E-6 11:8.444051951288871E-6 12:1.89305226420099E-5 13:1.0989671498010017E-4 14:1.7253934401135207E-5 15:9.054410995598863E-5 16:5.635020851048238E-6 17:4.9028994561894645E-5 18:4.3744474720153285E-4 19:1.8183189706999467E-5 20:2.8985035227161373E-6 
1.0 1:1.7100374697169683E-5 2:0.9982024010833114 3:4.4431757458222274E-4 4:4.282204293370457E-4 5:3.915970296541496E-5 6:1.9184237530253405E-6 7:5.319455754947045E-6 8:9.098018156804307E-6 9:5.50889171129843E-5 10:3.3458244806608078E-6 11:8.830834013350647E-6 12:1.4135365993269648E-5 13:1.0718603164981095E-4 14:1.694692652746922E-7 15:1.694327037599562E-4 16:5.863488837356531E-6 17:4.00911402682748E-5 18:4.3932570912032963E-4 19:5.994242780162967E-6 20:3.001210160419475E-6 
1.0 1:1.7100374697169683E-5 2:0.9982024010833114 3:4.4431757458222274E-4 4:4.282204293370457E-4 5:3.915970296541496E-5 6:1.9184237530253405E-6 7:5.319455754947045E-6 8:9.098018156804307E-6 9:5.50889171129843E-5 10:3.3458244806608078E-6 11:8.830834013350647E-6 12:1.4135365993269648E-5 13:1.0718603164981095E-4 14:1.694692652746922E-7 15:1.694327037599562E-4 16:5.863488837356531E-6 17:4.00911402682748E-5 18:4.3932570912032963E-4 19:5.994242780162967E-6 20:3.001210160419475E-6 
1.0 1:1.7100374697169683E-5 2:0.9982024010833114 3:4.4431757458222274E-4 4:4.282204293370457E-4 5:3.915970296541496E-5 6:1.9184237530253405E-6 7:5.319455754947045E-6 8:9.098018156804307E-6 9:5.50889171129843E-5 10:3.3458244806608078E-6 11:8.830834013350647E-6 12:1.4135365993269648E-5 13:1.0718603164981095E-4 14:1.694692652746922E-7 15:1.694327037599562E-4 16:5.863488837356531E-6 17:4.00911402682748E-5 18:4.3932570912032963E-4 19:5.994242780162967E-6 20:3.001210160419475E-6 
1.0 1:9.6912360775979E-5 2:0.9977763422522122 3:5.305421025162041E-4 4:7.084499133175838E-4 5:5.271885616579353E-5 6:9.492186582132589E-6 7:2.4416810910169106E-5 8:1.0351447683424802E-5 9:2.7585534997701404E-5 10:4.928745064238314E-6 11:8.444051951288871E-6 12:1.89305226420099E-5 13:1.0989671498010017E-4 14:1.7253934401135207E-5 15:9.054410995598863E-5 16:5.635020851048238E-6 17:4.9028994561894645E-5 18:4.3744474720153285E-4 19:1.8183189706999467E-5 20:2.8985035227161373E-6 
1.0 1:1.7100374697169683E-5 2:0.9982024010833114 3:4.4431757458222274E-4 4:4.282204293370457E-4 5:3.915970296541496E-5 6:1.9184237530253405E-6 7:5.319455754947045E-6 8:9.098018156804307E-6 9:5.50889171129843E-5 10:3.3458244806608078E-6 11:8.830834013350647E-6 12:1.4135365993269648E-5 13:1.0718603164981095E-4 14:1.694692652746922E-7 15:1.694327037599562E-4 16:5.863488837356531E-6 17:4.00911402682748E-5 18:4.3932570912032963E-4 19:5.994242780162967E-6 20:3.001210160419475E-6 
1.0 1:1.7100374697169683E-5 2:0.9982024010833114 3:4.4431757458222274E-4 4:4.282204293370457E-4 5:3.915970296541496E-5 6:1.9184237530253405E-6 7:5.319455754947045E-6 8:9.098018156804307E-6 9:5.50889171129843E-5 10:3.3458244806608078E-6 11:8.830834013350647E-6 12:1.4135365993269648E-5 13:1.0718603164981095E-4 14:1.694692652746922E-7 15:1.694327037599562E-4 16:5.863488837356531E-6 17:4.00911402682748E-5 18:4.3932570912032963E-4 19:5.994242780162967E-6 20:3.001210160419475E-6 
1.0 1:1.7100374697169683E-5 2:0.9982024010833114 3:4.4431757458222274E-4 4:4.282204293370457E-4 5:3.915970296541496E-5 6:1.9184237530253405E-6 7:5.319455754947045E-6 8:9.098018156804307E-6 9:5.50889171129843E-5 10:3.3458244806608078E-6 11:8.830834013350647E-6 12:1.4135365993269648E-5 13:1.0718603164981095E-4 14:1.694692652746922E-7 15:1.694327037599562E-4 16:5.863488837356531E-6 17:4.00911402682748E-5 18:4.3932570912032963E-4 19:5.994242780162967E-6 20:3.001210160419475E-6 
1.0 1:1.7100374697169683E-5 2:0.9982024010833114 3:4.4431757458222274E-4 4:4.282204293370457E-4 5:3.915970296541496E-5 6:1.9184237530253405E-6 7:5.319455754947045E-6 8:9.098018156804307E-6 9:5.50889171129843E-5 10:3.3458244806608078E-6 11:8.830834013350647E-6 12:1.4135365993269648E-5 13:1.0718603164981095E-4 14:1.694692652746922E-7 15:1.694327037599562E-4 16:5.863488837356531E-6 17:4.00911402682748E-5 18:4.3932570912032963E-4 19:5.994242780162967E-6 20:3.001210160419475E-6 
1.0 1:9.6912360775979E-5 2:0.9977763422522122 3:5.305421025162041E-4 4:7.084499133175838E-4 5:5.271885616579353E-5 6:9.492186582132589E-6 7:2.4416810910169106E-5 8:1.0351447683424802E-5 9:2.7585534997701404E-5 10:4.928745064238314E-6 11:8.444051951288871E-6 12:1.89305226420099E-5 13:1.0989671498010017E-4 14:1.7253934401135207E-5 15:9.054410995598863E-5 16:5.635020851048238E-6 17:4.9028994561894645E-5 18:4.3744474720153285E-4 19:1.8183189706999467E-5 20:2.8985035227161373E-6 
1.0 1:1.7100374697169683E-5 2:0.9982024010833114 3:4.4431757458222274E-4 4:4.282204293370457E-4 5:3.915970296541496E-5 6:1.9184237530253405E-6 7:5.319455754947045E-6 8:9.098018156804307E-6 9:5.50889171129843E-5 10:3.3458244806608078E-6 11:8.830834013350647E-6 12:1.4135365993269648E-5 13:1.0718603164981095E-4 14:1.694692652746922E-7 15:1.694327037599562E-4 16:5.863488837356531E-6 17:4.00911402682748E-5 18:4.3932570912032963E-4 19:5.994242780162967E-6 20:3.001210160419475E-6 
1.0 1:1.7100374697169683E-5 2:0.9982024010833114 3:4.4431757458222274E-4 4:4.282204293370457E-4 5:3.915970296541496E-5 6:1.9184237530253405E-6 7:5.319455754947045E-6 8:9.098018156804307E-6 9:5.50889171129843E-5 10:3.3458244806608078E-6 11:8.830834013350647E-6 12:1.4135365993269648E-5 13:1.0718603164981095E-4 14:1.694692652746922E-7 15:1.694327037599562E-4 16:5.863488837356531E-6 17:4.00911402682748E-5 18:4.3932570912032963E-4 19:5.994242780162967E-6 20:3.001210160419475E-6 
1.0 1:9.6912360775979E-5 2:0.9977763422522122 3:5.305421025162041E-4 4:7.084499133175838E-4 5:5.271885616579353E-5 6:9.492186582132589E-6 7:2.4416810910169106E-5 8:1.0351447683424802E-5 9:2.7585534997701404E-5 10:4.928745064238314E-6 11:8.444051951288871E-6 12:1.89305226420099E-5 13:1.0989671498010017E-4 14:1.7253934401135207E-5 15:9.054410995598863E-5 16:5.635020851048238E-6 17:4.9028994561894645E-5 18:4.3744474720153285E-4 19:1.8183189706999467E-5 20:2.8985035227161373E-6 
1.0 1:1.7100374697169683E-5 2:0.9982024010833114 3:4.4431757458222274E-4 4:4.282204293370457E-4 5:3.915970296541496E-5 6:1.9184237530253405E-6 7:5.319455754947045E-6 8:9.098018156804307E-6 9:5.50889171129843E-5 10:3.3458244806608078E-6 11:8.830834013350647E-6 12:1.4135365993269648E-5 13:1.0718603164981095E-4 14:1.694692652746922E-7 15:1.694327037599562E-4 16:5.863488837356531E-6 17:4.00911402682748E-5 18:4.3932570912032963E-4 19:5.994242780162967E-6 20:3.001210160419475E-6 
1.0 1:1.7100374697169683E-5 2:0.9982024010833114 3:4.4431757458222274E-4 4:4.282204293370457E-4 5:3.915970296541496E-5 6:1.9184237530253405E-6 7:5.319455754947045E-6 8:9.098018156804307E-6 9:5.50889171129843E-5 10:3.3458244806608078E-6 11:8.830834013350647E-6 12:1.4135365993269648E-5 13:1.0718603164981095E-4 14:1.694692652746922E-7 15:1.694327037599562E-4 16:5.863488837356531E-6 17:4.00911402682748E-5 18:4.3932570912032963E-4 19:5.994242780162967E-6 20:3.001210160419475E-6 
1.0 1:1.7100374697169683E-5 2:0.9982024010833114 3:4.4431757458222274E-4 4:4.282204293370457E-4 5:3.915970296541496E-5 6:1.9184237530253405E-6 7:5.319455754947045E-6 8:9.098018156804307E-6 9:5.50889171129843E-5 10:3.3458244806608078E-6 11:8.830834013350647E-6 12:1.4135365993269648E-5 13:1.0718603164981095E-4 14:1.694692652746922E-7 15:1.694327037599562E-4 16:5.863488837356531E-6 17:4.00911402682748E-5 18:4.3932570912032963E-4 19:5.994242780162967E-6 20:3.001210160419475E-6 
1.0 1:1.7100374697169683E-5 2:0.9982024010833114 3:4.4431757458222274E-4 4:4.282204293370457E-4 5:3.915970296541496E-5 6:1.9184237530253405E-6 7:5.319455754947045E-6 8:9.098018156804307E-6 9:5.50889171129843E-5 10:3.3458244806608078E-6 11:8.830834013350647E-6 12:1.4135365993269648E-5 13:1.0718603164981095E-4 14:1.694692652746922E-7 15:1.694327037599562E-4 16:5.863488837356531E-6 17:4.00911402682748E-5 18:4.3932570912032963E-4 19:5.994242780162967E-6 20:3.001210160419475E-6 
0.668836354447483 1:4.3701547208594235E-4 2:2.455440785343615E-4 3:4.4694449577251425E-4 4:1.8150089477575996E-4 5:1.708946636906577E-4 6:8.573766226321238E-5 7:0.08113118737562361 8:1.6117744401148926E-4 9:4.287495490655718E-5 10:1.0758541828911714E-4 11:1.073379155444276E-4 12:0.05337242913507557 13:0.6967328626664748 14:2.3309775615218864E-4 15:0.08570509115042921 16:6.861955028900542E-5 17:2.5134395063179844E-4 18:1.9940854471433555E-4 19:5.631898961271052E-4 20:0.0797561569746084 
1.0 1:1.7377653133537375E-4 2:0.008622961247875123 3:0.003848525678264508 4:0.003049148851765123 5:8.988955952717769E-5 6:1.6334925273157897E-5 7:4.45475516110048E-5 8:1.760072506449971E-5 9:4.4585299691578E-5 10:5.545490232995033E-6 11:1.210359226210006E-5 12:1.3965613221623615E-5 13:1.2504240638326172E-4 14:2.933549407527602E-5 15:1.7691961392394664E-4 16:9.98159902262558E-6 17:7.558119224318913E-5 18:0.9836100441423783 19:2.910367453061572E-5 20:5.006811318654997E-6 
1.0 1:1.7377653133537375E-4 2:0.008622961247875123 3:0.003848525678264508 4:0.003049148851765123 5:8.988955952717769E-5 6:1.6334925273157897E-5 7:4.45475516110048E-5 8:1.760072506449971E-5 9:4.4585299691578E-5 10:5.545490232995033E-6 11:1.210359226210006E-5 12:1.3965613221623615E-5 13:1.2504240638326172E-4 14:2.933549407527602E-5 15:1.7691961392394664E-4 16:9.98159902262558E-6 17:7.558119224318913E-5 18:0.9836100441423783 19:2.910367453061572E-5 20:5.006811318654997E-6 
1.0 1:3.936294140291945E-4 2:9.178445885337344E-5 3:7.853641783816842E-5 4:1.1275193433512867E-4 5:4.113793662113427E-5 6:-1.1959922338831555E-5 7:-4.022030734906425E-4 8:1.5033843463443402E-4 9:8.30348721137106E-4 10:2.106796500215779E-5 11:5.7390069484420175E-5 12:-2.8371948671394913E-4 13:1.4094817439198583E-4 14:6.503730719082307E-5 15:0.9985853057547639 16:2.808856889412021E-5 17:2.1311491062218168E-5 18:7.805073383824744E-5 19:-2.1679299104958978E-5 20:2.383439957202667E-5 
1.0 1:0.0017914671126470047 2:6.916233432272105E-4 3:4.485523462645456E-4 4:1.2096076885925752E-4 5:1.3418270441676038E-4 6:4.601285325284064E-6 7:3.6610168758234325E-4 8:1.2697280255506417E-4 9:0.1392736959427579 10:1.1113200360061189E-5 11:1.2399864020257571E-4 12:5.752261800077514E-4 13:0.8295253908218884 14:8.484571621157535E-5 15:0.02602825902815592 16:2.0474677969805067E-6 17:2.7331806712195056E-4 18:3.0744093744457224E-4 19:2.605098772899595E-5 20:8.415095944599642E-5 
1.0 1:5.460046472037438E-4 2:9.509030142691029E-5 3:1.945392641635214E-4 4:9.927733147187992E-5 5:2.20558436991803E-4 6:1.604764532366319E-4 7:4.925374197940415E-4 8:9.363270489673687E-5 9:8.143438919299771E-5 10:0.05804855327052133 11:4.931097418330901E-4 12:1.242728351331577E-4 13:0.9361893671854149 14:0.0021073009744252886 15:1.0324785277667719E-4 16:1.6662818990093874E-4 17:2.4792482684777553E-4 18:8.290114740459081E-5 19:2.0087051747978816E-5 20:4.330559756160454E-4 
1.0 1:2.0805560500155835E-5 2:0.006534688667706914 3:0.8879148530845278 4:0.0016157794510146069 5:4.503075135274348E-6 6:9.575817928719232E-7 7:8.631025371339065E-6 8:1.2731567431180023E-5 9:1.2183315491640122E-5 10:3.265056297789939E-6 11:1.2893778313559513E-5 12:5.693597472428817E-6 13:9.922674043255426E-5 14:3.142933899019997E-7 15:1.1401264121480436E-4 16:1.099808060022889E-5 17:6.934009571741849E-5 18:0.002364789635386349 19:8.349202828637421E-6 20:0.10118598354937461 
1.0 1:2.0306827313726845E-5 2:0.11549769288326929 3:0.8775329720124231 4:7.768658562050882E-4 5:3.067456379640931E-5 6:9.48743819630115E-7 7:8.241104874223776E-6 8:1.252226100482336E-5 9:4.5730192965358845E-4 10:3.0934677134351515E-6 11:1.3901266287804362E-5 12:5.2665865625296834E-6 13:9.178267697780365E-5 14:3.057790905070543E-7 15:0.003747632088727959 16:1.012176103391858E-5 17:7.268788252334316E-5 18:0.0017048538309804686 19:8.082747795400378E-6 20:4.7457299471433074E-6 
1.0 1:4.49061623612773E-4 2:7.28057988669636E-4 3:0.9952463184929908 4:6.636548015224767E-4 5:1.7074150576478438E-4 6:3.795976539560101E-5 7:1.0343583853738695E-4 8:5.041314389001354E-5 9:4.911930516423289E-5 10:1.0108395942441313E-5 11:2.2725575059637784E-5 12:4.263315785891055E-5 13:9.330235623980172E-4 14:7.989552288371313E-5 15:7.652574527794037E-4 16:3.6114118562533306E-5 17:9.861229237773976E-5 18:4.72050239705131E-4 19:2.5025378531122027E-5 20:1.579183835380573E-5 
1.0 1:1.6991286896067437E-4 2:0.0031618764262809533 3:0.9940696466374832 4:8.860598921443758E-4 5:3.559284603694463E-5 6:1.6078236037786675E-5 7:4.290410688459743E-5 8:2.145389838743802E-5 9:2.07476252315043E-5 10:4.096275414261887E-6 11:1.9354836349814604E-5 12:1.7799186583424855E-5 13:1.5942983985476377E-4 14:3.4568770273051775E-5 15:2.0165035183814016E-4 16:1.5069362780367307E-5 17:1.2368871410961782E-4 18:9.82171615790313E-4 19:1.1397982829465026E-5 20:6.500526729237635E-6 
1.0 1:3.037109085398223E-4 2:0.002757425825291871 3:0.9127741450907176 4:7.219653510936559E-4 5:7.967586236440029E-5 6:8.404113112600432E-4 7:2.1256187124395743E-4 8:7.380160682504241E-4 9:4.4478814113688935E-5 10:4.950855852874785E-6 11:8.759012681045087E-5 12:4.0594718630731943E-4 13:1.050212183890453E-4 14:0.002513238074843639 15:0.07688148582576565 16:1.2073531894611393E-5 17:5.147457494099382E-4 18:8.846834045726684E-4 19:1.2331347859160393E-5 20:1.0554157541938594E-4 
1.0 1:1.527285302722376E-4 2:0.0017150459727935763 3:0.9590612386976345 4:6.07567821670219E-4 5:0.0012182686961363797 6:1.878245617979335E-5 7:6.860664520204945E-5 8:2.224538653282494E-5 9:9.277846655098115E-4 10:8.755059430242632E-6 11:8.716674870566674E-5 12:3.03040426912314E-5 13:0.030191169700343544 14:0.0014670604684511501 15:1.8098929728591702E-4 16:0.0018232245036548973 17:1.175315816651509E-4 18:7.002032622664479E-4 19:0.0015931121139663828 20:8.214349607744563E-6 
1.0 1:0.1465700024654617 2:8.927874980181706E-4 3:8.665800340555436E-4 4:5.72050360557879E-4 5:5.657121346551384E-4 6:6.587133896754667E-4 7:0.0011500340187022423 8:0.1651433450984457 9:0.0017498033157724716 10:2.597038867527186E-4 11:1.900068682669828E-4 12:3.757632501507778E-4 13:0.67600444960748 14:0.0013049295750511445 15:0.001292983007648787 16:1.7565108246958413E-6 17:0.0012189889199885247 18:3.103665036948648E-4 19:5.704075423753463E-5 20:8.149828005596838E-4 
1.0 1:4.5043721901493486E-4 2:2.3851394088092245E-4 3:2.668485813668331E-4 4:1.242497450980361E-4 5:7.744891118840333E-5 6:0.3796946763455188 7:1.7216752107479725E-4 8:2.277122056046354E-4 9:1.944903012166798E-4 10:1.0006882786605644E-5 11:7.737137471351881E-4 12:1.5158271540215436E-5 13:2.303742099081287E-4 14:9.380190433652018E-5 15:0.6168634663915475 16:7.859744263275458E-5 17:1.7804853599294194E-4 18:1.6618589598157301E-4 19:5.722622174495546E-5 20:8.687572542933925E-5 
1.0 1:2.2080050309010276E-5 2:5.979588458448718E-5 3:2.008973458077747E-5 4:8.459874957193874E-7 5:9.129275960361934E-5 6:9.092201415422608E-5 7:7.1847752987251E-5 8:3.1804922646997417E-4 9:0.9965767092971027 10:8.884503028012149E-4 11:6.0867739574874234E-5 12:1.2138751556791957E-4 13:7.298258488667636E-5 14:3.7669027358819875E-4 15:1.798999214804317E-4 16:2.688620447253736E-4 17:1.7142971419809257E-5 18:2.9439156286188933E-5 19:1.4201887055968691E-4 20:5.906259118217032E-4 
1.0 1:9.726848509299106E-5 2:0.976116511841876 3:0.022249056917558244 4:5.28374070466501E-4 5:7.895669205859161E-5 6:1.1736220436616974E-5 7:2.5141437549688317E-5 8:1.9273908779652232E-5 9:1.6453523810261404E-5 10:3.4224008438582437E-6 11:3.168255071640752E-5 12:1.0824257945680915E-5 13:1.4691624220310984E-4 14:1.691973663947731E-5 15:1.5197578584479827E-4 16:1.1443112441079346E-5 17:4.689503555788648E-5 18:4.192870488475238E-4 19:1.1816347678178055E-5 20:6.04438365359092E-6 
1.0 1:9.723794327777616E-5 2:0.9761331051412663 3:0.0222329264529989 4:5.283135746809157E-4 5:7.892643328791737E-5 6:1.1715308341749644E-5 7:2.5122402536976585E-5 8:1.925559101710658E-5 9:1.644131495474217E-5 10:3.408244490287024E-6 11:3.165014392390439E-5 12:1.0809639958114038E-5 13:1.4689066842900138E-4 14:1.691286144707057E-5 15:1.5195494918904867E-4 16:1.1430185148242958E-5 17:4.6860430078935154E-5 18:4.1921381787165656E-4 19:1.1796149525778624E-5 20:6.0287475756358785E-6 
1.0 1:5.176868726194045E-5 2:0.83762530250588 3:0.15894185654511972 4:0.0010012955582148493 5:2.7211277728825724E-5 6:7.293296363927263E-7 7:1.980461014802031E-5 8:3.092427530736002E-5 9:1.3761994572978445E-4 10:6.037279253577209E-6 11:4.5263451651816685E-5 12:1.1242217408975952E-5 13:2.763326924003626E-4 14:2.12078086221865E-7 15:7.179142985445002E-4 16:2.260266584181796E-5 17:7.318457144621945E-5 18:9.808831262341597E-4 19:1.8788755858586638E-5 20:1.1026128246936043E-5 
1.0 1:9.723794327777616E-5 2:0.9761331051412663 3:0.0222329264529989 4:5.283135746809157E-4 5:7.892643328791737E-5 6:1.1715308341749644E-5 7:2.5122402536976585E-5 8:1.925559101710658E-5 9:1.644131495474217E-5 10:3.408244490287024E-6 11:3.165014392390439E-5 12:1.0809639958114038E-5 13:1.4689066842900138E-4 14:1.691286144707057E-5 15:1.5195494918904867E-4 16:1.1430185148242958E-5 17:4.6860430078935154E-5 18:4.1921381787165656E-4 19:1.1796149525778624E-5 20:6.0287475756358785E-6 
1.0 1:9.723794327777616E-5 2:0.9761331051412663 3:0.0222329264529989 4:5.283135746809157E-4 5:7.892643328791737E-5 6:1.1715308341749644E-5 7:2.5122402536976585E-5 8:1.925559101710658E-5 9:1.644131495474217E-5 10:3.408244490287024E-6 11:3.165014392390439E-5 12:1.0809639958114038E-5 13:1.4689066842900138E-4 14:1.691286144707057E-5 15:1.5195494918904867E-4 16:1.1430185148242958E-5 17:4.6860430078935154E-5 18:4.1921381787165656E-4 19:1.1796149525778624E-5 20:6.0287475756358785E-6 
1.0 1:9.723794327777616E-5 2:0.9761331051412663 3:0.0222329264529989 4:5.283135746809157E-4 5:7.892643328791737E-5 6:1.1715308341749644E-5 7:2.5122402536976585E-5 8:1.925559101710658E-5 9:1.644131495474217E-5 10:3.408244490287024E-6 11:3.165014392390439E-5 12:1.0809639958114038E-5 13:1.4689066842900138E-4 14:1.691286144707057E-5 15:1.5195494918904867E-4 16:1.1430185148242958E-5 17:4.6860430078935154E-5 18:4.1921381787165656E-4 19:1.1796149525778624E-5 20:6.0287475756358785E-6 
1.0 1:1.9581906536606983E-4 2:0.7261315893948161 3:0.2016235160278167 4:0.0013312955885460905 5:5.009270346802955E-4 6:1.9050618917843722E-5 7:3.6522339932497984E-4 8:3.18265649299343E-5 9:3.058364431934661E-5 10:6.721364268813685E-6 11:4.1794537919130185E-5 12:2.1062028191259978E-5 13:2.770315434593748E-4 14:2.0897037838689313E-4 15:0.06820959017433607 16:2.0870415991204474E-5 17:8.9749449839573E-5 18:8.649030150917616E-4 19:1.8044620268804823E-5 20:1.1431133529570304E-5 
1.0 1:9.723794327777616E-5 2:0.9761331051412663 3:0.0222329264529989 4:5.283135746809157E-4 5:7.892643328791737E-5 6:1.1715308341749644E-5 7:2.5122402536976585E-5 8:1.925559101710658E-5 9:1.644131495474217E-5 10:3.408244490287024E-6 11:3.165014392390439E-5 12:1.0809639958114038E-5 13:1.4689066842900138E-4 14:1.691286144707057E-5 15:1.5195494918904867E-4 16:1.1430185148242958E-5 17:4.6860430078935154E-5 18:4.1921381787165656E-4 19:1.1796149525778624E-5 20:6.0287475756358785E-6 
1.0 1:4.9501170340562327E-5 2:0.0011522531739263607 3:0.7589687685295129 4:5.426074185721348E-4 5:2.2302438833642218E-4 6:3.5322763723135787E-6 7:6.987369622761304E-5 8:3.509291451912469E-5 9:0.2284504494091058 10:7.681606866159498E-6 11:2.3083028555558751E-4 12:1.4293138723564569E-5 13:2.3197260100861654E-4 14:1.381983265478606E-6 15:0.009294226942362895 16:2.40353953574243E-5 17:7.63313991139948E-5 18:5.928559941726757E-4 19:1.926687676194191E-5 20:1.2020799898297782E-5 
1.0 1:1.0933393389074362E-4 2:8.647852631586308E-4 3:0.9967549891834072 4:0.001056470839159444 5:1.001357458909181E-4 6:1.4610775836521704E-5 7:2.701688012807096E-5 8:1.534524273478141E-5 9:1.5661654506040126E-5 10:2.778201023044075E-6 11:1.7630992816584677E-5 12:1.1368155509693583E-5 13:1.2741378002874209E-4 14:2.231689273360436E-5 15:1.2568255922173314E-4 16:9.604666369488142E-6 17:5.149102073227183E-5 18:6.596621555900869E-4 19:9.445447849515512E-6 20:4.256609412822196E-6 
1.0 1:0.115221252314078 2:7.565919559765881E-4 3:0.7783303002393179 4:9.184309078879027E-4 5:1.1987380232716968E-4 6:5.8912267415125547E-5 7:2.4860778472076615E-4 8:0.059412525451652945 9:1.322377183281177E-4 10:0.0035757767463785524 11:2.2410503308954998E-4 12:2.0921701415677142E-4 13:1.7097390343878948E-4 14:1.5882761051906057E-4 15:0.0386788048524372 16:4.543997736146735E-4 17:3.974321286140934E-4 18:5.79944628759414E-4 19:2.7852414316769386E-5 20:3.239334529705934E-4 
1.0 1:1.0933393389074362E-4 2:8.647852631586308E-4 3:0.9967549891834072 4:0.001056470839159444 5:1.001357458909181E-4 6:1.4610775836521704E-5 7:2.701688012807096E-5 8:1.534524273478141E-5 9:1.5661654506040126E-5 10:2.778201023044075E-6 11:1.7630992816584677E-5 12:1.1368155509693583E-5 13:1.2741378002874209E-4 14:2.231689273360436E-5 15:1.2568255922173314E-4 16:9.604666369488142E-6 17:5.149102073227183E-5 18:6.596621555900869E-4 19:9.445447849515512E-6 20:4.256609412822196E-6 
1.0 1:2.1952277312026477E-5 2:0.0029783634489967646 3:0.993728068967432 4:6.813260979963814E-4 5:1.227163482788043E-4 6:4.6079398999165265E-6 7:7.427667154868054E-6 8:1.2636841782700425E-5 9:3.065435614003606E-4 10:2.873088163932705E-6 11:1.7184750350452027E-5 12:4.82248983562651E-6 13:1.1002380974322691E-4 14:5.210855096370616E-7 15:9.278997362181454E-4 16:9.208443218546426E-6 17:3.767991861301939E-5 18:0.001012673639194869 19:9.189227784978889E-6 20:4.280661113557569E-6 
1.0 1:2.1871078408786375E-5 2:0.0029750029921556203 3:0.9937345248244285 4:6.8098897386727E-4 5:1.225722233326903E-4 6:4.5289321813477914E-6 7:7.35983607285212E-6 8:1.256676256990002E-5 9:3.0638589242121576E-4 10:2.817232717556977E-6 11:1.7058273770864616E-5 12:4.766720812209229E-6 13:1.0993327926071205E-4 14:4.965910548054149E-7 15:9.273328273468261E-4 16:9.157798221777671E-6 17:3.7548790618146696E-5 18:0.001011757464296292 19:9.110195499574104E-6 20:4.219310963133652E-6 
1.0 1:1.0933393389074362E-4 2:8.647852631586308E-4 3:0.9967549891834072 4:0.001056470839159444 5:1.001357458909181E-4 6:1.4610775836521704E-5 7:2.701688012807096E-5 8:1.534524273478141E-5 9:1.5661654506040126E-5 10:2.778201023044075E-6 11:1.7630992816584677E-5 12:1.1368155509693583E-5 13:1.2741378002874209E-4 14:2.231689273360436E-5 15:1.2568255922173314E-4 16:9.604666369488142E-6 17:5.149102073227183E-5 18:6.596621555900869E-4 19:9.445447849515512E-6 20:4.256609412822196E-6 
1.0 1:2.1952277312026477E-5 2:0.002978363448996765 3:0.993728068967432 4:6.813260979963814E-4 5:1.227163482788043E-4 6:4.6079398999165265E-6 7:7.427667154868054E-6 8:1.2636841782700425E-5 9:3.065435614003606E-4 10:2.873088163932705E-6 11:1.7184750350452027E-5 12:4.82248983562651E-6 13:1.1002380974322691E-4 14:5.210855096370616E-7 15:9.278997362181457E-4 16:9.208443218546426E-6 17:3.767991861301939E-5 18:0.0010126736391948693 19:9.18922778497889E-6 20:4.280661113557569E-6 
1.0 1:1.0933393389074362E-4 2:8.647852631586308E-4 3:0.9967549891834072 4:0.001056470839159444 5:1.001357458909181E-4 6:1.4610775836521704E-5 7:2.701688012807096E-5 8:1.534524273478141E-5 9:1.5661654506040126E-5 10:2.778201023044075E-6 11:1.7630992816584677E-5 12:1.1368155509693583E-5 13:1.2741378002874209E-4 14:2.231689273360436E-5 15:1.2568255922173314E-4 16:9.604666369488142E-6 17:5.149102073227183E-5 18:6.596621555900869E-4 19:9.445447849515512E-6 20:4.256609412822196E-6 
1.0 1:2.1871078408786375E-5 2:0.0029750029921556203 3:0.9937345248244285 4:6.8098897386727E-4 5:1.225722233326903E-4 6:4.5289321813477914E-6 7:7.35983607285212E-6 8:1.256676256990002E-5 9:3.0638589242121576E-4 10:2.817232717556977E-6 11:1.7058273770864616E-5 12:4.766720812209229E-6 13:1.0993327926071205E-4 14:4.965910548054149E-7 15:9.273328273468261E-4 16:9.157798221777671E-6 17:3.7548790618146696E-5 18:0.001011757464296292 19:9.110195499574104E-6 20:4.219310963133654E-6 
1.0 1:0.12924063495321578 2:9.138667275891673E-4 3:0.8655886952247925 4:7.69781095290608E-4 5:8.277110665757281E-5 6:1.7508164220313193E-5 7:5.366975329043369E-5 8:1.9766285210265323E-4 9:3.431938587237321E-5 10:1.1360381641833434E-5 11:2.1626976385469716E-4 12:2.734098984659747E-5 13:8.269306975516928E-4 14:3.486352042652056E-5 15:0.001034319966557507 16:1.5094403468034667E-4 17:8.856210972837531E-5 18:5.340170408092208E-4 19:7.033597172120881E-5 20:1.0614626015074213E-4 
1.0 1:0.001113836202742101 2:7.85195395162899E-5 3:2.656260426626064E-5 4:3.4923282939077594E-5 5:0.5930931586243292 6:1.4299871939637385E-4 7:2.3744818321920098E-4 8:1.22550578594525E-4 9:0.40026081295266547 10:3.4929529423440795E-4 11:1.5426680334762818E-4 12:1.573859434640311E-4 13:4.163098173463871E-5 14:5.09655161274516E-4 15:6.073010483204672E-4 16:0.0021211246773696563 17:1.977292725653221E-4 18:7.356657423007746E-5 19:6.83210902837479E-5 20:6.089124655070086E-4 
1.0 1:2.0065256458463718E-4 2:8.875174490616275E-4 3:0.9966810827070965 4:7.419476530267147E-4 5:1.8646176459621866E-4 6:2.5457076329355333E-5 7:4.7424793754446406E-5 8:2.669739291358638E-5 9:2.7330069635382673E-5 10:4.918375008716598E-6 11:2.1187833846460798E-5 12:1.979705622785549E-5 13:2.052680080591432E-4 14:3.840813600602122E-5 15:2.2455067283031315E-4 16:1.66902464513828E-5 17:6.495364383743821E-5 18:5.563523491734779E-4 19:1.5835296325730535E-5 20:7.466911235171272E-6 
1.0 1:2.0065256458463718E-4 2:8.875174490616275E-4 3:0.9966810827070965 4:7.419476530267147E-4 5:1.8646176459621866E-4 6:2.5457076329355333E-5 7:4.7424793754446406E-5 8:2.669739291358638E-5 9:2.7330069635382673E-5 10:4.918375008716598E-6 11:2.1187833846460798E-5 12:1.979705622785549E-5 13:2.052680080591432E-4 14:3.840813600602122E-5 15:2.2455067283031315E-4 16:1.66902464513828E-5 17:6.495364383743821E-5 18:5.563523491734779E-4 19:1.5835296325730535E-5 20:7.466911235171272E-6 
1.0 1:2.0093144552455372E-4 2:8.880973435393696E-4 3:0.9966769377445416 4:7.424222991541551E-4 5:1.867477544075299E-4 6:2.561483747729042E-5 7:4.7570958327467905E-5 8:2.6831398239401123E-5 9:2.742092289496436E-5 10:5.021238803912607E-6 11:2.1417695730043057E-5 12:1.9905536221508297E-5 13:2.05467792915816E-4 14:3.8461148392115236E-5 15:2.2472084065108572E-4 16:1.6784859079167315E-5 17:6.520826318430093E-5 18:5.568752946785968E-4 19:1.5982403166656568E-5 20:7.580223070443014E-6 
1.0 1:9.349197534855507E-5 2:6.846144548917515E-5 3:7.809699070796873E-5 4:4.317430921601068E-5 5:4.057391657947071E-5 6:4.8311644770743916E-5 7:8.78792390520995E-5 8:2.711648775021974E-4 9:2.585795789932375E-4 10:1.185808808233781E-5 11:4.4724236225190744E-4 12:3.049918995099555E-5 13:0.07936859357384234 14:6.046648273267386E-4 15:0.9182816927372781 16:1.3619036004829256E-5 17:6.785822259911988E-5 18:6.0328668614719894E-5 19:8.368366401856537E-5 20:4.022565237065275E-5 
1.0 1:6.759732366982301E-5 2:5.1873951312761404E-5 3:4.024801031731794E-5 4:1.760734034347918E-5 5:2.1063266792818036E-4 6:0.006835385091926202 7:5.420529040025526E-5 8:2.66713540351573E-4 9:1.0281432172989523E-4 10:2.825566492706936E-4 11:6.669197505164274E-5 12:0.035564325040021945 13:3.448523011858317E-4 14:5.38194777207863E-4 15:0.9544089609985248 16:1.5410836270440448E-4 17:7.521521656156655E-4 18:2.3513126444787346E-5 19:1.0611782926902828E-5 20:2.0695528306593038E-4 
1.0 1:8.533412655787827E-4 2:1.0042558690015524E-4 3:8.178921557993684E-5 4:1.59391484135896E-4 5:5.2889065861606263E-5 6:1.957796424060207E-6 7:1.851039146582565E-4 8:7.371673453968431E-4 9:0.0014187650880234366 10:1.222698457815487E-4 11:1.1677936812622823E-4 12:1.3150530330201042E-6 13:0.12931577900335983 14:2.92238771009237E-5 15:0.866474323847235 16:2.6120027283414308E-5 17:5.9051503240674515E-5 18:9.928841466981882E-5 19:8.25654109394506E-5 20:8.24528866710214E-5 
1.0 1:6.606102688240589E-5 2:2.977526214450888E-4 3:3.6874533876738363E-4 4:2.835484146816105E-4 5:2.4327986886975287E-5 6:3.4053088037938295E-5 7:5.2572601581309504E-5 8:5.9735511364260116E-5 9:1.864682317921089E-4 10:2.2093014552698778E-5 11:9.085576153747061E-5 12:2.188039881957612E-5 13:8.415495327473691E-4 14:2.939005817464838E-5 15:0.9973176371152563 16:6.971448917851472E-6 17:1.381878182018611E-5 18:2.5651796753416666E-4 19:1.717271318057352E-5 20:8.848386020227651E-6 
1.0 1:5.26440998981441E-4 2:2.1770940182346552E-4 3:1.2631410019709277E-4 4:1.5206223351359042E-4 5:1.0261724251485524E-4 6:2.7780483576959697E-5 7:1.305344247722943E-4 8:4.308050109779136E-5 9:8.5454415650501E-5 10:5.985728149612161E-5 11:7.089230668028188E-5 12:3.465201753156845E-4 13:3.4284130396870403E-4 14:8.790136169665903E-5 15:0.9973620419862711 16:2.0153690125868038E-5 17:1.4710443616230284E-4 18:8.098386883241921E-5 19:4.9519923812287665E-5 20:2.0189863510361163E-5 
1.0 1:5.159997455598588E-5 2:7.299637951002335E-5 3:8.585340946597903E-5 4:4.805905855633974E-5 5:2.267992794472601E-5 6:7.453894291920032E-5 7:4.6031266794588267E-5 8:2.8532016475407756E-5 9:5.142928448047203E-5 10:5.666166116118686E-5 11:7.552631637140013E-5 12:9.788903261958468E-5 13:0.11814908623951427 14:1.5237598745804822E-5 15:0.8809840033461056 16:1.2553735118537217E-5 17:5.899212758366675E-5 18:4.4495265659161106E-5 19:9.109137930297746E-6 20:1.472527848802386E-5 
1.0 1:1.40006925922642E-4 2:7.123633382182311E-5 3:4.4846918825943225E-5 4:8.377562071081612E-5 5:3.619407620487221E-5 6:8.513977472806355E-5 7:9.308949411915232E-5 8:3.2074795143883386E-5 9:5.245355309003077E-4 10:7.00788340393969E-5 11:6.117704787619922E-5 12:1.1231573913143676E-4 13:0.12089432734935739 14:1.59895920704794E-5 15:0.8775208541402747 16:1.4361306752531991E-5 17:5.5092680514355296E-5 18:5.313523446606784E-5 19:4.4660717015462E-5 20:4.710788812433154E-5 
1.0 1:5.149514685006608E-5 2:7.294807773019436E-5 3:8.576740206753054E-5 4:4.801475785625393E-5 5:2.257900798765813E-5 6:7.440814235250525E-5 7:4.593802437554741E-5 8:2.8448859962103223E-5 9:5.136726598999427E-5 10:5.6584313016847765E-5 11:7.53169870044702E-5 12:9.7790488815324E-5 13:0.11811881637168342 14:1.520853954378907E-5 15:0.8810158816780691 16:1.249804358327196E-5 17:5.8833941755802354E-5 18:4.442290104735169E-5 19:9.02481841552117E-6 20:1.4655231893150594E-5 
1.0 1:7.265261851178038E-4 2:2.4817862022295995E-4 3:2.4092840419012327E-4 4:1.8935294955514247E-4 5:1.4186582141301754E-4 6:1.589474926916131E-4 7:7.439455141905005E-5 8:0.001594175085822773 9:2.750223250790436E-4 10:2.740001109608993E-4 11:9.460624554470514E-5 12:1.965520679392734E-4 13:0.002553200431309926 14:6.098559203108026E-5 15:0.9923677231243904 16:4.072137883412907E-6 17:5.975321054071589E-4 18:1.2310901814360545E-4 19:8.570773653136103E-6 20:7.025695722516053E-5 
1.0 1:0.0035957979082280435 2:6.925706707383217E-5 3:1.0930821481905563E-4 4:4.366998108645677E-5 5:0.053110955665724616 6:1.223968246504183E-4 7:4.8815247791795754E-4 8:1.8942227779621828E-4 9:1.884038142441341E-4 10:4.9110443562781925E-5 11:0.043115397945733644 12:8.79375655989272E-6 13:8.364913816522782E-5 14:1.445572213840621E-4 15:0.8984879009547341 16:2.296843536683577E-5 17:9.041372125388138E-5 18:5.209484422667677E-5 19:1.7460512400417454E-5 20:1.0288795071880066E-5 
1.0 1:0.0018977475643859212 2:6.813236427855787E-5 3:1.0588595074852043E-4 4:4.253666889101089E-5 5:1.6582158686722276E-5 6:4.58136177432543E-5 7:5.63845605178061E-5 8:0.0014165062326062993 9:1.6028925087240785E-4 10:4.102242969018155E-5 11:8.76755764587919E-5 12:3.790365254457093E-6 13:7.235819193580358E-5 14:-2.060135393316534E-5 15:0.9958079250956445 16:2.0010705804977004E-5 17:3.095006204994667E-5 18:4.90538054539501E-5 19:1.2583313410646273E-5 20:8.535343949945986E-5 
1.0 1:7.641069097790603E-5 2:1.1655614866345261E-4 3:1.0539398692197512E-4 4:4.046291214584725E-5 5:2.264424188392304E-5 6:2.3550765197875813E-5 7:3.06308326227431E-5 8:4.040353540238947E-5 9:4.3027571954292806E-5 10:1.370750503586819E-5 11:6.0248954611353436E-5 12:2.2869825776102826E-4 13:3.8696984859153745E-4 14:2.2233300850688842E-5 15:0.9985762784598528 16:4.938957821361304E-6 17:1.176178339816573E-4 18:4.883714801674365E-5 19:1.1849043645977155E-5 20:2.9540004060461584E-5 
1.0 1:-0.013518509559161212 2:-6.448224396633427E-4 3:-6.000979442272606E-4 4:-5.601871317836872E-4 5:-5.355354753138538E-4 6:-4.884755029915741E-4 7:-5.158375449501317E-4 8:-4.977034242048702E-4 9:1.0202302801932754 10:1.6743772235531447E-4 11:-6.12066560495238E-4 12:-3.641462316189252E-4 13:-4.979248469953535E-5 14:-9.859943533255433E-4 15:-1.9255048144732582E-4 16:4.0263783588001096E-5 17:-2.5721354898399385E-4 18:-2.9029116460966664E-4 19:2.7344988368695353E-5 20:-3.521028401107887E-4 
1.0 1:0.01664278230165172 2:4.192891660441183E-5 3:2.221504231034998E-5 4:3.479182074750785E-6 5:2.5462828883072708E-5 6:4.741391517082421E-5 7:0.14208201173350293 8:6.787355316534477E-4 9:0.8380338079924513 10:1.4443484032383393E-4 11:8.462424855716017E-5 12:5.768461490434979E-4 13:2.1281104046280626E-5 14:7.397521167634265E-4 15:1.877203707776796E-4 16:4.0845166445337475E-4 17:2.8452311087202115E-5 18:2.3170340943343192E-5 19:7.95369454576922E-6 20:1.9947571515552208E-4 
1.0 1:0.003619145595802439 2:3.130820457078695E-4 3:0.7469672097927004 4:3.2391809080233605E-4 5:4.880598840681495E-5 6:2.5500299714364533E-5 7:3.330343501060576E-4 8:0.0023619800185711486 9:3.0811175177052486E-4 10:2.3448799096783014E-4 11:5.769052369822072E-4 12:9.074916903995649E-5 13:1.5698993677374108E-4 14:3.940758332326677E-4 15:0.18535621407317285 16:8.889408509604445E-6 17:0.0584926343690937 18:2.1216750490385557E-4 19:3.3849232611162713E-5 20:1.4224931113045072E-4 
1.0 1:0.0033473247380092557 2:7.007871663316636E-4 3:6.494030652288034E-4 4:4.718511201790944E-4 5:2.8383232332150474E-4 6:8.913491735036308E-5 7:2.7234403423178786E-4 8:1.4283256639575903E-4 9:9.695385754972007E-5 10:1.3128925292278196E-4 11:4.5621241108066295E-5 12:2.0834175447119853E-4 13:0.7320473785573084 14:0.2597078177799472 15:3.530378897610328E-4 16:7.85299787860791E-5 17:1.7757656113392024E-4 18:2.5357333448995645E-4 19:8.862263280069193E-4 20:5.6143533466510984E-5 
0.592244477616022 1:2.1915042948814095E-4 2:4.1884609711283596E-4 3:4.4450292178512544E-4 4:5.544053986334823E-4 5:-1.1067153262178194E-4 6:0.4572344596000016 7:8.219436960606007E-5 8:-7.686363040501217E-4 9:0.5377117601066721 10:1.4258937822551492E-5 11:1.0914864278703906E-4 12:9.417357107857421E-5 13:0.0016963196302012123 14:1.0868589381966174E-4 15:8.473918886494677E-5 16:8.542939553386034E-4 17:7.474991273550529E-4 18:3.637273737046959E-4 19:6.0992748638567454E-5 20:8.014984376159714E-5 
1.0 1:5.2708843982630024E-5 2:3.2491215076578E-4 3:3.0847744533307584E-4 4:3.3151680512336074E-4 5:0.001214817383534555 6:7.91123940657103E-5 7:2.2823399416985207E-4 8:2.6589754320962715E-4 9:0.9322418016763234 10:0.06289447795398435 11:7.361460203528178E-5 12:1.0977101695095898E-4 13:6.941169597007947E-4 14:1.5017612115399197E-4 15:2.12978413654988E-4 16:2.811984838698954E-4 17:5.266990517766131E-5 18:2.6790599031407855E-4 19:8.813620770410225E-5 20:1.2747610894580307E-4 
1.0 1:0.6747183057395366 2:2.0303386485610284E-4 3:1.6427707360331713E-4 4:1.9777040730801717E-4 5:1.7245237045589927E-4 6:1.7407729538459183E-4 7:0.0012214560876940342 8:6.326396015045087E-4 9:0.002095438800719647 10:2.2144058339893275E-4 11:0.001338600345402027 12:0.30213369694320863 13:0.0019307112027104915 14:6.37261868868429E-4 15:0.013452090492100811 16:2.3707449333048387E-4 17:2.2303124035974583E-4 18:6.181490238125978E-5 19:6.419663586240112E-5 20:1.2063005131410313E-4 
1.0 1:0.23469175380924942 2:1.2500408358521008E-4 3:6.241063001070378E-5 4:1.922154250713579E-5 5:0.623904664179032 6:0.09480102060033486 7:1.3367178388540074E-4 8:0.002609789054499526 9:0.0024944132314598994 10:3.0034185809282816E-4 11:4.8359239111547207E-4 12:2.340054005500837E-4 13:0.001044217668254618 14:8.08932888171257E-4 15:0.036475082146058255 16:0.0010523368400604145 17:3.8501057724515866E-4 18:7.812705686899838E-5 19:3.368543716784811E-5 20:2.6271882185083636E-4 
1.0 1:4.193522879334699E-4 2:1.1641847838652504E-4 3:1.8226497977273407E-4 4:7.635815862408051E-5 5:3.8790762324129754E-4 6:6.674174655538516E-5 7:3.509696238849223E-5 8:4.0384443853157636E-5 9:4.166790547183605E-4 10:3.3434011476697677E-5 11:9.442495068438846E-5 12:2.488997050535419E-5 13:4.8706623933744843E-5 14:1.9831155946644948E-5 15:0.9978583653962173 16:2.5156784962478014E-5 17:4.393961989007555E-5 18:7.128656781578038E-5 19:1.1646802940882264E-5 20:2.7114380153359196E-5 
1.0 1:2.6700384131952065E-4 2:1.1843080710856969E-4 3:1.8892759310611406E-4 4:7.757188255532101E-5 5:3.6718843463082544E-5 6:1.4339174879450384E-4 7:8.678728136539525E-5 8:2.41051577088314E-4 9:3.0427301975765713E-4 10:0.01210322251609445 11:3.424109883872682E-4 12:2.2183390168699325E-4 13:1.1986874295728282E-4 14:2.161877961774808E-4 15:0.9851084383623805 16:5.781908791719277E-6 17:1.0423653364742215E-4 18:6.911426227147882E-5 19:1.11193640328037E-5 20:2.3362902901425127E-4 
1.0 1:0.03047184685401147 2:9.59903266953607E-5 3:1.5636013715581841E-4 4:5.8040906400365815E-5 5:1.0542541403590171E-5 6:7.569793627205684E-5 7:0.004730755873417434 8:0.044474063587150114 9:1.814487650118948E-4 10:1.3346282695769294E-5 11:5.966322018827742E-5 12:3.0961594700601794E-4 13:7.860950231440325E-5 14:8.454849248739882E-5 15:0.918945045670485 16:2.917488407368305E-5 17:7.273661670065201E-5 18:5.598978723650023E-5 19:1.2856053575072976E-5 20:8.366661571899602E-5 
1.0 1:1.2907220934966553E-5 2:1.1543119884543252E-4 3:2.015258434027849E-4 4:7.55681223807893E-5 5:1.0711388946152591E-5 6:7.343163019407849E-5 7:5.78737499797362E-5 8:8.461034269174414E-5 9:7.869057623389038E-5 10:4.287920077939689E-5 11:9.340898607257018E-5 12:6.370693672466271E-5 13:8.421093970718976E-5 14:4.619772532225577E-5 15:0.9987195535694695 16:1.9901302785746926E-5 17:9.923457576583253E-5 18:7.013653512758648E-5 19:8.614103533086766E-6 20:4.140605110275897E-5 
1.0 1:1.1844792675755331E-4 2:1.6214166264635237E-4 3:2.5167896879237886E-4 4:1.7252230716876003E-4 5:7.363399768094935E-4 6:1.259514362236074E-4 7:1.704765733833816E-4 8:0.0011700418415633031 9:0.002027812633101242 10:1.5955498210816198E-4 11:1.234575457859976E-4 12:4.899773759016136E-5 13:0.0978881466860136 14:2.8168866877114876E-5 15:0.8659549874794004 16:0.030532748554725986 17:6.994812573375417E-5 18:1.1024937121929517E-4 19:5.968634697445687E-5 20:8.864097712490137E-5 
1.0 1:0.0725444804332406 2:1.1048057797956763E-4 3:1.6195606678524784E-4 4:7.323692081422652E-5 5:9.366587166341929E-5 6:2.7533254827600347E-4 7:9.349946366790697E-5 8:1.7412258759669658E-4 9:1.9396601296360462E-4 10:2.6950554811108925E-4 11:7.370790130734221E-5 12:9.727497994957291E-5 13:1.5628774379869483E-4 14:1.9709625568130595E-4 15:0.9186139414824517 16:2.640309149411638E-5 17:4.0590273764976627E-5 18:6.329215300804119E-5 19:9.830639047455975E-6 20:0.006731329448398213 
1.0 1:-1.1208597947745554E-5 2:1.8654256937879695E-4 3:2.462524468932544E-4 4:1.1620534329998981E-4 5:4.1242028729786876E-5 6:6.701520759027465E-5 7:2.4370832918459022E-5 8:5.4955407139166265E-5 9:-2.4775324807097253E-5 10:7.933430517639256E-5 11:6.778771392719676E-5 12:3.868738854063417E-5 13:3.5692137199219525E-5 14:-3.2859453564970016E-6 15:0.9990834700391312 16:3.0087899228814032E-5 17:3.712411790796208E-5 18:8.656157312869686E-5 19:8.550958428602004E-6 20:-1.64610100507147E-4 
1.0 1:-1.574531022717748E-5 2:-5.992213323974E-7 3:-8.544066132311203E-7 4:3.1230620230018E-5 5:0.07084586599134478 6:-2.0162724427154915E-4 7:0.11805738572660661 8:9.160389272272772E-5 9:1.3350558468445321E-4 10:7.953847892530062E-4 11:6.998663199136913E-5 12:-1.1949719122515344E-4 13:1.960875696445799E-5 14:4.260814985520714E-4 15:2.95326311306631E-4 16:-3.8442628032539386E-4 17:-2.977033827036127E-6 18:-9.749908719631019E-7 19:6.505534626202012E-5 20:0.8098956665287758 
1.0 1:3.230245975840635E-5 2:3.840072763112873E-4 3:4.5930266691463525E-4 4:1.8182996069307123E-4 5:3.3482047762935624E-5 6:9.30023755058366E-4 7:1.018670681754383E-4 8:4.1005843587846774E-4 9:0.661932014468101 10:3.616215906571212E-4 11:1.1318543209171237E-4 12:6.654060456414365E-4 13:1.4948060509755269E-5 14:0.001553107903894802 15:0.33193497764147384 16:2.3830623160437013E-4 17:8.033272663271047E-5 18:2.752641381709462E-4 19:1.9651444618336217E-6 20:2.9599694620771887E-4 
1.0 1:0.0016579461735791925 2:2.839986817049825E-4 3:1.665245717252596E-4 4:9.086995730306725E-5 5:0.6323549741853267 6:0.0010401837294207652 7:1.1804706399581848E-4 8:4.0687871871959605E-4 9:3.8467108845690234E-4 10:6.249546885896601E-4 11:0.11992458138217454 12:8.967498680528267E-5 13:0.22608591392343866 14:9.379662575900529E-5 15:0.01566134088748184 16:3.757815313039309E-4 17:1.4395391135190285E-4 18:1.5923156884426983E-4 19:2.2098857977460536E-5 20:3.1457746604129054E-4 
1.0 1:1.4420294330507157E-4 2:6.682015150097385E-4 3:0.00282925374194251 4:3.3299498704486764E-4 5:2.7797240798831428E-5 6:1.0306124102759564E-5 7:4.1699206070710465E-5 8:1.0292140837069669E-4 9:1.7577057285868777E-4 10:6.0343621862648766E-5 11:1.0185088090068468E-4 12:1.0430438134335695E-4 13:3.718832766663689E-4 14:3.187369422822455E-5 15:0.27457859620569847 16:4.5579498750335186E-5 17:0.7199843587764811 18:3.2465168644566617E-4 19:1.882201585093951E-5 20:4.458822226843773E-5 
1.0 1:1.8849034521886403E-4 2:0.005060708042859297 3:0.1391085182688365 4:8.173164277359091E-4 5:0.0010356230056987191 6:2.253504326830194E-5 7:5.599421667263584E-5 8:1.2017991913805714E-4 9:1.5863566031024034E-4 10:7.392893972978832E-5 11:7.832947405397547E-5 12:2.5712869657935038E-5 13:1.6249107931233043E-4 14:2.6239722074802617E-5 15:0.16878642667293192 16:3.6764139528715976E-5 17:0.6824289037141366 18:0.0017577596279191442 19:2.426888842069951E-5 20:3.117394249572655E-5 
1.0 1:1.8849034521886403E-4 2:0.005060708042859297 3:0.1391085182688365 4:8.173164277359091E-4 5:0.0010356230056987191 6:2.253504326830194E-5 7:5.599421667263584E-5 8:1.2017991913805714E-4 9:1.5863566031024034E-4 10:7.392893972978832E-5 11:7.832947405397547E-5 12:2.5712869657935038E-5 13:1.6249107931233043E-4 14:2.6239722074802617E-5 15:0.16878642667293192 16:3.6764139528715976E-5 17:0.6824289037141366 18:0.0017577596279191442 19:2.426888842069951E-5 20:3.117394249572655E-5 
1.0 1:1.4591638098895073E-4 2:6.181152293953448E-4 3:0.002563830401178802 4:3.0146110689847823E-4 5:2.550414164218055E-5 6:9.026670225482311E-6 7:3.821065647160174E-5 8:1.0461443729145024E-4 9:1.4850764494404251E-4 10:6.703117469117085E-5 11:9.524141537665177E-5 12:2.8715758693941234E-5 13:1.4474990227198538E-4 14:2.8543298698884574E-5 15:0.2513382957274557 16:4.14132756557703E-5 17:0.7439510162808153 18:2.984801362821657E-4 19:1.7869988949420142E-5 20:3.345637207248193E-5 
1.0 1:1.8849034521886403E-4 2:0.005060708042859297 3:0.1391085182688365 4:8.173164277359091E-4 5:0.0010356230056987191 6:2.253504326830194E-5 7:5.599421667263584E-5 8:1.2017991913805714E-4 9:1.5863566031024034E-4 10:7.392893972978832E-5 11:7.832947405397547E-5 12:2.5712869657935038E-5 13:1.6249107931233043E-4 14:2.6239722074802617E-5 15:0.16878642667293192 16:3.6764139528715976E-5 17:0.6824289037141366 18:0.0017577596279191442 19:2.426888842069951E-5 20:3.117394249572655E-5 
1.0 1:6.121506843092965E-5 2:5.562106488860306E-5 3:4.1861112597714726E-5 4:3.7107602801783216E-5 5:2.459832807217464E-5 6:1.7782219044372875E-4 7:0.0024051150468396574 8:1.2897733247955336E-4 9:0.004979492856961882 10:5.837790376517391E-4 11:1.3415722844472322E-4 12:0.0010319939073923296 13:0.2224049432130938 14:0.0017426318309320978 15:8.8578682563039E-5 16:0.0975775534102401 17:7.811765175145939E-5 18:2.965587513218335E-5 19:0.0013571973603846163 20:0.6670595811988979 
1.0 1:3.925862106831529E-5 2:6.222107317426301E-7 3:1.1037956016955724E-6 4:6.473914965845211E-7 5:8.317240039675102E-5 6:3.1017406931620054E-4 7:1.2120686896753197E-4 8:8.413990619854333E-5 9:0.3208707015932747 10:4.529209933342241E-4 11:4.2299755224748214E-5 12:5.471029131037899E-4 13:3.6559112014766907E-4 14:3.7125002081696035E-4 15:1.6477650744128365E-4 16:0.0014485517462526703 17:1.4049139228362528E-4 18:1.0054607702269478E-6 19:1.7861864861048625E-6 20:0.6749531970470867 
1.0 1:3.355066248773956E-4 2:6.421204450750435E-5 3:7.640445614078497E-5 4:4.6775665682274276E-5 5:9.661603492473176E-5 6:8.620965591669918E-5 7:4.944229146402288E-4 8:6.961910601366842E-4 9:0.8182581235526712 10:0.1776601943547143 11:6.435772926305817E-5 12:1.2924584486031208E-4 13:2.508701934775996E-4 14:1.7334625178743577E-4 15:9.185796412056449E-4 16:1.8803135302854963E-4 17:1.92499504707347E-4 18:8.38984090788019E-5 19:3.871630543701443E-6 20:1.8064307783595112E-4 
1.0 1:1.7088341392319665E-4 2:4.451588069881393E-5 3:5.016995501578943E-5 4:2.7652719225366105E-5 5:1.6613223643873024E-4 6:-3.8861265180031755E-5 7:2.1082465919114842E-4 8:4.1379961070522566E-4 9:0.8726688194583804 10:0.12045012283010653 11:3.821300505055159E-5 12:2.2756153662289555E-4 13:1.9320885071259574E-4 14:0.0036861263752651797 15:6.154356852663777E-4 16:2.0178106842333113E-4 17:1.3789329649187921E-4 18:3.181087292392085E-5 19:3.335005804593882E-4 20:3.704092302790272E-4 
1.0 1:0.7219053289222371 2:2.0102368055405025E-4 3:6.921341351672545E-5 4:1.6875652326776197E-5 5:6.45877277966634E-5 6:-1.4345720259531035E-6 7:-8.998629415984314E-7 8:-1.1190141705255716E-4 9:0.0012651853604111769 10:-1.8482886757611525E-4 11:1.2414264597095893E-4 12:7.012638179108146E-5 13:6.384644598669642E-5 14:-9.85805473081291E-5 15:0.27662630338041694 16:1.6983661150543933E-5 17:3.238907445313955E-5 18:9.707639003354994E-5 19:-5.300872941611206E-5 20:-1.0242874032468291E-4 
1.0 1:1.1248035749539115E-4 2:2.2552537439770895E-4 3:6.840360331780672E-4 4:2.5280567549289235E-4 5:4.428339232349299E-5 6:2.222217217355301E-4 7:8.155732755290201E-4 8:5.16356358505629E-5 9:6.712198887025929E-5 10:8.050669402701811E-5 11:1.0084147811795893E-4 12:0.002154818389694188 13:5.670869704437368E-4 14:0.011866771475402353 15:0.9814706919845605 16:2.3911502782236583E-4 17:7.424931674383674E-4 18:1.7713950268615273E-4 19:8.799167706383867E-6 20:1.1605268722797348E-4 
1.0 1:0.001433361202929759 2:2.633814266642892E-4 3:2.5755753468970186E-4 4:3.012847053032848E-4 5:2.073442570031811E-4 6:1.7416098413041851E-4 7:3.55272585237547E-4 8:4.932759482070324E-4 9:0.05400074412981146 10:2.8364584840879115E-4 11:1.9304145811311742E-4 12:2.737852593530928E-4 13:1.7755046671331888E-4 14:2.796737885766324E-4 15:0.9011305688155937 16:0.038771845633210685 17:5.796230741221333E-4 18:2.4186159588129698E-4 19:2.6260066075110166E-4 20:3.1942062529936556E-4 
1.0 1:2.6618663689264853E-5 2:5.663240284459589E-5 3:1.1821152891168083E-5 4:5.204148804807768E-5 5:4.277717801679411E-4 6:0.004056735893148145 7:5.73732727832851E-5 8:4.563542786966484E-4 9:0.7614655284778636 10:0.0017716923855187728 11:7.62926117767496E-5 12:0.0011427612199566143 13:0.2193452915163284 14:0.00618284181147545 15:1.0051201918535742E-4 16:4.6033605548161403E-4 17:0.0013183831844124749 18:4.186177269405812E-5 19:1.1895000562286833E-4 20:0.002830200007414721 
1.0 1:0.2349013494978721 2:3.449537035814096E-4 3:5.910098497055324E-4 4:1.9128136464345994E-4 5:6.664849072238538E-4 6:8.348699482096266E-5 7:4.659338507498804E-4 8:7.808966262812276E-4 9:0.7552971037354653 10:2.183011296562151E-4 11:2.4843350955928113E-5 12:2.772326764002485E-4 13:2.2103875519293388E-4 14:2.2941446632882554E-4 15:0.004255619450295542 16:5.50793389678825E-5 17:1.540856478853223E-4 18:1.597242202073639E-4 19:5.7901209591606786E-5 20:0.0010242592241741896 
1.0 1:-2.128187239873267E-6 2:9.715805986998631E-4 3:2.2405845648335403E-4 4:6.14235175772699E-5 5:3.5856173448688334E-4 6:2.6278868942591134E-4 7:-3.18385760777371E-4 8:4.5422351448805087E-4 9:0.22967341014833578 10:3.787222016920112E-4 11:6.548729039070198E-7 12:9.007062066223157E-5 13:0.7678846743636044 14:-6.61239041853191E-5 15:9.079548024868955E-4 16:2.8984943808518415E-5 17:-0.001344343287181442 18:3.954504426762337E-4 19:-2.8399025539909507E-4 20:3.2241248745188414E-4 
1.0 1:-6.668365529060874E-4 2:-6.972703890175725E-7 3:-1.1489909835052265E-6 4:-7.208056114090202E-7 5:1.4845515093675425E-4 6:3.755102817828679E-4 7:-2.1025188107917032E-4 8:0.29021945191935633 9:2.4345631766830946E-4 10:2.262437682483536E-4 11:4.520452093348731E-5 12:-1.2267120379666748E-4 13:1.044515426222675E-5 14:8.518254031247976E-4 15:6.172206883306987E-6 16:4.598829343704946E-4 17:-1.5244318842280366E-4 18:-1.1448439883711736E-6 19:1.1496658434457396E-4 20:0.7084543004952656 
1.0 1:9.003224960883766E-5 2:1.016609835712382E-4 3:4.415653590795363E-5 4:3.042461026847527E-6 5:6.938930816957582E-4 6:0.0015328254449172736 7:2.6081621897010586E-4 8:0.001244543047896418 9:0.7253653560504298 10:2.2350578875374616E-4 11:0.0013863754591126646 12:0.003745937881040012 13:0.0023353514985624724 14:4.895786297954609E-4 15:7.720638480297013E-4 16:4.487582857723097E-4 17:0.10206601650055126 18:5.15963409475979E-5 19:8.41665060117523E-6 20:0.15913607304280952 
1.0 1:0.6997900371162598 2:9.104626596020811E-4 3:6.683722109089766E-4 4:4.367295351810241E-4 5:0.0016844271831334065 6:2.5393329373570776E-4 7:2.5352116371459043E-5 8:1.7059137959378893E-4 9:2.6875236447605945E-4 10:9.396245241625757E-5 11:1.7920747580797215E-5 12:5.778680147065719E-4 13:0.0055973150900594576 14:2.7856923076499588E-5 15:0.2879973817196533 16:5.6689806235295484E-5 17:3.8073871001207744E-4 18:4.898280679424133E-4 19:3.563325024135453E-5 20:5.16147358813681E-4 
1.0 1:0.7868496123298716 2:3.0380305923243775E-4 3:5.7199877220508905E-5 4:2.1118949760133096E-5 5:1.3940583507282778E-4 6:3.9736327498103364E-5 7:0.025246050498321296 8:0.032481361197839044 9:3.450942609249911E-4 10:2.1681231629634403E-4 11:1.3356646494667033E-4 12:0.0022771143577986217 13:6.508607674679569E-4 14:2.497958168256284E-5 15:0.1505858399336016 16:1.3558863100029302E-4 17:2.3703786255433045E-4 18:1.0403063716724145E-4 19:4.49849052763062E-5 20:1.0580220646735016E-4 
1.0 1:-3.956952332876564E-5 2:4.9648327543914154E-5 3:-2.3907138729463724E-4 4:2.5826949711083535E-5 5:3.9781023842991764E-4 6:2.037030071744534E-4 7:5.7973380479944685E-5 8:0.30379143820429116 9:1.100329039460815E-4 10:-1.4193170945570158E-4 11:7.269872956248802E-5 12:-1.5477954490357467E-4 13:1.7142204291058363E-5 14:2.21010193617801E-4 15:0.6945243912845456 16:1.813840930414927E-4 17:8.5003138500797E-4 18:3.446949496627681E-5 19:2.1395195790417212E-5 20:1.6396572582976828E-5 
1.0 1:6.520884647588594E-4 2:3.490229665198017E-4 3:3.679531384011372E-4 4:1.6255272490616087E-4 5:5.7260832409536E-5 6:1.713471412802437E-5 7:1.6274713656672842E-4 8:3.9244707839352364E-4 9:5.444193064379506E-4 10:2.8049638957616037E-5 11:1.8288157307804867E-4 12:3.3878851213656826E-4 13:5.923680821308329E-4 14:5.4701815144643E-5 15:0.8444390033426687 16:3.359756286137705E-5 17:9.918962118025936E-5 18:2.4143351530355337E-4 19:7.580143433227222E-5 20:0.15120855853968432 
1.0 1:7.887576480174256E-4 2:2.3690975647681366E-4 3:2.244714251586144E-4 4:0.7511972178213495 5:9.828756029596948E-5 6:2.657110881228106E-4 7:5.538563440836766E-5 8:1.5150101319840346E-5 9:1.658851981185906E-5 10:0.010835312960889366 11:2.045806891856556E-4 12:4.692206692771365E-5 13:0.10098512177363048 14:0.11300631031606226 15:9.96374432436215E-5 16:0.021126326756418443 17:9.240796276570926E-5 18:3.238216473700641E-4 19:2.9909256327757556E-4 20:8.19862652677997E-5 
1.0 1:-1.3434148932806852E-4 2:1.552181559508129E-5 3:3.660075332863551E-5 4:2.885863660714004E-5 5:2.652804392883557E-5 6:4.12675775254341E-6 7:3.0486420494875023E-5 8:7.215603630709708E-5 9:-2.0259496638425704E-5 10:-1.1146145352028796E-4 11:0.9999518275421189 12:7.491413440074193E-5 13:3.474130846628221E-5 14:4.4852079190533935E-5 15:9.951210959293502E-5 16:3.2227010827226555E-5 17:-1.6967308838241146E-4 18:2.1030323654917442E-5 19:-5.208449392151336E-5 20:1.44370495249044E-5 
1.0 1:0.002793377923390291 2:1.5128785580197219E-5 3:3.882213634403648E-5 4:2.8117733188850207E-5 5:3.983144108561125E-5 6:1.7647266906048846E-5 7:1.0704229730588241E-4 8:9.84062240031148E-5 9:8.593536348377185E-5 10:0.00148697779073487 11:0.9886629952545258 12:6.842420630944957E-5 13:4.397471343228415E-5 14:7.805060939431141E-5 15:1.7879442815471497E-4 16:4.867662479195248E-5 17:0.00610509758817861 18:2.1059887650152874E-5 19:9.71520344670699E-6 20:7.192452209328339E-5 
1.0 1:1.3020673432236906E-4 2:1.8867828942757732E-5 3:4.9941829672304534E-5 4:3.484111475771504E-5 5:4.52901896302085E-5 6:2.0549142877422735E-5 7:0.007299306508037454 8:0.003704238460739104 9:1.0731956353573741E-4 10:7.189825880643412E-5 11:0.9872399416292525 12:4.7514389328708794E-4 13:5.761220444515303E-5 14:1.0319650724666827E-4 15:2.228116105453196E-4 16:1.4027729704363336E-4 17:9.480243894286507E-5 18:2.5796712169434704E-5 19:9.75205563779667E-6 20:1.4820602010783452E-4 
1.0 1:1.7587789125900677E-4 2:3.6023880300480775E-5 3:9.730505084636381E-5 4:6.08666122620623E-5 5:8.342948650798347E-5 6:3.558940034562045E-5 7:2.32389537206217E-4 8:2.4646530960957996E-4 9:2.1943757235546763E-4 10:8.234405870299454E-5 11:0.9974400293222827 12:1.8551325972683075E-4 13:1.1557442683025583E-4 14:2.0947651905761007E-4 15:2.464290714520403E-4 16:8.082325689357177E-5 17:1.9415413143267742E-4 18:4.910744582877527E-5 19:1.3229915295483335E-5 20:1.9593385180457324E-4 
1.0 1:9.806506065869801E-5 2:1.719740241523855E-5 3:4.5634085472066555E-5 4:3.322491568315143E-5 5:1.4313964402768432E-5 6:1.714871868753697E-5 7:1.326154735254659E-4 8:1.1350302363702817E-4 9:1.0013151810421756E-4 10:4.128034933573965E-5 11:0.9986461757513208 12:8.019933705669433E-5 13:5.3281844960109165E-5 14:1.351850494970348E-4 15:2.2596506269861036E-4 16:3.802379188279271E-5 17:9.00054467534097E-5 18:2.3506716511846506E-5 19:7.83080817470651E-6 20:8.67116792222464E-5 
1.0 1:5.261982484945726E-5 2:2.142647462524015E-6 3:1.01182544681888E-5 4:2.2222288986181025E-6 5:3.27583266353315E-4 6:2.573944481726769E-4 7:0.003557302727258481 8:1.7834226004607537E-4 9:4.2459447558499454E-4 10:5.14282046816305E-4 11:6.577751068925422E-4 12:3.130893717109709E-4 13:1.8247675504001395E-5 14:0.6465839511957236 15:9.056928510788143E-5 16:5.316825921013962E-4 17:9.255843604662423E-5 18:3.468433302298335E-6 19:2.2756464230040582E-4 20:0.34615449108139956 
1.0 1:2.0914952012634743E-4 2:4.938644313895307E-5 3:1.8918000716906073E-4 4:6.229398593936876E-5 5:9.794250983757533E-5 6:9.309733903298422E-5 7:8.141009382443277E-5 8:1.3569136807735466E-4 9:2.641467211864208E-4 10:2.570731457048159E-4 11:3.189571203618506E-4 12:2.907147185360202E-4 13:0.6616120982704241 14:0.33481498949551436 15:7.151094351469081E-5 16:7.731666023476948E-4 17:3.8459663897021497E-4 18:5.1709610112064984E-5 19:1.43706248590098E-4 20:9.917921759154453E-5 
1.0 1:1.4342718730699788E-4 2:9.055469570418766E-5 3:1.9361837626189586E-4 4:1.1500239595072037E-4 5:7.56982820745124E-5 6:6.640073152570419E-4 7:8.97458711729519E-5 8:2.579276663292108E-4 9:5.652322715498308E-4 10:4.8112558376276106E-4 11:7.281439819958307E-5 12:3.9842993099288527E-4 13:0.702691850466522 14:0.23399279055747793 15:7.09386837980862E-4 16:1.0401051207062873E-4 17:0.05807646784022673 18:9.233598454938233E-5 19:3.589744801944181E-4 20:8.265993464156012E-4 
1.0 1:9.520171174767834E-5 2:1.9707985519700613E-5 3:1.767137127374231E-5 4:1.6151486082577453E-5 5:2.5683321810159845E-4 6:0.9964659122263952 7:6.21117794119787E-5 8:1.3648905906894898E-4 9:3.298855356113506E-4 10:3.24234132582861E-4 11:2.8763064537988247E-5 12:1.587373599952853E-4 13:3.743557266610391E-5 14:0.0015452441616022534 15:5.0385503601754305E-5 16:1.38526186038546E-4 17:2.7362572296063665E-5 18:9.194639322842098E-6 19:3.317126564097462E-5 20:2.4698116850246953E-4 
1.0 1:9.541741557015026E-5 2:1.9727230266564848E-5 3:1.7723271080739632E-5 4:1.6170404226431136E-5 5:2.569454929552948E-4 6:0.9963027684210822 7:6.220524439744268E-5 8:2.771732032534099E-4 9:3.844560152991865E-4 10:2.8333803887265944E-4 11:2.879469875904827E-5 12:1.5880153712999852E-4 13:3.7477331735094866E-5 14:0.0015465457586158013 15:5.0529292245285125E-5 16:1.3860476268500463E-4 17:3.374005214342585E-5 18:9.220724194120675E-6 19:3.320553208990455E-5 20:2.471555733982857E-4 
1.0 1:9.520171174767834E-5 2:1.9707985519700613E-5 3:1.767137127374231E-5 4:1.6151486082577453E-5 5:2.5683321810159845E-4 6:0.9964659122263952 7:6.21117794119787E-5 8:1.3648905906894898E-4 9:3.298855356113506E-4 10:3.24234132582861E-4 11:2.8763064537988247E-5 12:1.587373599952853E-4 13:3.743557266610391E-5 14:0.0015452441616022534 15:5.0385503601754305E-5 16:1.38526186038546E-4 17:2.7362572296063665E-5 18:9.194639322842098E-6 19:3.317126564097462E-5 20:2.4698116850246953E-4 
1.0 1:9.520171174767834E-5 2:1.9707985519700613E-5 3:1.767137127374231E-5 4:1.6151486082577453E-5 5:2.5683321810159845E-4 6:0.9964659122263952 7:6.21117794119787E-5 8:1.3648905906894898E-4 9:3.298855356113506E-4 10:3.24234132582861E-4 11:2.8763064537988247E-5 12:1.587373599952853E-4 13:3.743557266610391E-5 14:0.0015452441616022534 15:5.0385503601754305E-5 16:1.38526186038546E-4 17:2.7362572296063665E-5 18:9.194639322842098E-6 19:3.317126564097462E-5 20:2.4698116850246953E-4 
1.0 1:9.520171174767834E-5 2:1.9707985519700613E-5 3:1.767137127374231E-5 4:1.6151486082577453E-5 5:2.5683321810159845E-4 6:0.9964659122263952 7:6.21117794119787E-5 8:1.3648905906894898E-4 9:3.298855356113506E-4 10:3.24234132582861E-4 11:2.8763064537988247E-5 12:1.587373599952853E-4 13:3.743557266610391E-5 14:0.0015452441616022534 15:5.0385503601754305E-5 16:1.38526186038546E-4 17:2.7362572296063665E-5 18:9.194639322842098E-6 19:3.317126564097462E-5 20:2.4698116850246953E-4 
1.0 1:2.3707867343120053E-4 2:1.3200132922712729E-5 3:1.2495938434992492E-5 4:1.087957930301054E-5 5:2.542075556019366E-4 6:0.49356721350762633 7:6.765429218999561E-5 8:2.2991259149822448E-4 9:9.776076328258283E-4 10:2.959625867701827E-4 11:2.755404976402173E-5 12:3.989378590862999E-4 13:5.012546401452542E-5 14:0.5028940200922604 15:1.5852525360406905E-4 16:1.6811577048453537E-4 17:3.554118245023373E-5 18:6.492938265143185E-6 19:6.996850781778083E-5 20:5.245063916486969E-4 
1.0 1:1.023219193418065E-4 2:2.110095536347836E-5 3:1.8925825589619776E-5 4:1.7293734207092044E-5 5:2.8324958693909884E-4 6:0.9943321502718956 7:6.726262164685928E-5 8:1.4808455479478201E-4 9:3.6383944118976313E-4 10:3.489791823469259E-4 11:3.082983489429227E-5 12:1.727247087157224E-4 13:4.032565090063574E-5 14:0.003432105733068063 15:5.437002459208031E-5 16:1.498092020766908E-4 17:2.9488100493620996E-5 18:9.847598928131693E-6 19:3.53918335350391E-5 20:3.418992194804987E-4 
1.0 1:2.4010390436369157E-4 2:2.2047774682531778E-5 3:6.965398275007947E-5 4:1.8100734447275034E-5 5:2.503348005460001E-4 6:0.9453450268936531 7:2.01865158129767E-4 8:3.2470555726646236E-4 9:6.995774665301393E-4 10:0.0021790343539846552 11:3.2851426975409545E-5 12:7.747015090802969E-4 13:0.04808873338030688 14:6.794109594509768E-4 15:1.1329957132672806E-4 16:2.3012634780730703E-4 17:3.438020229834733E-5 18:1.049639429188373E-5 19:2.004473451857859E-5 20:6.655048475899984E-4 
1.0 1:6.328898190358557E-4 2:1.2025772389557125E-6 3:4.782680398490702E-6 4:5.4265780784791994E-5 5:2.6689025534448545E-4 6:1.9474893749426528E-4 7:0.2533848763567184 8:3.6602705569570873E-4 9:0.7400314243227334 10:3.729950173876552E-4 11:9.964824809688823E-4 12:2.2618214947892472E-4 13:3.063150873185919E-4 14:0.0014396855729768088 15:5.402058100089559E-4 16:7.710875655519986E-4 17:7.726252114145285E-5 18:1.9190007051968984E-6 19:2.042399837775348E-5 20:3.103330106393351E-4 
1.0 1:-4.7972780687040154E-5 2:-2.7814675048189542E-5 3:6.738519246777107E-5 4:-1.4023631152713858E-4 5:-6.571049795533924E-5 6:1.6272529633473325E-5 7:3.246338305716723E-5 8:3.3682754107448755E-5 9:-2.0211600381105606E-4 10:-4.471268155512911E-6 11:5.563191363531856E-6 12:1.9014429758486357E-5 13:1.0186048876109116E-4 14:1.3767670273315676E-4 15:-4.4503280363250035E-5 16:1.6858546009832694E-4 17:1.0084018238969885 18:-4.058288147797205E-5 19:-0.008427840828889178 20:1.6920498945634426E-5 
1.0 1:2.923747842473601E-4 2:6.771355282613899E-7 3:1.2956599752506238E-6 4:1.695585336892939E-5 5:9.821518526361839E-5 6:3.239967551435425E-4 7:0.5872415666300869 8:4.053530931850683E-4 9:0.4083295237521423 10:3.749672522237963E-4 11:2.8630430091499813E-4 12:2.1725132207844273E-4 13:9.209038748703726E-5 14:2.942306135541767E-4 15:2.484375414659136E-4 16:0.0010805692347462532 17:6.686070933046313E-5 18:1.0946487164179758E-6 19:6.6281784043389965E-6 20:6.216069621366383E-4 
