svm_type one_class
kernel_type rbf
gamma 4.0241448692152917E-4
nr_class 2
total_sv 547
rho 409.9956628575487
SV
1.0 2:0.8363889229922938 3:0.6442920300428137 5:0.7229761993296098 6:0.5115285271737248 9:0.9625444801735886 10:0.48242404988302695 11:0.7696252964004451 12:0.5494958093103514 13:0.8488779582371074 16:0.4840794759292644 17:0.5422346917858087 18:0.7878185519131923 19:1.5245570478856514 22:0.7612408731871162 23:0.8898909892904574 24:0.7698904075826417 25:0.8971363234155901 26:0.7776622094461492 27:0.48028951652846824 29:1.4109755914999331 33:0.9238606027441565 35:2.6966862764777244 36:0.7051677222907861 40:0.7768816210014622 42:0.5081964742445442 44:0.686539521868536 47:0.601947748305831 48:0.7612408731871162 49:0.48028951652846824 50:1.5222227924439218 57:0.9131436104937845 59:1.49213973902658 62:0.8093061292101876 65:4.3898757348507695 66:0.8394474026263623 67:0.5150956054374005 68:0.9116291376550035 70:1.1163374164339457 73:0.48028951652846824 74:0.6682856830684519 77:0.8060556010813729 79:0.613469113994565 83:0.6762677626765826 84:0.7948390215184225 85:0.8799710211592416 87:0.5076455345886675 89:0.48028951652846824 90:0.9320108443893841 91:1.3392038300954283 100:0.7661960567987834 103:1.2519287278485678 104:0.8799710211592416 106:0.7760408738463814 107:0.7897712164056604 109:0.9509673947568953 112:0.48028951652846824 113:0.8131240277383373 115:0.4944394410474972 116:0.805181061916 118:1.0408964822645175 119:1.3928159443565484 120:0.5549667984640061 122:0.48028951652846824 123:0.49705816481761284 125:0.9361481395857645 127:1.8745558696372768 133:0.9731697997130591 137:0.48028951652846824 138:0.48424566883140213 143:0.6646945849137845 145:2.4678842584519307 146:3.1374638448873093 147:1.0519322461343288 150:1.207546689930905 153:0.7672478167166338 155:0.48028951652846824 156:0.6067142212428076 157:0.4921930242144323 158:0.9099824786457137 159:0.48028951652846824 161:0.7685667487322152 162:1.1598693470304415 163:0.8089851187197574 165:0.48608165820812077 167:2.3389248450031674 174:0.8577561019997464 175:0.623765748619474 176:0.8310646499691847 185:1.5198965942296228 188:1.1343702434630698 190:0.625470320861203 194:1.0136283570189815 200:0.5475539193885061 201:0.5993339094478175 204:0.7022308033300364 207:1.0869192980470843 212:1.080088114800043 215:0.8663681982667671 216:3.869858920482764 217:4.194662280254896 218:2.0175132973869343 219:1.4289103496268998 220:0.7791678897509656 221:1.2125880771773219 222:1.0070119994511149 223:1.2682605156992341 224:0.8521089937729768 225:0.953128698775523 226:4.068612870890313 227:2.155161853096731 228:1.529728237899739 229:1.297849749853208 230:0.8634735037769254 231:0.9452587001623373 232:2.11199108461167 233:1.2858052901989558 234:1.7545875181808392 235:1.6922160783769697 236:2.60149128157305 237:2.36740761129592 238:1.2100269973760258 239:1.2499219003091537 240:3.5901142206180574 241:0.7264987367030434 242:1.7910150171062518 243:2.125013278384711 244:0.6985967248216952 245:1.8493298704297105 246:4.87890520094308 247:1.3024411043329165 248:2.1189664327453994 249:3.6501005664095816 250:1.6738097901223934 251:2.0193073418845637 252:2.52457535162596 253:3.1135534799910287 254:3.7885437450158825 255:1.7585784459307896 256:2.6696801020222867 257:3.7001679474098523 258:2.264344477087902 259:1.661797050946032 260:3.7158390511942074 261:1.7691948611642807 262:2.0563021062565783 263:1.5320877224204341 264:1.6328163741154316 265:0.9854067663231719 266:4.607875170984202 267:0.9231887679541187 268:3.116484985358882 269:1.4611812538920714 270:1.9854820610856052 271:1.9488227540312526 272:6.459278686032717 273:2.1017204796870064 2485:0.0 
1.0 2:0.5277026570734246 3:1.0211787071313685 6:1.0230570543474495 7:1.0080084701117218 8:0.5903720617724708 9:0.9625444801735886 10:0.48242404988302695 11:0.48557949860029265 12:0.5494958093103514 13:0.8488779582371074 14:1.0343692735516683 15:1.0569992649449833 16:1.1239977353185098 17:0.5422346917858087 18:1.284876716730805 19:1.5245570478856514 20:0.9138989141974074 22:0.7612408731871162 23:0.8898909892904574 24:1.457240295399435 26:0.7776622094461492 27:0.48028951652846824 29:0.8651357229887664 31:3.827608364113327 32:0.8009214950448187 35:2.9030591292941876 36:0.7051677222907861 37:0.5704460988261973 38:0.4979375113287172 39:0.5333349948221845 42:0.5081964742445442 44:0.686539521868536 47:0.601947748305831 48:2.2021094227725206 49:0.48028951652846824 51:1.1860040249114163 52:1.3321990949896978 57:0.9131436104937845 58:0.783118003067778 59:0.5315108992107563 60:1.4043486158305747 61:0.49935123399125086 62:0.8093061292101876 64:1.3202847845801942 67:1.1960149578181158 68:0.9116291376550035 69:0.7669951016734555 70:1.779098725630252 73:1.1151977221073186 75:3.8200125883564175 77:0.8060556010813729 79:0.972325541032018 80:1.0385829410393457 81:0.9761461364441604 83:0.6762677626765826 84:0.5014875879755966 85:0.8799710211592416 86:3.094626382868878 87:1.1787164290055412 88:0.7678824235827509 89:2.1726193848611945 94:0.6789743507044552 95:3.560820255213304 99:0.8183995049662175 100:0.4834158893034788 102:2.5924432147126057 106:0.7760408738463814 107:0.49829015894465345 112:0.48028951652846824 113:1.02604828488796 114:0.5456264049419831 115:0.4944394410474972 116:0.5080126889750662 118:1.8004551012371044 120:1.2885930010832685 122:0.48028951652846824 123:0.7878185519131923 124:0.9145553961828462 129:1.1478099661763301 132:1.367934495783951 133:0.7712188196897585 137:0.48028951652846824 138:0.48424566883140213 139:2.462086313271099 140:0.816868174470804 143:0.6646945849137845 147:1.0519322461343288 148:0.5635061160274867 150:0.8242788506778833 152:0.5655693390943871 153:0.7672478167166338 154:1.2687542688178812 155:0.9605790330569365 156:0.9616192893240892 157:1.2723005107108476 158:0.9099824786457137 159:0.48028951652846824 160:0.8934431606315706 161:0.48491162938083276 162:1.2912625392712989 163:0.8089851187197574 165:0.7704212005482295 166:1.0456106458541061 167:2.3389248450031674 169:1.0381983966108006 172:1.361000250066145 173:1.0724054150047884 175:0.623765748619474 176:0.5243434148070072 177:1.0040493193570896 178:2.4826384437614206 181:2.069208426771825 183:0.564650386975777 186:1.1055293972563234 187:0.9369174178919859 188:0.8989671489114471 190:0.625470320861203 196:0.7908259076931016 197:0.8823862162440039 199:0.9949738565142615 200:0.5475539193885061 201:0.5993339094478175 206:0.6516670517630058 209:0.5936673871229642 210:0.6246167941521141 213:5.763203776227799 230:0.8634735037769254 241:0.7264987367030434 243:1.3407341040673402 244:0.6985967248216952 246:1.7379010977946343 248:0.9125891699278446 251:1.2740410836002625 257:1.1672730256161516 267:0.9231887679541187 268:3.687720048796122 273:1.326037984325008 274:6.079926916695688 276:0.8537922071845312 281:2.248663369376011 296:1.0471190064917533 297:1.5705454858519257 315:1.752752235990372 324:1.3957495848824255 353:1.1974200905783368 354:1.2362614612570297 356:1.0723932567978591 357:1.2059130226984176 358:0.9481031545117493 361:1.774523847409008 364:1.561093583198097 365:1.1902694763271622 366:1.5278143075931034 367:1.2583022466598437 368:1.6607117996070913 369:1.5931200856990606 370:1.213873678248198 371:1.7098370127788587 372:1.0853124629280746 377:1.294811716601723 381:1.8292551473588745 382:2.3426809711208465 383:7.194229332871425 384:7.888950359530587 385:1.9323285466214302 386:2.288608050277541 387:9.10831702787097 388:3.962006835333502 389:2.288608050277541 390:2.2409642991263965 391:2.68722494598011 392:2.3311953600052533 393:2.446513069744394 394:2.4057602037378794 395:1.4308716424789498 396:2.934904494202517 397:2.6198615868886006 398:3.1238910484386695 399:2.3224501962044344 400:1.2784205515216915 401:1.297849749853208 402:2.2258384112044616 403:3.7847361252338025 404:2.5315166675636256 405:4.973391622048886 2485:0.0 
1.0 2:0.5277026570734246 3:1.0211787071313685 6:1.0230570543474495 7:1.0080084701117218 8:0.5903720617724708 9:0.9625444801735886 10:0.48242404988302695 11:0.48557949860029265 12:0.5494958093103514 13:0.8488779582371074 14:1.0343692735516683 15:1.0569992649449833 16:1.1239977353185098 17:0.5422346917858087 18:1.284876716730805 19:1.5245570478856514 20:0.9138989141974074 22:0.7612408731871162 23:0.8898909892904574 24:1.457240295399435 26:0.7776622094461492 27:0.48028951652846824 29:0.8651357229887664 31:3.827608364113327 32:0.8009214950448187 35:2.9030591292941876 36:0.7051677222907861 37:0.5704460988261973 38:0.4979375113287172 39:0.5333349948221845 42:0.5081964742445442 44:0.686539521868536 47:0.601947748305831 48:2.2021094227725206 49:0.48028951652846824 51:1.1860040249114163 52:1.3321990949896978 57:0.9131436104937845 58:0.783118003067778 59:0.5315108992107563 60:1.4043486158305747 61:0.49935123399125086 62:0.8093061292101876 64:1.3202847845801942 67:1.1960149578181158 68:0.9116291376550035 69:0.7669951016734555 70:1.779098725630252 73:1.1151977221073186 75:3.8200125883564175 77:0.8060556010813729 79:0.972325541032018 80:1.0385829410393457 81:0.9761461364441604 83:0.6762677626765826 84:0.5014875879755966 85:0.8799710211592416 86:3.094626382868878 87:1.1787164290055412 88:0.7678824235827509 89:2.1726193848611945 94:0.6789743507044552 95:3.560820255213304 99:0.8183995049662175 100:0.4834158893034788 102:2.5924432147126057 106:0.7760408738463814 107:0.49829015894465345 112:0.48028951652846824 113:1.02604828488796 114:0.5456264049419831 115:0.4944394410474972 116:0.5080126889750662 118:1.8004551012371044 120:1.2885930010832685 122:0.48028951652846824 123:0.7878185519131923 124:0.9145553961828462 129:1.1478099661763301 132:1.367934495783951 133:0.7712188196897585 137:0.48028951652846824 138:0.48424566883140213 139:2.462086313271099 140:0.816868174470804 143:0.6646945849137845 147:1.0519322461343288 148:0.5635061160274867 150:0.8242788506778833 152:0.5655693390943871 153:0.7672478167166338 154:1.2687542688178812 155:0.9605790330569365 156:0.9616192893240892 157:1.2723005107108476 158:0.9099824786457137 159:0.48028951652846824 160:0.8934431606315706 161:0.48491162938083276 162:1.2912625392712989 163:0.8089851187197574 165:0.7704212005482295 166:1.0456106458541061 167:2.3389248450031674 169:1.0381983966108006 172:1.361000250066145 173:1.0724054150047884 175:0.623765748619474 176:0.5243434148070072 177:1.0040493193570896 178:2.4826384437614206 181:2.069208426771825 183:0.564650386975777 186:1.1055293972563234 187:0.9369174178919859 188:0.8989671489114471 190:0.625470320861203 196:0.7908259076931016 197:0.8823862162440039 199:0.9949738565142615 200:0.5475539193885061 201:0.5993339094478175 206:0.6516670517630058 209:0.5936673871229642 210:0.6246167941521141 213:5.763203776227799 230:0.8634735037769254 241:0.7264987367030434 243:1.3407341040673402 244:0.6985967248216952 248:0.9125891699278446 251:1.2740410836002625 257:1.1672730256161516 266:1.6413582532011792 267:0.9231887679541187 268:3.687720048796122 273:1.326037984325008 274:6.079926916695688 276:0.8537922071845312 281:2.248663369376011 296:1.0471190064917533 297:1.5705454858519257 315:1.752752235990372 324:1.3957495848824255 353:1.1974200905783368 354:1.2362614612570297 356:1.0723932567978591 357:1.2059130226984176 358:0.9481031545117493 361:1.774523847409008 364:1.561093583198097 365:1.1902694763271622 366:1.5278143075931034 367:1.2583022466598437 368:1.6607117996070913 369:1.5931200856990606 370:1.213873678248198 371:1.7098370127788587 372:1.0853124629280746 377:1.294811716601723 381:1.8292551473588745 382:2.3426809711208465 383:7.194229332871425 384:7.888950359530587 385:1.9323285466214302 386:2.288608050277541 387:9.10831702787097 388:3.962006835333502 389:2.288608050277541 390:2.2409642991263965 391:2.68722494598011 392:2.3311953600052533 393:2.446513069744394 394:2.4057602037378794 395:1.4308716424789498 396:2.934904494202517 397:2.6198615868886006 398:3.1238910484386695 399:2.3224501962044344 400:1.2784205515216915 401:1.297849749853208 402:2.2258384112044616 403:3.7847361252338025 404:2.5315166675636256 405:4.973391622048886 2485:0.0 
1.0 2:0.5277026570734246 3:1.0211787071313685 6:1.0230570543474495 7:1.0080084701117218 8:0.5903720617724708 9:0.9625444801735886 10:0.48242404988302695 11:0.48557949860029265 12:0.5494958093103514 13:0.8488779582371074 14:1.0343692735516683 15:1.0569992649449833 16:1.1239977353185098 17:0.5422346917858087 18:1.284876716730805 19:1.5245570478856514 20:0.9138989141974074 22:0.7612408731871162 23:0.8898909892904574 24:1.457240295399435 26:0.7776622094461492 27:0.48028951652846824 29:0.8651357229887664 31:3.827608364113327 32:0.8009214950448187 35:2.9030591292941876 36:0.7051677222907861 37:0.5704460988261973 38:0.4979375113287172 39:0.5333349948221845 42:0.5081964742445442 44:0.686539521868536 47:0.601947748305831 48:2.2021094227725206 49:0.48028951652846824 51:1.1860040249114163 52:1.3321990949896978 57:0.9131436104937845 58:0.783118003067778 59:0.5315108992107563 60:1.4043486158305747 61:0.49935123399125086 62:0.8093061292101876 64:1.3202847845801942 67:1.1960149578181158 68:0.9116291376550035 69:0.7669951016734555 70:1.779098725630252 73:1.1151977221073186 75:3.8200125883564175 77:0.8060556010813729 79:0.972325541032018 80:1.0385829410393457 81:0.9761461364441604 83:0.6762677626765826 84:0.5014875879755966 85:0.8799710211592416 86:3.094626382868878 87:1.1787164290055412 88:0.7678824235827509 89:2.1726193848611945 94:0.6789743507044552 95:3.560820255213304 99:0.8183995049662175 100:0.4834158893034788 102:2.5924432147126057 106:0.7760408738463814 107:0.49829015894465345 112:0.48028951652846824 113:1.02604828488796 114:0.5456264049419831 115:0.4944394410474972 116:0.5080126889750662 118:1.8004551012371044 120:1.2885930010832685 122:0.48028951652846824 123:0.7878185519131923 124:0.9145553961828462 129:1.1478099661763301 132:1.367934495783951 133:0.7712188196897585 137:0.48028951652846824 138:0.48424566883140213 139:2.462086313271099 140:0.816868174470804 143:0.6646945849137845 147:1.0519322461343288 148:0.5635061160274867 150:0.8242788506778833 152:0.5655693390943871 153:0.7672478167166338 154:1.2687542688178812 155:0.9605790330569365 156:0.9616192893240892 157:1.2723005107108476 158:0.9099824786457137 159:0.48028951652846824 160:0.8934431606315706 161:0.48491162938083276 162:1.2912625392712989 163:0.8089851187197574 165:0.7704212005482295 166:1.0456106458541061 167:2.3389248450031674 169:1.0381983966108006 172:1.361000250066145 173:1.0724054150047884 175:0.623765748619474 176:0.5243434148070072 177:1.0040493193570896 178:2.4826384437614206 181:2.069208426771825 183:0.564650386975777 186:1.1055293972563234 187:0.9369174178919859 188:0.8989671489114471 190:0.625470320861203 196:0.7908259076931016 197:0.8823862162440039 199:0.9949738565142615 200:0.5475539193885061 201:0.5993339094478175 206:0.6516670517630058 209:0.5936673871229642 210:0.6246167941521141 213:5.763203776227799 230:0.8634735037769254 241:0.7264987367030434 243:1.3407341040673402 244:0.6985967248216952 248:0.9125891699278446 251:1.2740410836002625 257:1.1672730256161516 266:1.6413582532011792 267:0.9231887679541187 268:3.687720048796122 273:1.326037984325008 274:6.079926916695688 276:0.8537922071845312 281:2.248663369376011 296:1.0471190064917533 297:1.5705454858519257 315:1.752752235990372 324:1.3957495848824255 353:1.1974200905783368 354:1.2362614612570297 356:1.0723932567978591 357:1.2059130226984176 358:0.9481031545117493 361:1.774523847409008 364:1.561093583198097 365:1.1902694763271622 366:1.5278143075931034 367:1.2583022466598437 368:1.6607117996070913 369:1.5931200856990606 370:1.213873678248198 371:1.7098370127788587 372:1.0853124629280746 377:1.294811716601723 381:1.8292551473588745 382:2.3426809711208465 383:7.194229332871425 384:7.888950359530587 385:1.9323285466214302 386:2.288608050277541 387:9.10831702787097 388:3.962006835333502 389:2.288608050277541 390:2.2409642991263965 391:3.390900345916607 392:2.3311953600052533 393:2.446513069744394 394:2.4057602037378794 395:1.4308716424789498 396:2.934904494202517 397:2.6198615868886006 398:3.1238910484386695 399:2.3224501962044344 400:1.2784205515216915 401:1.297849749853208 402:2.2258384112044616 403:3.7847361252338025 404:2.5315166675636256 405:4.283846371470126 2485:0.0 
1.0 2:0.5277026570734246 3:1.0211787071313685 6:1.0230570543474495 7:1.0080084701117218 8:0.5903720617724708 9:0.9625444801735886 10:0.48242404988302695 11:0.48557949860029265 12:0.5494958093103514 13:0.8488779582371074 14:1.0343692735516683 15:1.0569992649449833 16:1.1239977353185098 17:0.5422346917858087 18:1.284876716730805 19:1.5245570478856514 20:0.9138989141974074 22:0.7612408731871162 23:0.8898909892904574 24:1.457240295399435 26:0.7776622094461492 27:0.48028951652846824 29:0.8651357229887664 31:3.827608364113327 32:0.8009214950448187 35:2.9030591292941876 36:0.7051677222907861 37:0.5704460988261973 38:0.4979375113287172 39:0.5333349948221845 42:0.5081964742445442 44:0.686539521868536 47:0.601947748305831 48:2.2021094227725206 49:0.48028951652846824 51:1.1860040249114163 52:1.3321990949896978 57:0.9131436104937845 58:0.783118003067778 59:0.5315108992107563 60:1.4043486158305747 61:0.49935123399125086 62:0.8093061292101876 64:1.3202847845801942 67:1.1960149578181158 68:0.9116291376550035 69:0.7669951016734555 70:1.779098725630252 73:1.1151977221073186 75:3.8200125883564175 77:0.8060556010813729 79:0.972325541032018 80:1.0385829410393457 81:0.9761461364441604 83:0.6762677626765826 84:0.5014875879755966 85:0.8799710211592416 86:3.094626382868878 87:1.1787164290055412 88:0.7678824235827509 89:2.1726193848611945 94:0.6789743507044552 95:3.560820255213304 99:0.8183995049662175 100:0.4834158893034788 102:1.635649558606621 106:0.7760408738463814 107:0.49829015894465345 112:0.48028951652846824 113:1.02604828488796 114:0.5456264049419831 115:0.4944394410474972 116:0.5080126889750662 118:1.8004551012371044 120:1.2885930010832685 122:0.48028951652846824 123:0.7878185519131923 124:0.9145553961828462 129:1.1478099661763301 132:1.367934495783951 133:0.7712188196897585 137:0.48028951652846824 138:0.48424566883140213 139:2.462086313271099 140:0.816868174470804 143:0.6646945849137845 147:1.0519322461343288 148:0.5635061160274867 150:0.8242788506778833 152:0.5655693390943871 153:0.7672478167166338 154:1.2687542688178812 155:0.9605790330569365 156:0.9616192893240892 157:1.2723005107108476 158:0.9099824786457137 159:0.48028951652846824 160:0.8934431606315706 161:0.48491162938083276 162:1.2912625392712989 163:0.8089851187197574 165:0.7704212005482295 166:1.0456106458541061 167:2.3389248450031674 169:1.0381983966108006 172:1.361000250066145 173:1.0724054150047884 175:0.623765748619474 176:0.5243434148070072 177:1.0040493193570896 178:2.4826384437614206 181:2.069208426771825 183:0.564650386975777 186:1.1055293972563234 187:0.9369174178919859 188:0.8989671489114471 190:0.625470320861203 196:0.7908259076931016 197:0.8823862162440039 199:0.9949738565142615 200:0.5475539193885061 201:0.5993339094478175 206:0.6516670517630058 209:0.5936673871229642 210:0.6246167941521141 213:5.763203776227799 230:0.8634735037769254 241:0.7264987367030434 243:1.3407341040673402 244:0.6985967248216952 248:0.9125891699278446 251:1.2740410836002625 257:1.1672730256161516 266:1.6413582532011792 267:0.9231887679541187 268:3.687720048796122 273:1.326037984325008 274:6.079926916695688 276:0.8537922071845312 281:2.248663369376011 296:1.0471190064917533 297:1.5705454858519257 315:1.752752235990372 324:1.3957495848824255 353:1.1974200905783368 354:1.2362614612570297 356:1.0723932567978591 357:1.2059130226984176 358:0.9481031545117493 361:1.774523847409008 364:1.561093583198097 365:1.1902694763271622 366:1.5278143075931034 367:1.2583022466598437 368:1.6607117996070913 369:1.5931200856990606 370:1.213873678248198 371:1.7098370127788587 372:1.0853124629280746 377:1.294811716601723 381:1.8292551473588745 382:2.3426809711208465 383:7.194229332871425 384:7.888950359530587 385:1.9323285466214302 386:2.288608050277541 387:9.10831702787097 388:3.962006835333502 389:2.288608050277541 390:2.2409642991263965 391:3.390900345916607 392:2.3311953600052533 393:2.446513069744394 394:2.4057602037378794 395:1.4308716424789498 396:2.934904494202517 397:2.6198615868886006 398:3.1238910484386695 399:2.3224501962044344 400:1.2784205515216915 401:1.297849749853208 402:2.2258384112044616 403:3.7847361252338025 404:2.5315166675636256 405:4.973391622048886 2485:0.0 
1.0 2:0.5277026570734246 3:1.0211787071313685 6:1.0230570543474495 7:1.0080084701117218 8:0.5903720617724708 9:0.9625444801735886 10:0.48242404988302695 11:0.48557949860029265 12:0.5494958093103514 13:0.8488779582371074 14:1.0343692735516683 15:1.0569992649449833 16:1.1239977353185098 17:0.5422346917858087 18:1.284876716730805 19:1.5245570478856514 20:0.9138989141974074 22:0.7612408731871162 23:0.8898909892904574 24:1.457240295399435 26:0.7776622094461492 27:0.48028951652846824 29:0.8651357229887664 31:3.827608364113327 32:0.8009214950448187 35:2.9030591292941876 36:0.7051677222907861 37:0.5704460988261973 38:0.4979375113287172 39:0.5333349948221845 42:0.5081964742445442 44:0.686539521868536 47:0.601947748305831 48:2.2021094227725206 49:0.48028951652846824 51:1.1860040249114163 52:1.3321990949896978 57:0.9131436104937845 58:0.783118003067778 59:0.5315108992107563 60:1.4043486158305747 61:0.49935123399125086 62:0.8093061292101876 64:1.3202847845801942 67:1.1960149578181158 68:0.9116291376550035 69:0.7669951016734555 70:1.779098725630252 73:1.1151977221073186 75:3.8200125883564175 77:0.8060556010813729 79:0.972325541032018 80:1.0385829410393457 81:0.9761461364441604 83:0.6762677626765826 84:0.5014875879755966 85:0.8799710211592416 86:3.094626382868878 87:1.1787164290055412 88:0.7678824235827509 89:2.1726193848611945 94:0.6789743507044552 95:3.560820255213304 99:0.8183995049662175 100:0.4834158893034788 102:2.5924432147126057 106:0.7760408738463814 107:0.49829015894465345 112:0.48028951652846824 113:1.02604828488796 114:0.5456264049419831 115:0.4944394410474972 116:0.5080126889750662 118:1.8004551012371044 120:1.2885930010832685 122:0.48028951652846824 123:0.7878185519131923 124:0.9145553961828462 129:1.1478099661763301 132:1.367934495783951 133:0.7712188196897585 137:0.48028951652846824 138:0.48424566883140213 139:2.462086313271099 140:0.816868174470804 143:0.6646945849137845 147:1.0519322461343288 148:0.5635061160274867 150:0.8242788506778833 152:0.5655693390943871 153:0.7672478167166338 154:1.2687542688178812 155:0.9605790330569365 156:0.9616192893240892 157:1.2723005107108476 158:0.9099824786457137 159:0.48028951652846824 160:0.8934431606315706 161:0.48491162938083276 162:1.2912625392712989 163:0.8089851187197574 165:0.7704212005482295 166:1.0456106458541061 167:2.3389248450031674 169:1.0381983966108006 172:1.361000250066145 173:1.0724054150047884 175:0.623765748619474 176:0.5243434148070072 177:1.0040493193570896 178:2.4826384437614206 181:2.069208426771825 183:0.564650386975777 186:1.1055293972563234 187:0.9369174178919859 188:0.8989671489114471 190:0.625470320861203 196:0.7908259076931016 197:0.8823862162440039 199:0.9949738565142615 200:0.5475539193885061 201:0.5993339094478175 206:0.6516670517630058 209:0.5936673871229642 210:0.6246167941521141 213:5.763203776227799 230:0.8634735037769254 241:0.7264987367030434 243:1.3407341040673402 244:0.6985967248216952 248:0.9125891699278446 251:1.2740410836002625 257:1.1672730256161516 266:1.6413582532011792 267:0.9231887679541187 268:3.687720048796122 273:1.326037984325008 274:6.079926916695688 276:0.8537922071845312 281:2.248663369376011 296:1.0471190064917533 297:1.5705454858519257 315:1.752752235990372 324:1.3957495848824255 353:1.1974200905783368 354:1.2362614612570297 356:1.0723932567978591 357:1.2059130226984176 358:0.9481031545117493 361:1.774523847409008 364:1.561093583198097 365:1.1902694763271622 366:1.5278143075931034 367:1.2583022466598437 368:1.6607117996070913 369:1.5931200856990606 370:1.213873678248198 371:1.7098370127788587 372:1.0853124629280746 377:1.294811716601723 381:1.8292551473588745 382:2.3426809711208465 383:7.194229332871425 384:7.888950359530587 386:2.288608050277541 387:9.10831702787097 388:3.962006835333502 389:2.288608050277541 390:2.2409642991263965 391:3.390900345916607 392:2.3311953600052533 393:2.446513069744394 394:2.4057602037378794 395:1.4308716424789498 396:2.934904494202517 397:2.6198615868886006 398:3.1238910484386695 399:2.3224501962044344 400:1.2784205515216915 401:1.297849749853208 402:2.2258384112044616 403:3.7847361252338025 404:2.5315166675636256 405:4.973391622048886 2485:0.0 
1.0 2:0.5277026570734246 3:1.0211787071313685 6:1.0230570543474495 7:1.0080084701117218 8:0.5903720617724708 9:0.9625444801735886 10:0.48242404988302695 11:0.48557949860029265 12:0.5494958093103514 13:0.8488779582371074 14:1.0343692735516683 15:1.0569992649449833 16:1.1239977353185098 17:0.5422346917858087 18:1.284876716730805 19:1.5245570478856514 20:0.9138989141974074 22:0.7612408731871162 23:0.8898909892904574 24:1.457240295399435 26:0.7776622094461492 27:0.48028951652846824 29:0.8651357229887664 31:3.827608364113327 32:0.8009214950448187 35:2.9030591292941876 36:0.7051677222907861 37:0.5704460988261973 38:0.4979375113287172 39:0.5333349948221845 42:0.5081964742445442 44:0.686539521868536 47:0.601947748305831 48:2.2021094227725206 49:0.48028951652846824 51:1.1860040249114163 52:1.3321990949896978 57:0.9131436104937845 58:0.783118003067778 59:0.5315108992107563 60:1.4043486158305747 61:0.49935123399125086 62:0.8093061292101876 64:1.3202847845801942 67:1.1960149578181158 68:0.9116291376550035 69:0.7669951016734555 70:1.779098725630252 73:1.1151977221073186 75:3.8200125883564175 77:0.8060556010813729 79:0.972325541032018 80:1.0385829410393457 81:0.9761461364441604 83:0.6762677626765826 84:0.5014875879755966 85:0.8799710211592416 86:3.094626382868878 87:1.1787164290055412 88:0.7678824235827509 89:2.1726193848611945 94:0.6789743507044552 95:3.560820255213304 99:0.8183995049662175 100:0.4834158893034788 102:2.5924432147126057 106:0.7760408738463814 107:0.49829015894465345 112:0.48028951652846824 113:1.02604828488796 114:0.5456264049419831 115:0.4944394410474972 116:0.5080126889750662 118:1.8004551012371044 120:1.2885930010832685 122:0.48028951652846824 123:0.7878185519131923 124:0.9145553961828462 129:1.1478099661763301 132:1.367934495783951 133:0.7712188196897585 137:0.48028951652846824 138:0.48424566883140213 139:2.462086313271099 140:0.816868174470804 143:0.6646945849137845 147:1.0519322461343288 148:0.5635061160274867 150:0.8242788506778833 152:0.5655693390943871 153:0.7672478167166338 154:1.2687542688178812 155:0.9605790330569365 156:0.9616192893240892 157:1.2723005107108476 158:0.9099824786457137 159:0.48028951652846824 160:0.8934431606315706 161:0.48491162938083276 162:1.2912625392712989 163:0.8089851187197574 165:0.7704212005482295 166:1.0456106458541061 167:2.3389248450031674 169:1.0381983966108006 172:1.361000250066145 173:1.0724054150047884 175:0.623765748619474 176:0.5243434148070072 177:1.0040493193570896 178:2.4826384437614206 181:2.069208426771825 183:0.564650386975777 186:1.1055293972563234 187:0.9369174178919859 188:0.8989671489114471 190:0.625470320861203 196:0.7908259076931016 197:0.8823862162440039 199:0.9949738565142615 200:0.5475539193885061 201:0.5993339094478175 206:0.6516670517630058 209:0.5936673871229642 210:0.6246167941521141 213:5.763203776227799 230:0.8634735037769254 241:0.7264987367030434 243:1.3407341040673402 244:0.6985967248216952 248:0.9125891699278446 251:1.2740410836002625 257:1.1672730256161516 266:1.6413582532011792 267:0.9231887679541187 268:3.687720048796122 273:1.326037984325008 274:6.079926916695688 276:0.8537922071845312 281:2.248663369376011 296:1.0471190064917533 297:0.9909038763613203 315:1.752752235990372 324:1.3957495848824255 353:1.1974200905783368 354:1.2362614612570297 356:1.0723932567978591 357:1.2059130226984176 358:0.9481031545117493 361:1.774523847409008 364:1.561093583198097 365:1.1902694763271622 366:1.5278143075931034 367:1.2583022466598437 368:1.6607117996070913 369:1.5931200856990606 370:1.213873678248198 371:1.7098370127788587 372:1.0853124629280746 377:1.294811716601723 381:1.8292551473588745 382:2.3426809711208465 383:7.194229332871425 384:7.888950359530587 385:1.9323285466214302 386:2.288608050277541 387:9.10831702787097 388:3.962006835333502 389:2.288608050277541 390:2.2409642991263965 391:3.390900345916607 392:2.3311953600052533 393:2.446513069744394 394:2.4057602037378794 395:1.4308716424789498 396:2.934904494202517 397:2.6198615868886006 398:3.1238910484386695 399:2.3224501962044344 400:1.2784205515216915 401:1.297849749853208 402:2.2258384112044616 403:3.7847361252338025 404:2.5315166675636256 405:4.973391622048886 2485:0.0 
1.0 2:0.5277026570734246 3:1.0211787071313685 6:1.0230570543474495 7:1.0080084701117218 8:0.5903720617724708 9:0.9625444801735886 10:0.48242404988302695 11:0.48557949860029265 12:0.5494958093103514 13:0.8488779582371074 14:1.0343692735516683 15:1.0569992649449833 16:1.1239977353185098 17:0.5422346917858087 18:1.284876716730805 19:1.5245570478856514 20:0.9138989141974074 22:0.7612408731871162 23:0.8898909892904574 24:1.457240295399435 26:0.7776622094461492 27:0.48028951652846824 29:0.8651357229887664 31:3.827608364113327 32:0.8009214950448187 35:2.9030591292941876 36:0.7051677222907861 37:0.5704460988261973 38:0.4979375113287172 39:0.5333349948221845 42:0.5081964742445442 44:0.686539521868536 47:0.601947748305831 48:2.2021094227725206 49:0.48028951652846824 51:1.1860040249114163 52:1.3321990949896978 57:0.9131436104937845 58:0.783118003067778 59:0.5315108992107563 60:1.4043486158305747 61:0.49935123399125086 62:0.8093061292101876 64:1.3202847845801942 67:1.1960149578181158 68:0.9116291376550035 69:0.7669951016734555 70:1.779098725630252 73:1.1151977221073186 75:3.8200125883564175 77:0.8060556010813729 79:0.972325541032018 80:1.0385829410393457 81:0.9761461364441604 83:0.6762677626765826 84:0.5014875879755966 85:0.8799710211592416 86:3.094626382868878 87:1.1787164290055412 88:0.7678824235827509 89:2.1726193848611945 94:0.6789743507044552 95:3.560820255213304 99:0.8183995049662175 100:0.4834158893034788 102:2.5924432147126057 106:0.7760408738463814 107:0.49829015894465345 112:0.48028951652846824 113:1.02604828488796 114:0.5456264049419831 115:0.4944394410474972 116:0.5080126889750662 118:1.8004551012371044 120:1.2885930010832685 122:0.48028951652846824 123:0.7878185519131923 124:0.9145553961828462 129:1.1478099661763301 132:1.367934495783951 133:0.7712188196897585 137:0.48028951652846824 138:0.48424566883140213 139:2.462086313271099 140:0.816868174470804 143:0.6646945849137845 147:1.0519322461343288 148:0.5635061160274867 150:0.8242788506778833 152:0.5655693390943871 153:0.7672478167166338 154:1.2687542688178812 155:0.9605790330569365 156:0.9616192893240892 157:1.2723005107108476 158:0.9099824786457137 159:0.48028951652846824 160:0.8934431606315706 161:0.48491162938083276 162:1.2912625392712989 163:0.8089851187197574 165:0.7704212005482295 166:1.0456106458541061 167:2.3389248450031674 169:1.0381983966108006 172:1.361000250066145 173:1.0724054150047884 175:0.623765748619474 176:0.5243434148070072 177:1.0040493193570896 178:2.4826384437614206 181:2.069208426771825 183:0.564650386975777 186:1.1055293972563234 187:0.9369174178919859 188:0.8989671489114471 190:0.625470320861203 196:0.7908259076931016 197:0.8823862162440039 199:0.9949738565142615 200:0.5475539193885061 201:0.5993339094478175 206:0.6516670517630058 209:0.5936673871229642 210:0.6246167941521141 213:5.763203776227799 230:0.8634735037769254 241:0.7264987367030434 243:1.3407341040673402 244:0.6985967248216952 248:0.9125891699278446 251:1.2740410836002625 257:1.1672730256161516 266:1.6413582532011792 267:0.9231887679541187 268:3.687720048796122 273:1.326037984325008 274:6.079926916695688 276:0.8537922071845312 281:2.248663369376011 296:1.0471190064917533 297:1.5705454858519257 315:1.752752235990372 324:1.3957495848824255 353:1.1974200905783368 354:1.2362614612570297 356:1.0723932567978591 357:1.2059130226984176 358:0.9481031545117493 361:1.774523847409008 364:1.561093583198097 365:1.1902694763271622 366:1.5278143075931034 367:1.2583022466598437 368:1.6607117996070913 369:1.5931200856990606 370:1.213873678248198 371:1.7098370127788587 372:1.0853124629280746 377:1.294811716601723 381:1.8292551473588745 382:2.3426809711208465 383:7.194229332871425 384:7.888950359530587 385:1.9323285466214302 386:2.288608050277541 387:9.10831702787097 388:3.962006835333502 389:2.288608050277541 390:2.2409642991263965 391:2.68722494598011 392:2.3311953600052533 393:2.446513069744394 394:2.4057602037378794 395:1.4308716424789498 396:2.934904494202517 397:2.6198615868886006 398:3.1238910484386695 399:2.3224501962044344 400:1.2784205515216915 401:1.297849749853208 402:2.2258384112044616 403:3.7847361252338025 404:2.5315166675636256 405:4.973391622048886 2485:0.0 
1.0 2:0.5277026570734246 3:1.0211787071313685 6:1.0230570543474495 7:1.0080084701117218 8:0.5903720617724708 9:0.9625444801735886 10:0.48242404988302695 11:0.48557949860029265 12:0.5494958093103514 13:0.8488779582371074 14:1.0343692735516683 15:1.0569992649449833 16:1.1239977353185098 17:0.5422346917858087 18:1.284876716730805 19:1.5245570478856514 20:0.9138989141974074 22:0.7612408731871162 23:0.8898909892904574 24:1.457240295399435 26:0.7776622094461492 27:0.48028951652846824 29:0.8651357229887664 31:3.827608364113327 32:0.8009214950448187 35:2.9030591292941876 36:0.7051677222907861 37:0.5704460988261973 38:0.4979375113287172 39:0.5333349948221845 42:0.5081964742445442 44:0.686539521868536 47:0.601947748305831 48:2.2021094227725206 49:0.48028951652846824 51:1.1860040249114163 52:1.3321990949896978 57:0.9131436104937845 58:0.783118003067778 59:0.5315108992107563 60:1.4043486158305747 61:0.49935123399125086 62:0.8093061292101876 64:1.3202847845801942 67:1.1960149578181158 68:0.9116291376550035 69:0.7669951016734555 70:1.779098725630252 73:1.1151977221073186 75:3.8200125883564175 77:0.8060556010813729 79:0.972325541032018 80:1.0385829410393457 81:0.9761461364441604 83:0.6762677626765826 84:0.5014875879755966 85:0.8799710211592416 86:3.094626382868878 87:1.1787164290055412 88:0.7678824235827509 89:2.1726193848611945 94:0.6789743507044552 95:3.560820255213304 99:0.8183995049662175 100:0.4834158893034788 102:2.5924432147126057 106:0.7760408738463814 107:0.49829015894465345 112:0.48028951652846824 113:1.02604828488796 114:0.5456264049419831 115:0.4944394410474972 116:0.5080126889750662 118:1.8004551012371044 120:1.2885930010832685 122:0.48028951652846824 123:0.7878185519131923 124:0.9145553961828462 129:1.1478099661763301 132:1.367934495783951 133:0.7712188196897585 137:0.48028951652846824 138:0.48424566883140213 139:2.462086313271099 140:0.816868174470804 143:0.6646945849137845 147:1.0519322461343288 148:0.5635061160274867 150:0.8242788506778833 152:0.5655693390943871 153:0.7672478167166338 154:1.2687542688178812 155:0.9605790330569365 156:0.9616192893240892 157:1.2723005107108476 158:0.9099824786457137 159:0.48028951652846824 160:0.8934431606315706 161:0.48491162938083276 162:1.2912625392712989 163:0.8089851187197574 165:0.7704212005482295 166:1.0456106458541061 167:2.3389248450031674 169:1.0381983966108006 172:1.361000250066145 173:1.0724054150047884 175:0.623765748619474 176:0.5243434148070072 177:1.0040493193570896 178:2.4826384437614206 181:2.069208426771825 183:0.564650386975777 186:1.1055293972563234 187:0.9369174178919859 188:0.8989671489114471 190:0.625470320861203 196:0.7908259076931016 197:0.8823862162440039 199:0.9949738565142615 200:0.5475539193885061 201:0.5993339094478175 206:0.6516670517630058 209:0.5936673871229642 210:0.6246167941521141 213:5.763203776227799 230:0.8634735037769254 241:0.7264987367030434 243:1.3407341040673402 244:0.6985967248216952 248:0.9125891699278446 251:1.2740410836002625 257:1.1672730256161516 266:1.6413582532011792 267:0.9231887679541187 268:3.687720048796122 273:1.326037984325008 274:6.079926916695688 276:0.8537922071845312 281:2.248663369376011 296:1.0471190064917533 297:1.5705454858519257 315:1.752752235990372 324:1.3957495848824255 353:1.1974200905783368 354:1.2362614612570297 356:1.0723932567978591 357:1.2059130226984176 358:0.9481031545117493 361:1.774523847409008 364:1.561093583198097 365:1.1902694763271622 366:1.5278143075931034 367:1.2583022466598437 368:1.6607117996070913 369:1.5931200856990606 370:1.213873678248198 371:1.7098370127788587 372:1.0853124629280746 377:1.294811716601723 381:1.8292551473588745 382:2.3426809711208465 383:7.194229332871425 384:7.888950359530587 385:1.9323285466214302 386:2.288608050277541 387:9.10831702787097 388:3.962006835333502 389:2.288608050277541 390:2.2409642991263965 391:3.390900345916607 392:2.3311953600052533 393:2.446513069744394 394:2.4057602037378794 395:1.4308716424789498 396:2.934904494202517 397:2.6198615868886006 398:1.9709558093754913 399:2.3224501962044344 400:1.2784205515216915 401:1.297849749853208 402:2.2258384112044616 403:3.7847361252338025 404:2.5315166675636256 405:4.973391622048886 2485:0.0 
1.0 2:0.5277026570734246 3:1.0211787071313685 6:1.0230570543474495 7:1.0080084701117218 8:0.5903720617724708 9:0.9625444801735886 10:0.48242404988302695 11:0.48557949860029265 12:0.5494958093103514 13:0.8488779582371074 14:1.0343692735516683 15:1.0569992649449833 16:1.1239977353185098 17:0.5422346917858087 18:1.284876716730805 19:1.5245570478856514 20:0.9138989141974074 22:0.7612408731871162 23:0.8898909892904574 24:1.457240295399435 26:0.7776622094461492 27:0.48028951652846824 29:0.8651357229887664 31:3.827608364113327 32:0.8009214950448187 35:2.9030591292941876 36:0.7051677222907861 37:0.5704460988261973 38:0.4979375113287172 39:0.5333349948221845 42:0.5081964742445442 44:0.686539521868536 47:0.601947748305831 48:2.2021094227725206 49:0.48028951652846824 51:1.1860040249114163 52:1.3321990949896978 57:0.9131436104937845 58:0.783118003067778 59:0.5315108992107563 60:1.4043486158305747 61:0.49935123399125086 62:0.8093061292101876 64:1.3202847845801942 67:1.1960149578181158 68:0.9116291376550035 69:0.7669951016734555 70:1.779098725630252 73:1.1151977221073186 75:3.8200125883564175 77:0.8060556010813729 79:0.972325541032018 80:1.0385829410393457 81:0.9761461364441604 83:0.6762677626765826 84:0.5014875879755966 85:0.8799710211592416 86:3.094626382868878 87:1.1787164290055412 88:0.7678824235827509 89:2.1726193848611945 94:0.6789743507044552 95:3.560820255213304 99:0.8183995049662175 100:0.4834158893034788 102:2.5924432147126057 106:0.7760408738463814 107:0.49829015894465345 112:0.48028951652846824 113:1.02604828488796 114:0.5456264049419831 115:0.4944394410474972 116:0.5080126889750662 118:1.8004551012371044 120:1.2885930010832685 122:0.48028951652846824 123:0.7878185519131923 124:0.9145553961828462 129:1.1478099661763301 132:1.367934495783951 133:0.7712188196897585 137:0.48028951652846824 138:0.48424566883140213 139:2.462086313271099 140:0.816868174470804 143:0.6646945849137845 147:1.0519322461343288 148:0.5635061160274867 150:0.8242788506778833 152:0.5655693390943871 153:0.7672478167166338 154:1.2687542688178812 155:0.9605790330569365 156:0.9616192893240892 157:1.2723005107108476 158:0.9099824786457137 159:0.48028951652846824 160:0.8934431606315706 161:0.48491162938083276 162:1.2912625392712989 163:0.8089851187197574 165:0.7704212005482295 166:1.0456106458541061 167:2.3389248450031674 169:1.0381983966108006 172:1.361000250066145 173:1.0724054150047884 175:0.623765748619474 176:0.5243434148070072 177:1.0040493193570896 178:2.4826384437614206 181:2.069208426771825 183:0.564650386975777 186:1.1055293972563234 187:0.9369174178919859 188:0.8989671489114471 190:0.625470320861203 196:0.7908259076931016 197:0.8823862162440039 199:0.9949738565142615 200:0.5475539193885061 201:0.5993339094478175 206:0.6516670517630058 209:0.5936673871229642 210:0.6246167941521141 213:5.763203776227799 230:0.8634735037769254 241:0.7264987367030434 243:1.3407341040673402 244:0.6985967248216952 248:0.9125891699278446 251:1.2740410836002625 257:1.1672730256161516 266:1.6413582532011792 267:0.9231887679541187 268:3.687720048796122 273:1.326037984325008 274:6.079926916695688 276:0.8537922071845312 281:2.248663369376011 296:1.0471190064917533 297:1.5705454858519257 315:1.752752235990372 324:1.3957495848824255 353:1.1974200905783368 354:1.2362614612570297 356:1.0723932567978591 357:1.2059130226984176 358:0.9481031545117493 361:1.774523847409008 364:1.561093583198097 365:1.1902694763271622 366:1.5278143075931034 367:1.2583022466598437 368:1.6607117996070913 369:1.5931200856990606 370:1.213873678248198 371:1.7098370127788587 372:1.0853124629280746 377:1.294811716601723 381:1.8292551473588745 382:1.4780671278058182 383:7.194229332871425 384:7.888950359530587 385:1.9323285466214302 386:2.288608050277541 387:9.10831702787097 388:3.962006835333502 389:2.288608050277541 390:2.2409642991263965 391:3.390900345916607 392:2.3311953600052533 393:2.446513069744394 394:2.4057602037378794 395:1.4308716424789498 396:2.934904494202517 397:2.6198615868886006 398:3.1238910484386695 399:2.3224501962044344 400:1.2784205515216915 401:1.297849749853208 402:2.2258384112044616 403:3.7847361252338025 404:2.5315166675636256 405:4.973391622048886 2485:0.0 
1.0 2:0.5277026570734246 3:1.0211787071313685 6:1.0230570543474495 7:1.0080084701117218 8:0.5903720617724708 9:0.9625444801735886 10:0.48242404988302695 11:0.48557949860029265 12:0.5494958093103514 13:0.8488779582371074 14:1.0343692735516683 15:1.0569992649449833 16:1.1239977353185098 17:0.5422346917858087 18:1.284876716730805 19:1.5245570478856514 20:0.9138989141974074 22:0.7612408731871162 23:0.8898909892904574 24:1.457240295399435 26:0.7776622094461492 27:0.48028951652846824 29:0.8651357229887664 31:3.827608364113327 32:0.8009214950448187 35:2.9030591292941876 36:0.7051677222907861 37:0.5704460988261973 38:0.4979375113287172 39:0.5333349948221845 42:0.5081964742445442 44:0.686539521868536 47:0.601947748305831 48:2.2021094227725206 49:0.48028951652846824 51:1.1860040249114163 52:1.3321990949896978 57:0.9131436104937845 58:0.783118003067778 59:0.5315108992107563 60:1.4043486158305747 61:0.49935123399125086 62:0.8093061292101876 64:1.3202847845801942 67:1.1960149578181158 68:0.9116291376550035 69:0.7669951016734555 70:1.779098725630252 73:1.1151977221073186 75:3.8200125883564175 77:0.8060556010813729 79:0.972325541032018 80:1.0385829410393457 81:0.9761461364441604 83:0.6762677626765826 84:0.5014875879755966 85:0.8799710211592416 86:3.094626382868878 87:1.1787164290055412 88:0.7678824235827509 89:2.1726193848611945 94:0.6789743507044552 95:3.560820255213304 99:0.8183995049662175 100:0.4834158893034788 102:2.5924432147126057 106:0.7760408738463814 107:0.49829015894465345 112:0.48028951652846824 113:1.02604828488796 114:0.5456264049419831 115:0.4944394410474972 116:0.5080126889750662 118:1.8004551012371044 120:1.2885930010832685 122:0.48028951652846824 123:0.7878185519131923 124:0.9145553961828462 129:1.1478099661763301 132:1.367934495783951 133:0.7712188196897585 137:0.48028951652846824 138:0.48424566883140213 139:2.462086313271099 140:0.816868174470804 143:0.6646945849137845 147:1.0519322461343288 148:0.5635061160274867 150:0.8242788506778833 152:0.5655693390943871 153:0.7672478167166338 154:1.2687542688178812 155:0.9605790330569365 156:0.9616192893240892 157:1.2723005107108476 158:0.9099824786457137 159:0.48028951652846824 160:0.8934431606315706 161:0.48491162938083276 162:1.2912625392712989 163:0.8089851187197574 165:0.7704212005482295 166:1.0456106458541061 167:2.3389248450031674 169:1.0381983966108006 172:1.361000250066145 173:1.0724054150047884 175:0.623765748619474 176:0.5243434148070072 177:1.0040493193570896 178:2.4826384437614206 181:2.069208426771825 183:0.564650386975777 186:1.1055293972563234 187:0.9369174178919859 188:0.8989671489114471 190:0.625470320861203 196:0.7908259076931016 197:0.8823862162440039 199:0.9949738565142615 200:0.5475539193885061 201:0.5993339094478175 206:0.6516670517630058 209:0.5936673871229642 210:0.6246167941521141 213:5.763203776227799 230:0.8634735037769254 241:0.7264987367030434 243:1.3407341040673402 244:0.6985967248216952 248:0.9125891699278446 251:1.2740410836002625 257:1.1672730256161516 266:1.6413582532011792 267:0.9231887679541187 268:3.687720048796122 273:1.326037984325008 274:6.079926916695688 276:0.8537922071845312 281:2.248663369376011 296:1.0471190064917533 297:1.5705454858519257 315:1.752752235990372 324:1.3957495848824255 353:1.1974200905783368 354:1.2362614612570297 356:1.0723932567978591 357:1.2059130226984176 358:0.9481031545117493 361:1.774523847409008 364:1.561093583198097 365:1.1902694763271622 366:1.5278143075931034 367:1.2583022466598437 368:1.6607117996070913 369:1.5931200856990606 370:1.213873678248198 371:1.7098370127788587 372:1.0853124629280746 377:1.294811716601723 381:1.8292551473588745 382:2.3426809711208465 383:7.194229332871425 384:7.888950359530587 385:1.9323285466214302 386:2.288608050277541 387:9.10831702787097 388:3.962006835333502 389:2.288608050277541 390:2.2409642991263965 391:2.68722494598011 392:2.3311953600052533 393:2.446513069744394 394:2.4057602037378794 395:1.4308716424789498 396:2.934904494202517 397:2.6198615868886006 398:3.1238910484386695 399:2.3224501962044344 400:1.2784205515216915 401:1.297849749853208 402:2.2258384112044616 403:3.7847361252338025 404:2.5315166675636256 405:4.973391622048886 2485:0.0 
1.0 2:0.5277026570734246 3:1.0211787071313685 6:1.0230570543474495 7:1.0080084701117218 8:0.5903720617724708 9:0.9625444801735886 10:0.48242404988302695 11:0.48557949860029265 12:0.5494958093103514 13:0.8488779582371074 14:1.0343692735516683 15:1.0569992649449833 16:1.1239977353185098 17:0.5422346917858087 18:1.284876716730805 19:1.5245570478856514 20:0.9138989141974074 22:0.7612408731871162 23:0.8898909892904574 24:1.457240295399435 26:0.7776622094461492 27:0.48028951652846824 29:0.8651357229887664 31:3.827608364113327 32:0.8009214950448187 35:2.9030591292941876 36:0.7051677222907861 37:0.5704460988261973 38:0.4979375113287172 39:0.5333349948221845 42:0.5081964742445442 44:0.686539521868536 47:0.601947748305831 48:2.2021094227725206 49:0.48028951652846824 51:1.1860040249114163 52:1.3321990949896978 57:0.9131436104937845 58:0.783118003067778 59:0.5315108992107563 60:1.4043486158305747 61:0.49935123399125086 62:0.8093061292101876 64:1.3202847845801942 67:1.1960149578181158 68:0.9116291376550035 69:0.7669951016734555 70:1.779098725630252 73:1.1151977221073186 75:3.8200125883564175 77:0.8060556010813729 79:0.972325541032018 80:1.0385829410393457 81:0.9761461364441604 83:0.6762677626765826 84:0.5014875879755966 85:0.8799710211592416 86:3.094626382868878 87:1.1787164290055412 88:0.7678824235827509 89:2.1726193848611945 94:0.6789743507044552 95:3.560820255213304 99:0.8183995049662175 100:0.4834158893034788 102:1.635649558606621 106:0.7760408738463814 107:0.49829015894465345 112:0.48028951652846824 113:1.02604828488796 114:0.5456264049419831 115:0.4944394410474972 116:0.5080126889750662 118:1.8004551012371044 120:1.2885930010832685 122:0.48028951652846824 123:0.7878185519131923 124:0.9145553961828462 129:1.1478099661763301 132:1.367934495783951 133:0.7712188196897585 137:0.48028951652846824 138:0.48424566883140213 139:2.462086313271099 140:0.816868174470804 143:0.6646945849137845 147:1.0519322461343288 148:0.5635061160274867 150:0.8242788506778833 152:0.5655693390943871 153:0.7672478167166338 154:1.2687542688178812 155:0.9605790330569365 156:0.9616192893240892 157:1.2723005107108476 158:0.9099824786457137 159:0.48028951652846824 160:0.8934431606315706 161:0.48491162938083276 162:1.2912625392712989 163:0.8089851187197574 165:0.7704212005482295 166:1.0456106458541061 167:2.3389248450031674 169:1.0381983966108006 172:1.361000250066145 173:1.0724054150047884 175:0.623765748619474 176:0.5243434148070072 177:1.0040493193570896 178:2.4826384437614206 181:2.069208426771825 183:0.564650386975777 186:1.1055293972563234 187:0.9369174178919859 188:0.8989671489114471 190:0.625470320861203 196:0.7908259076931016 197:0.8823862162440039 199:0.9949738565142615 200:0.5475539193885061 201:0.5993339094478175 206:0.6516670517630058 209:0.5936673871229642 210:0.6246167941521141 213:5.763203776227799 230:0.8634735037769254 241:0.7264987367030434 243:1.3407341040673402 244:0.6985967248216952 248:0.9125891699278446 251:1.2740410836002625 257:1.1672730256161516 266:1.6413582532011792 267:0.9231887679541187 268:3.687720048796122 273:1.326037984325008 274:6.079926916695688 276:0.8537922071845312 281:2.248663369376011 296:1.0471190064917533 297:1.5705454858519257 315:1.752752235990372 324:1.3957495848824255 353:1.1974200905783368 354:1.2362614612570297 356:1.0723932567978591 357:1.2059130226984176 358:0.9481031545117493 361:1.774523847409008 364:1.561093583198097 365:1.1902694763271622 366:1.5278143075931034 367:1.2583022466598437 368:1.6607117996070913 369:1.5931200856990606 370:1.213873678248198 371:1.7098370127788587 372:1.0853124629280746 377:1.294811716601723 381:1.8292551473588745 382:2.3426809711208465 383:7.194229332871425 384:7.888950359530587 385:1.9323285466214302 386:2.288608050277541 387:9.10831702787097 388:3.962006835333502 389:2.288608050277541 390:2.2409642991263965 391:3.390900345916607 392:2.3311953600052533 393:2.446513069744394 394:2.4057602037378794 395:1.4308716424789498 396:2.934904494202517 397:2.6198615868886006 398:3.1238910484386695 399:2.3224501962044344 400:1.2784205515216915 401:1.297849749853208 402:2.2258384112044616 403:3.7847361252338025 404:2.5315166675636256 405:4.973391622048886 2485:0.0 
1.0 2:0.5277026570734246 3:1.0211787071313685 6:1.0230570543474495 7:1.0080084701117218 8:0.5903720617724708 9:0.9625444801735886 10:0.48242404988302695 11:0.48557949860029265 12:0.5494958093103514 13:0.8488779582371074 14:1.0343692735516683 15:1.0569992649449833 16:1.1239977353185098 17:0.5422346917858087 18:1.284876716730805 19:1.5245570478856514 20:0.9138989141974074 22:0.7612408731871162 23:0.8898909892904574 24:1.457240295399435 26:0.7776622094461492 27:0.48028951652846824 29:0.8651357229887664 31:3.827608364113327 32:0.8009214950448187 35:2.9030591292941876 36:0.7051677222907861 37:0.5704460988261973 38:0.4979375113287172 39:0.5333349948221845 42:0.5081964742445442 44:0.686539521868536 47:0.601947748305831 48:2.2021094227725206 49:0.48028951652846824 51:1.1860040249114163 52:1.3321990949896978 57:0.9131436104937845 58:0.783118003067778 59:0.5315108992107563 60:1.4043486158305747 61:0.49935123399125086 62:0.8093061292101876 64:1.3202847845801942 67:1.1960149578181158 68:0.9116291376550035 69:0.7669951016734555 70:1.779098725630252 73:1.1151977221073186 75:3.8200125883564175 77:0.8060556010813729 79:0.972325541032018 80:1.0385829410393457 81:0.9761461364441604 83:0.6762677626765826 84:0.5014875879755966 85:0.8799710211592416 86:3.094626382868878 87:1.1787164290055412 88:0.7678824235827509 89:2.1726193848611945 94:0.6789743507044552 95:3.560820255213304 99:0.8183995049662175 100:0.4834158893034788 102:2.5924432147126057 106:0.7760408738463814 107:0.49829015894465345 112:0.48028951652846824 113:1.02604828488796 114:0.5456264049419831 115:0.4944394410474972 116:0.5080126889750662 118:1.8004551012371044 120:1.2885930010832685 122:0.48028951652846824 123:0.7878185519131923 124:0.9145553961828462 129:1.1478099661763301 132:1.367934495783951 133:0.7712188196897585 137:0.48028951652846824 138:0.48424566883140213 139:2.462086313271099 140:0.816868174470804 143:0.6646945849137845 147:1.0519322461343288 148:0.5635061160274867 150:0.8242788506778833 152:0.5655693390943871 153:0.7672478167166338 154:1.2687542688178812 155:0.9605790330569365 156:0.9616192893240892 157:1.2723005107108476 158:0.9099824786457137 159:0.48028951652846824 160:0.8934431606315706 161:0.48491162938083276 162:1.2912625392712989 163:0.8089851187197574 165:0.7704212005482295 166:1.0456106458541061 167:2.3389248450031674 169:1.0381983966108006 172:1.361000250066145 173:1.0724054150047884 175:0.623765748619474 176:0.5243434148070072 177:1.0040493193570896 178:2.4826384437614206 181:2.069208426771825 183:0.564650386975777 186:1.1055293972563234 187:0.9369174178919859 188:0.8989671489114471 190:0.625470320861203 196:0.7908259076931016 197:0.8823862162440039 199:0.9949738565142615 200:0.5475539193885061 201:0.5993339094478175 206:0.6516670517630058 209:0.5936673871229642 210:0.6246167941521141 213:5.763203776227799 230:0.8634735037769254 241:0.7264987367030434 243:1.3407341040673402 244:0.6985967248216952 248:0.9125891699278446 251:1.2740410836002625 257:1.1672730256161516 266:1.6413582532011792 267:0.9231887679541187 268:3.687720048796122 273:1.326037984325008 274:6.079926916695688 276:0.8537922071845312 281:2.248663369376011 296:1.0471190064917533 297:0.9909038763613203 315:1.752752235990372 324:1.3957495848824255 353:1.1974200905783368 354:1.2362614612570297 356:1.0723932567978591 357:1.2059130226984176 358:0.9481031545117493 361:1.774523847409008 364:1.561093583198097 365:1.1902694763271622 366:1.5278143075931034 367:1.2583022466598437 368:1.6607117996070913 369:1.5931200856990606 370:1.213873678248198 371:1.7098370127788587 372:1.0853124629280746 377:1.294811716601723 381:1.8292551473588745 382:2.3426809711208465 383:7.194229332871425 384:7.888950359530587 385:1.9323285466214302 386:2.288608050277541 387:9.10831702787097 388:3.962006835333502 389:2.288608050277541 390:2.2409642991263965 391:3.390900345916607 392:2.3311953600052533 393:2.446513069744394 394:2.4057602037378794 395:1.4308716424789498 396:2.934904494202517 397:2.6198615868886006 398:3.1238910484386695 399:2.3224501962044344 400:1.2784205515216915 401:1.297849749853208 402:2.2258384112044616 403:3.7847361252338025 404:2.5315166675636256 405:4.973391622048886 2485:0.0 
1.0 2:0.5277026570734246 3:1.0211787071313685 6:1.0230570543474495 7:1.0080084701117218 8:0.5903720617724708 9:0.9625444801735886 10:0.48242404988302695 11:0.48557949860029265 12:0.5494958093103514 13:0.8488779582371074 14:1.0343692735516683 15:1.0569992649449833 16:1.1239977353185098 17:0.5422346917858087 18:1.284876716730805 19:1.5245570478856514 20:0.9138989141974074 22:0.7612408731871162 23:0.8898909892904574 24:1.457240295399435 26:0.7776622094461492 27:0.48028951652846824 29:0.8651357229887664 31:3.827608364113327 32:0.8009214950448187 35:2.9030591292941876 36:0.7051677222907861 37:0.5704460988261973 38:0.4979375113287172 39:0.5333349948221845 42:0.5081964742445442 44:0.686539521868536 47:0.601947748305831 48:2.2021094227725206 49:0.48028951652846824 51:1.1860040249114163 52:1.3321990949896978 57:0.9131436104937845 58:0.783118003067778 59:0.5315108992107563 60:1.4043486158305747 61:0.49935123399125086 62:0.8093061292101876 64:1.3202847845801942 67:1.1960149578181158 68:0.9116291376550035 69:0.7669951016734555 70:1.779098725630252 73:1.1151977221073186 75:3.8200125883564175 77:0.8060556010813729 79:0.972325541032018 80:1.0385829410393457 81:0.9761461364441604 83:0.6762677626765826 84:0.5014875879755966 85:0.8799710211592416 86:3.094626382868878 87:1.1787164290055412 88:0.7678824235827509 89:2.1726193848611945 94:0.6789743507044552 95:3.560820255213304 99:0.8183995049662175 100:0.4834158893034788 102:2.5924432147126057 106:0.7760408738463814 107:0.49829015894465345 112:0.48028951652846824 113:1.02604828488796 114:0.5456264049419831 115:0.4944394410474972 116:0.5080126889750662 118:1.8004551012371044 120:1.2885930010832685 122:0.48028951652846824 123:0.7878185519131923 124:0.9145553961828462 129:1.1478099661763301 132:1.367934495783951 133:0.7712188196897585 137:0.48028951652846824 138:0.48424566883140213 139:2.462086313271099 140:0.816868174470804 143:0.6646945849137845 147:1.0519322461343288 148:0.5635061160274867 150:0.8242788506778833 152:0.5655693390943871 153:0.7672478167166338 154:1.2687542688178812 155:0.9605790330569365 156:0.9616192893240892 157:1.2723005107108476 158:0.9099824786457137 159:0.48028951652846824 160:0.8934431606315706 161:0.48491162938083276 162:1.2912625392712989 163:0.8089851187197574 165:0.7704212005482295 167:2.3389248450031674 169:1.0381983966108006 172:1.361000250066145 173:1.0724054150047884 175:0.623765748619474 176:0.5243434148070072 177:1.0040493193570896 178:2.4826384437614206 181:2.069208426771825 183:0.564650386975777 186:1.1055293972563234 187:0.9369174178919859 188:0.8989671489114471 190:0.625470320861203 196:0.7908259076931016 197:0.8823862162440039 199:0.9949738565142615 200:0.5475539193885061 201:0.5993339094478175 206:0.6516670517630058 209:0.5936673871229642 210:0.6246167941521141 213:5.763203776227799 230:0.8634735037769254 241:0.7264987367030434 243:1.3407341040673402 244:0.6985967248216952 248:0.9125891699278446 251:1.2740410836002625 257:1.1672730256161516 266:1.6413582532011792 267:0.9231887679541187 268:3.687720048796122 273:1.326037984325008 274:6.079926916695688 276:0.8537922071845312 281:2.248663369376011 296:1.0471190064917533 297:1.5705454858519257 315:1.752752235990372 324:1.3957495848824255 353:1.1974200905783368 354:1.2362614612570297 356:1.0723932567978591 357:1.2059130226984176 358:0.9481031545117493 361:1.774523847409008 364:1.561093583198097 365:1.1902694763271622 366:1.5278143075931034 367:1.2583022466598437 368:1.6607117996070913 369:1.5931200856990606 370:1.213873678248198 371:1.7098370127788587 372:1.0853124629280746 377:1.294811716601723 381:1.8292551473588745 382:2.3426809711208465 383:7.194229332871425 384:7.888950359530587 385:1.9323285466214302 386:2.288608050277541 387:9.10831702787097 388:3.962006835333502 389:2.288608050277541 390:2.2409642991263965 391:3.390900345916607 392:2.3311953600052533 393:2.446513069744394 394:2.4057602037378794 395:1.4308716424789498 396:2.934904494202517 397:2.6198615868886006 398:3.1238910484386695 399:2.3224501962044344 400:1.2784205515216915 401:1.297849749853208 402:2.2258384112044616 403:3.7847361252338025 404:2.5315166675636256 405:4.973391622048886 2485:0.0 
1.0 2:0.5277026570734246 3:1.0211787071313685 6:1.0230570543474495 7:1.0080084701117218 8:0.5903720617724708 9:0.9625444801735886 10:0.48242404988302695 11:0.48557949860029265 12:0.5494958093103514 13:0.8488779582371074 14:1.0343692735516683 15:1.0569992649449833 16:1.1239977353185098 17:0.5422346917858087 18:1.284876716730805 19:1.5245570478856514 20:0.9138989141974074 22:0.7612408731871162 23:0.8898909892904574 24:1.457240295399435 26:0.7776622094461492 27:0.48028951652846824 29:0.8651357229887664 31:3.827608364113327 32:0.8009214950448187 35:2.9030591292941876 36:0.7051677222907861 37:0.5704460988261973 38:0.4979375113287172 39:0.5333349948221845 42:0.5081964742445442 44:0.686539521868536 47:0.601947748305831 48:2.2021094227725206 49:0.48028951652846824 51:1.1860040249114163 52:1.3321990949896978 57:0.9131436104937845 58:0.783118003067778 59:0.5315108992107563 60:1.4043486158305747 61:0.49935123399125086 62:0.8093061292101876 64:1.3202847845801942 67:1.1960149578181158 68:0.9116291376550035 69:0.7669951016734555 70:1.779098725630252 73:1.1151977221073186 75:3.8200125883564175 77:0.8060556010813729 79:0.972325541032018 80:1.0385829410393457 81:0.9761461364441604 83:0.6762677626765826 84:0.5014875879755966 85:0.8799710211592416 86:3.094626382868878 87:1.1787164290055412 88:0.7678824235827509 89:2.1726193848611945 94:0.6789743507044552 95:3.560820255213304 99:0.8183995049662175 100:0.4834158893034788 102:2.5924432147126057 106:0.7760408738463814 107:0.49829015894465345 112:0.48028951652846824 113:1.02604828488796 114:0.5456264049419831 115:0.4944394410474972 116:0.5080126889750662 118:1.8004551012371044 120:1.2885930010832685 122:0.48028951652846824 123:0.7878185519131923 124:0.9145553961828462 129:1.1478099661763301 132:1.367934495783951 133:0.7712188196897585 137:0.48028951652846824 138:0.48424566883140213 139:2.462086313271099 140:0.816868174470804 143:0.6646945849137845 147:1.0519322461343288 148:0.5635061160274867 150:0.8242788506778833 152:0.5655693390943871 153:0.7672478167166338 154:1.2687542688178812 155:0.9605790330569365 156:0.9616192893240892 157:1.2723005107108476 158:0.9099824786457137 159:0.48028951652846824 160:0.8934431606315706 161:0.48491162938083276 162:1.2912625392712989 163:0.8089851187197574 165:0.7704212005482295 166:1.0456106458541061 167:2.3389248450031674 169:1.0381983966108006 172:1.361000250066145 173:1.0724054150047884 175:0.623765748619474 176:0.5243434148070072 177:1.0040493193570896 178:2.4826384437614206 181:2.069208426771825 183:0.564650386975777 186:1.1055293972563234 187:0.9369174178919859 188:0.8989671489114471 190:0.625470320861203 196:0.7908259076931016 197:0.8823862162440039 199:0.9949738565142615 200:0.5475539193885061 201:0.5993339094478175 206:0.6516670517630058 209:0.5936673871229642 210:0.6246167941521141 213:5.763203776227799 230:0.8634735037769254 241:0.7264987367030434 243:1.3407341040673402 244:0.6985967248216952 248:0.9125891699278446 251:1.2740410836002625 257:1.1672730256161516 266:1.6413582532011792 267:0.9231887679541187 268:3.687720048796122 273:1.326037984325008 274:6.079926916695688 276:0.8537922071845312 281:2.248663369376011 296:1.0471190064917533 297:1.5705454858519257 315:1.752752235990372 324:1.3957495848824255 353:1.1974200905783368 354:1.2362614612570297 356:1.0723932567978591 357:1.2059130226984176 358:0.9481031545117493 361:1.774523847409008 364:1.561093583198097 365:1.1902694763271622 366:1.5278143075931034 367:1.2583022466598437 368:1.6607117996070913 369:1.5931200856990606 370:1.213873678248198 371:1.7098370127788587 372:1.0853124629280746 377:1.294811716601723 381:1.8292551473588745 382:2.3426809711208465 383:7.194229332871425 384:7.888950359530587 385:1.9323285466214302 386:2.288608050277541 387:9.10831702787097 388:3.962006835333502 389:2.288608050277541 390:2.2409642991263965 391:3.390900345916607 392:2.3311953600052533 393:2.446513069744394 394:2.4057602037378794 395:1.4308716424789498 396:2.934904494202517 397:2.6198615868886006 398:3.1238910484386695 399:2.3224501962044344 400:1.2784205515216915 401:1.297849749853208 402:2.2258384112044616 403:3.7847361252338025 404:2.5315166675636256 405:4.283846371470126 2485:0.0 
1.0 2:0.5277026570734246 3:1.0211787071313685 6:1.0230570543474495 7:1.0080084701117218 8:0.5903720617724708 9:0.9625444801735886 10:0.48242404988302695 11:0.48557949860029265 12:0.5494958093103514 13:0.8488779582371074 14:1.0343692735516683 15:1.0569992649449833 16:1.1239977353185098 17:0.5422346917858087 18:1.284876716730805 19:1.5245570478856514 20:0.9138989141974074 22:0.7612408731871162 23:0.8898909892904574 24:1.457240295399435 26:0.7776622094461492 27:0.48028951652846824 29:0.8651357229887664 31:3.827608364113327 32:0.8009214950448187 35:2.9030591292941876 36:0.7051677222907861 37:0.5704460988261973 38:0.4979375113287172 39:0.5333349948221845 42:0.5081964742445442 44:0.686539521868536 47:0.601947748305831 48:2.2021094227725206 49:0.48028951652846824 51:1.1860040249114163 52:1.3321990949896978 57:0.9131436104937845 58:0.783118003067778 59:0.5315108992107563 60:1.4043486158305747 61:0.49935123399125086 62:0.8093061292101876 64:1.3202847845801942 67:1.1960149578181158 68:0.9116291376550035 69:0.7669951016734555 70:1.779098725630252 73:1.1151977221073186 75:3.8200125883564175 77:0.8060556010813729 79:0.972325541032018 80:1.0385829410393457 81:0.9761461364441604 83:0.6762677626765826 84:0.5014875879755966 85:0.8799710211592416 86:3.094626382868878 87:1.1787164290055412 88:0.7678824235827509 89:2.1726193848611945 94:0.6789743507044552 95:3.560820255213304 99:0.8183995049662175 100:0.4834158893034788 102:2.5924432147126057 106:0.7760408738463814 107:0.49829015894465345 112:0.48028951652846824 113:1.02604828488796 114:0.5456264049419831 115:0.4944394410474972 116:0.5080126889750662 118:1.8004551012371044 120:1.2885930010832685 122:0.48028951652846824 123:0.7878185519131923 124:0.9145553961828462 129:1.1478099661763301 132:1.367934495783951 133:0.7712188196897585 137:0.48028951652846824 138:0.48424566883140213 139:2.462086313271099 140:0.816868174470804 143:0.6646945849137845 147:1.0519322461343288 148:0.5635061160274867 150:0.8242788506778833 152:0.5655693390943871 153:0.7672478167166338 154:1.2687542688178812 155:0.9605790330569365 156:0.9616192893240892 157:1.2723005107108476 158:0.9099824786457137 159:0.48028951652846824 160:0.8934431606315706 161:0.48491162938083276 162:1.2912625392712989 163:0.8089851187197574 165:0.7704212005482295 166:1.0456106458541061 167:2.3389248450031674 169:1.0381983966108006 172:1.361000250066145 173:1.0724054150047884 175:0.623765748619474 176:0.5243434148070072 177:1.0040493193570896 178:2.4826384437614206 181:2.069208426771825 183:0.564650386975777 186:1.1055293972563234 187:0.9369174178919859 188:0.8989671489114471 190:0.625470320861203 196:0.7908259076931016 197:0.8823862162440039 199:0.9949738565142615 200:0.5475539193885061 201:0.5993339094478175 206:0.6516670517630058 209:0.5936673871229642 210:0.6246167941521141 213:5.763203776227799 230:0.8634735037769254 241:0.7264987367030434 243:1.3407341040673402 244:0.6985967248216952 248:0.9125891699278446 251:1.2740410836002625 257:1.1672730256161516 266:1.6413582532011792 267:0.9231887679541187 268:3.687720048796122 273:1.326037984325008 274:6.079926916695688 276:0.8537922071845312 281:2.248663369376011 296:1.0471190064917533 297:1.5705454858519257 315:1.752752235990372 324:1.3957495848824255 353:1.1974200905783368 354:1.2362614612570297 356:1.0723932567978591 357:1.2059130226984176 358:0.9481031545117493 361:1.774523847409008 364:1.561093583198097 365:1.1902694763271622 366:1.5278143075931034 367:1.2583022466598437 368:1.6607117996070913 369:1.5931200856990606 370:1.213873678248198 371:1.7098370127788587 372:1.0853124629280746 377:1.294811716601723 381:1.8292551473588745 382:2.3426809711208465 383:7.194229332871425 384:7.888950359530587 385:1.9323285466214302 386:2.288608050277541 387:9.10831702787097 388:3.139816130802251 389:2.288608050277541 390:2.2409642991263965 391:3.390900345916607 392:2.3311953600052533 393:2.446513069744394 394:2.4057602037378794 395:1.4308716424789498 396:2.934904494202517 397:2.6198615868886006 398:3.1238910484386695 399:2.3224501962044344 400:1.2784205515216915 401:1.297849749853208 402:2.2258384112044616 403:3.7847361252338025 404:2.5315166675636256 405:4.973391622048886 2485:0.0 
1.0 2:0.5277026570734246 3:1.0211787071313685 6:1.0230570543474495 7:1.0080084701117218 8:0.5903720617724708 9:0.9625444801735886 10:0.48242404988302695 11:0.48557949860029265 12:0.5494958093103514 13:0.8488779582371074 14:1.0343692735516683 15:1.0569992649449833 16:1.1239977353185098 17:0.5422346917858087 18:1.284876716730805 19:1.5245570478856514 20:0.9138989141974074 22:0.7612408731871162 23:0.8898909892904574 24:1.457240295399435 26:0.7776622094461492 27:0.48028951652846824 29:0.8651357229887664 31:3.827608364113327 32:0.8009214950448187 35:2.9030591292941876 36:0.7051677222907861 37:0.5704460988261973 38:0.4979375113287172 39:0.5333349948221845 42:0.5081964742445442 44:0.686539521868536 47:0.601947748305831 48:2.2021094227725206 49:0.48028951652846824 51:1.1860040249114163 52:1.3321990949896978 57:0.9131436104937845 58:0.783118003067778 59:0.5315108992107563 60:1.4043486158305747 61:0.49935123399125086 62:0.8093061292101876 64:1.3202847845801942 67:1.1960149578181158 68:0.9116291376550035 69:0.7669951016734555 70:1.779098725630252 73:1.1151977221073186 75:3.8200125883564175 77:0.8060556010813729 79:0.972325541032018 80:1.0385829410393457 81:0.9761461364441604 83:0.6762677626765826 84:0.5014875879755966 85:0.8799710211592416 86:3.094626382868878 87:1.1787164290055412 88:0.7678824235827509 89:2.1726193848611945 94:0.6789743507044552 95:3.560820255213304 99:0.8183995049662175 100:0.4834158893034788 102:2.5924432147126057 106:0.7760408738463814 107:0.49829015894465345 112:0.48028951652846824 113:1.02604828488796 114:0.5456264049419831 115:0.4944394410474972 116:0.5080126889750662 118:1.8004551012371044 120:1.2885930010832685 122:0.48028951652846824 123:0.7878185519131923 124:0.9145553961828462 129:1.1478099661763301 132:1.367934495783951 133:0.7712188196897585 137:0.48028951652846824 138:0.48424566883140213 139:2.462086313271099 140:0.816868174470804 143:0.6646945849137845 147:1.0519322461343288 148:0.5635061160274867 150:0.8242788506778833 152:0.5655693390943871 153:0.7672478167166338 154:1.2687542688178812 155:0.9605790330569365 156:0.9616192893240892 157:1.2723005107108476 158:0.9099824786457137 159:0.48028951652846824 160:0.8934431606315706 161:0.48491162938083276 162:1.2912625392712989 163:0.8089851187197574 165:0.7704212005482295 166:1.0456106458541061 167:2.3389248450031674 169:1.0381983966108006 172:1.361000250066145 173:1.0724054150047884 175:0.623765748619474 176:0.5243434148070072 177:1.0040493193570896 178:2.4826384437614206 181:2.069208426771825 183:0.564650386975777 186:1.1055293972563234 187:0.9369174178919859 188:0.8989671489114471 190:0.625470320861203 196:0.7908259076931016 197:0.8823862162440039 199:0.9949738565142615 200:0.5475539193885061 201:0.5993339094478175 206:0.6516670517630058 209:0.5936673871229642 210:0.6246167941521141 213:5.763203776227799 230:0.8634735037769254 241:0.7264987367030434 243:1.3407341040673402 244:0.6985967248216952 248:0.9125891699278446 251:1.2740410836002625 257:1.1672730256161516 266:1.6413582532011792 267:0.9231887679541187 268:3.687720048796122 273:1.326037984325008 274:6.079926916695688 276:0.8537922071845312 281:2.248663369376011 296:1.0471190064917533 297:1.5705454858519257 315:1.752752235990372 324:1.3957495848824255 353:1.1974200905783368 354:1.2362614612570297 356:1.0723932567978591 357:1.2059130226984176 358:0.9481031545117493 361:1.774523847409008 364:1.561093583198097 365:1.1902694763271622 366:1.5278143075931034 367:1.2583022466598437 368:1.6607117996070913 369:1.5931200856990606 370:1.213873678248198 371:1.7098370127788587 372:1.0853124629280746 377:1.294811716601723 381:1.8292551473588745 382:2.3426809711208465 383:7.194229332871425 384:7.888950359530587 385:1.9323285466214302 386:2.288608050277541 387:9.10831702787097 388:3.962006835333502 389:2.288608050277541 390:2.2409642991263965 391:3.390900345916607 392:2.3311953600052533 393:2.446513069744394 394:2.4057602037378794 395:1.4308716424789498 396:2.934904494202517 397:2.6198615868886006 398:3.1238910484386695 399:2.3224501962044344 400:1.2784205515216915 401:1.297849749853208 402:2.2258384112044616 403:3.7847361252338025 404:2.5315166675636256 405:4.283846371470126 2485:0.0 
1.0 2:0.8363889229922938 3:1.4959997658684216 6:1.0230570543474495 7:0.7988278127681907 8:0.9357175793828003 9:1.1174795355469036 10:0.7646240285106303 11:0.7696252964004451 12:0.8709302520603301 13:1.2435837311384605 14:0.8197182552387889 15:0.8376520991138124 16:1.1239977353185098 17:0.8594216530706009 18:1.5756371038263846 19:1.7797050245671755 20:0.9138989141974074 22:0.9605790330569365 23:1.1229174051569772 24:1.6136158260964477 26:0.981300452335388 27:0.48028951652846824 29:1.2674009260057022 31:3.077036184487119 35:2.933860258048311 36:1.1176643965498463 37:0.5704460988261973 38:0.4979375113287172 39:0.5333349948221845 42:0.8054723546763074 44:1.0881393974246618 47:0.9540646084582791 48:1.8286326547673304 49:0.48028951652846824 50:0.9604156513174992 51:1.1860040249114163 52:1.4831142754272435 57:1.3377312099861587 58:0.783118003067778 59:0.5315108992107563 60:1.1615191511742462 61:0.49935123399125086 62:1.2827198664019381 64:0.8330069537793267 67:1.331502824341941 68:1.150347894338463 70:1.723579547910924 73:0.9605790330569365 75:3.07092989705385 77:1.1808501118105836 79:0.972325541032018 80:0.8230575077180272 81:1.5471550214878316 83:1.0718590442889777 84:0.7948390215184225 85:2.639913063477725 86:2.796285420738484 87:1.31224467057025 89:1.7772824031687264 95:2.862563702826517 100:0.7661960567987834 102:1.635649558606621 106:0.9792545545945517 107:0.7897712164056604 112:0.48028951652846824 113:1.02604828488796 114:0.5456264049419831 115:0.4944394410474972 116:0.805181061916 118:1.8004551012371044 120:1.1099335969280122 122:0.48028951652846824 123:0.9941163296352257 124:1.4495360077819919 129:1.1478099661763301 133:0.7712188196897585 137:0.48028951652846824 138:0.767511226234408 139:1.9792852231946252 143:1.053515991520763 147:1.0519322461343288 148:0.5635061160274867 150:0.8242788506778833 152:0.5655693390943871 153:0.9681589518585288 154:1.3779091729391773 155:1.2415303897155843 156:0.9616192893240892 157:1.381760509130804 158:1.4422881049667466 159:0.48028951652846824 161:0.7685667487322152 162:1.2912625392712989 163:1.1851417775792932 165:0.9721633164162415 167:1.4341052028030772 169:0.8227527634684747 175:0.9886453207961258 176:0.8310646499691847 177:0.795690260027794 183:0.8949496893742961 186:1.2834798836066745 187:0.9369174178919859 188:0.8989671489114471 190:0.9913470038790364 196:0.7908259076931016 197:0.8823862162440039 199:0.9949738565142615 200:0.867852429353677 201:0.9499217718854 206:1.0328678399998767 209:0.9409405464910081 210:0.9899941960517666 213:4.567389509085089 230:2.004923387610472 241:0.7264987367030434 243:1.3407341040673402 244:0.6985967248216952 248:0.9125891699278446 251:1.2740410836002625 257:1.1672730256161516 258:2.264344477087902 267:0.9231887679541187 273:1.326037984325008 274:4.818395374091021 276:0.8537922071845312 281:2.248663369376011 283:2.5997571957404735 296:1.0471190064917533 297:1.5705454858519257 312:1.4845365545607205 315:1.752752235990372 317:2.764632069396464 324:1.1061053762178825 353:1.8978659411767944 354:1.2362614612570297 356:1.0723932567978591 357:0.7608464062397239 358:0.9481031545117493 361:1.4062768773893544 362:2.0175132973869343 364:1.561093583198097 365:1.1902694763271622 366:1.2107641928001636 368:1.6607117996070913 369:1.2625177974893431 370:1.9239442606358523 371:1.7098370127788587 372:1.0853124629280746 374:2.684594484922847 376:1.635649558606621 377:1.294811716601723 380:3.6809964707765204 381:4.728555960173844 382:1.4780671278058182 385:3.06266828546798 386:2.288608050277541 388:3.962006835333502 393:2.446513069744394 396:1.4674522471012585 397:1.6529486254069519 405:2.141923185735063 408:2.501308147121387 412:2.561095608546235 420:1.7345243046142442 442:3.5889010848993803 446:4.451676822408923 447:1.6588324725136065 449:2.5737329527477613 450:4.680120790071666 451:5.391096002213772 2485:0.0 
1.0 2:0.5277026570734246 3:1.0211787071313685 6:0.8107535336194768 7:1.0080084701117218 8:0.5903720617724708 9:0.7627984531756382 10:0.48242404988302695 11:0.48557949860029265 12:0.5494958093103514 13:0.8488779582371074 14:1.0343692735516683 15:1.0569992649449833 16:1.1239977353185098 17:0.5422346917858087 18:1.1541333176831683 19:1.5245570478856514 20:0.9138989141974074 22:0.7612408731871162 23:0.8898909892904574 24:1.457240295399435 26:0.7776622094461492 27:0.48028951652846824 29:0.8651357229887664 31:2.851269141079318 35:2.737861436225663 36:0.7051677222907861 37:0.5704460988261973 38:0.4979375113287172 39:0.8453159671154745 42:0.5081964742445442 44:0.686539521868536 47:0.601947748305831 48:1.7218199062440527 49:0.48028951652846824 51:1.1860040249114163 52:1.3321990949896978 57:0.9131436104937845 58:1.147247138091795 59:0.5315108992107563 60:1.4043486158305747 61:0.49935123399125086 62:0.8093061292101876 64:0.8330069537793267 67:1.1960149578181158 68:0.9116291376550035 69:0.7669951016734555 70:1.779098725630252 73:1.1151977221073186 75:2.8456108816760595 77:0.8060556010813729 79:0.613469113994565 80:1.0385829410393457 81:0.9761461364441604 83:0.6762677626765826 84:0.5014875879755966 85:2.0432294367163646 86:2.7364509764038476 87:1.1787164290055412 88:0.7678824235827509 89:1.6615287395786038 95:2.652532846832098 99:0.8183995049662175 100:0.4834158893034788 106:0.7760408738463814 107:0.49829015894465345 112:0.48028951652846824 113:1.02604828488796 114:0.8647973912363399 115:0.4944394410474972 116:0.5080126889750662 118:1.8004551012371044 120:1.2885930010832685 122:0.48028951652846824 123:0.7878185519131923 124:0.9145553961828462 129:1.1478099661763301 133:0.48658489985652953 135:0.9776755264044714 137:0.48028951652846824 138:0.48424566883140213 139:1.8340619154044107 140:0.816868174470804 143:0.6646945849137845 147:1.0519322461343288 148:0.5635061160274867 150:0.8242788506778833 152:0.5655693390943871 153:0.7672478167166338 154:1.2687542688178812 155:0.9605790330569365 156:0.9616192893240892 157:1.2723005107108476 158:0.9099824786457137 159:0.48028951652846824 160:0.8934431606315706 161:0.48491162938083276 162:1.2912625392712989 163:0.8089851187197574 165:0.7704212005482295 166:1.0456106458541061 167:1.4341052028030772 169:1.0381983966108006 175:0.623765748619474 176:0.5243434148070072 177:1.0040493193570896 183:0.564650386975777 186:0.8761113190480675 187:0.5911290755873968 188:0.5671851217315349 190:0.625470320861203 196:0.7908259076931016 197:0.8823862162440039 199:0.6277586101005855 200:0.5475539193885061 201:0.5993339094478175 206:0.6516670517630058 209:0.5936673871229642 210:0.6246167941521141 213:4.407458008049672 230:0.8634735037769254 241:1.1514732544956165 244:0.6985967248216952 257:1.1672730256161516 267:0.9231887679541187 274:4.6496746632281445 276:0.8537922071845312 290:2.415712226471672 296:1.0471190064917533 297:0.9909038763613203 312:1.4845365545607205 315:1.752752235990372 324:1.3957495848824255 336:1.6413582532011792 347:1.294811716601723 353:1.1974200905783368 354:1.2362614612570297 356:1.3532096264863318 357:1.2059130226984176 358:1.502707946716559 361:1.774523847409008 364:1.561093583198097 365:1.501952854765448 366:1.5278143075931034 368:1.6607117996070913 369:1.5931200856990606 370:1.213873678248198 371:1.7098370127788587 372:1.0853124629280746 377:1.294811716601723 380:5.392562359543743 381:5.135368441637144 388:3.139816130802251 391:1.6954501729583036 392:2.3311953600052533 405:2.141923185735063 413:2.3224501962044344 418:2.280418065508148 442:3.5889010848993803 446:3.527870414423829 450:3.7089079755545313 451:4.171121245054624 465:2.1966200615316835 466:2.561095608546235 467:2.6131638347323363 468:2.3053072120128806 469:2.5997571957404735 470:2.5365251484698783 2485:0.0 
1.0 2:0.5277026570734246 3:1.0211787071313685 6:0.8107535336194768 7:1.0080084701117218 8:0.5903720617724708 9:0.7627984531756382 10:0.48242404988302695 11:0.48557949860029265 12:0.5494958093103514 13:0.8488779582371074 14:1.0343692735516683 15:1.0569992649449833 16:1.1239977353185098 17:0.5422346917858087 18:1.1541333176831683 19:1.5245570478856514 20:0.9138989141974074 22:0.7612408731871162 23:0.8898909892904574 24:1.457240295399435 26:0.7776622094461492 27:0.48028951652846824 29:0.8651357229887664 31:2.851269141079318 35:2.737861436225663 36:0.7051677222907861 37:0.5704460988261973 38:0.4979375113287172 39:0.8453159671154745 42:0.5081964742445442 44:0.686539521868536 47:0.601947748305831 48:1.7218199062440527 49:0.48028951652846824 51:1.1860040249114163 52:1.3321990949896978 57:0.9131436104937845 58:1.147247138091795 59:0.5315108992107563 60:1.4043486158305747 61:0.49935123399125086 62:0.8093061292101876 64:0.8330069537793267 67:1.1960149578181158 68:0.9116291376550035 69:0.7669951016734555 70:1.779098725630252 73:1.1151977221073186 75:2.8456108816760595 77:0.8060556010813729 79:0.613469113994565 80:1.0385829410393457 81:0.9761461364441604 83:0.6762677626765826 84:0.5014875879755966 85:2.0432294367163646 86:2.7364509764038476 87:1.1787164290055412 88:0.7678824235827509 89:1.6615287395786038 95:2.652532846832098 99:0.8183995049662175 100:0.4834158893034788 106:0.7760408738463814 107:0.49829015894465345 112:0.48028951652846824 113:1.02604828488796 114:0.8647973912363399 115:0.4944394410474972 116:0.5080126889750662 118:1.8004551012371044 120:1.2885930010832685 122:0.48028951652846824 123:0.7878185519131923 124:0.9145553961828462 129:1.1478099661763301 133:0.48658489985652953 135:0.9776755264044714 137:0.48028951652846824 138:0.48424566883140213 139:1.8340619154044107 140:0.816868174470804 143:0.6646945849137845 147:1.0519322461343288 148:0.5635061160274867 150:0.8242788506778833 152:0.5655693390943871 153:0.7672478167166338 154:1.2687542688178812 155:0.9605790330569365 156:0.9616192893240892 157:1.2723005107108476 158:0.9099824786457137 159:0.48028951652846824 160:0.8934431606315706 161:0.48491162938083276 162:1.2912625392712989 163:0.8089851187197574 165:0.7704212005482295 166:1.0456106458541061 167:1.4341052028030772 169:1.0381983966108006 175:0.623765748619474 176:0.5243434148070072 177:1.0040493193570896 183:0.564650386975777 186:0.8761113190480675 187:0.5911290755873968 188:0.5671851217315349 190:0.625470320861203 196:0.7908259076931016 197:0.8823862162440039 199:0.6277586101005855 200:0.5475539193885061 201:0.5993339094478175 206:0.6516670517630058 209:0.5936673871229642 210:0.6246167941521141 213:4.407458008049672 230:0.8634735037769254 241:1.1514732544956165 244:0.6985967248216952 257:1.1672730256161516 267:0.9231887679541187 274:4.6496746632281445 276:0.8537922071845312 290:2.415712226471672 296:1.0471190064917533 297:0.9909038763613203 312:1.4845365545607205 315:1.752752235990372 324:1.3957495848824255 336:1.6413582532011792 347:1.294811716601723 353:1.1974200905783368 354:1.2362614612570297 356:1.3532096264863318 357:1.2059130226984176 358:1.502707946716559 361:1.774523847409008 364:1.561093583198097 365:1.501952854765448 366:1.5278143075931034 368:1.6607117996070913 369:1.5931200856990606 370:1.213873678248198 371:1.7098370127788587 372:1.0853124629280746 377:1.294811716601723 380:5.392562359543743 381:5.135368441637144 388:3.139816130802251 391:1.6954501729583036 392:2.3311953600052533 405:2.141923185735063 413:2.3224501962044344 418:2.280418065508148 442:3.5889010848993803 446:3.527870414423829 450:3.7089079755545313 451:4.171121245054624 465:2.1966200615316835 466:2.561095608546235 467:2.6131638347323363 468:2.3053072120128806 469:2.5997571957404735 470:2.5365251484698783 2485:0.0 
1.0 2:0.5277026570734246 3:1.0211787071313685 6:0.8107535336194768 7:1.0080084701117218 8:0.5903720617724708 9:0.9625444801735886 10:0.48242404988302695 11:0.48557949860029265 12:0.5494958093103514 13:0.8488779582371074 14:1.0343692735516683 15:1.0569992649449833 16:1.1239977353185098 17:0.5422346917858087 18:1.1541333176831683 19:1.5245570478856514 20:0.9138989141974074 22:0.7612408731871162 23:0.8898909892904574 24:1.457240295399435 26:0.7776622094461492 27:0.48028951652846824 29:0.8651357229887664 31:3.077036184487119 35:2.789211687824267 36:0.7051677222907861 37:0.5704460988261973 38:0.4979375113287172 39:0.8453159671154745 42:0.5081964742445442 44:0.686539521868536 47:0.601947748305831 48:1.8286326547673304 49:0.48028951652846824 51:1.1860040249114163 52:1.3321990949896978 57:0.9131436104937845 58:1.147247138091795 59:0.5315108992107563 60:1.4043486158305747 61:0.49935123399125086 62:0.8093061292101876 64:0.8330069537793267 67:1.1960149578181158 68:0.9116291376550035 69:0.7669951016734555 70:1.779098725630252 73:1.1151977221073186 75:3.07092989705385 77:0.8060556010813729 79:0.613469113994565 80:1.0385829410393457 81:0.9761461364441604 83:0.6762677626765826 84:0.5014875879755966 85:2.639913063477725 86:2.796285420738484 87:1.1787164290055412 88:0.7678824235827509 89:1.7772824031687264 95:2.862563702826517 99:0.8183995049662175 100:0.4834158893034788 102:1.635649558606621 106:0.7760408738463814 107:0.49829015894465345 112:0.48028951652846824 113:1.02604828488796 114:0.8647973912363399 115:0.4944394410474972 116:0.5080126889750662 118:1.8004551012371044 120:1.2885930010832685 122:0.48028951652846824 123:0.7878185519131923 124:0.9145553961828462 129:1.1478099661763301 133:0.7712188196897585 137:0.48028951652846824 138:0.48424566883140213 139:1.9792852231946252 140:0.816868174470804 143:0.6646945849137845 147:1.0519322461343288 148:0.5635061160274867 150:0.8242788506778833 152:0.5655693390943871 153:0.7672478167166338 154:1.2687542688178812 155:0.9605790330569365 156:0.9616192893240892 157:1.2723005107108476 158:0.9099824786457137 159:0.48028951652846824 160:0.8934431606315706 161:0.48491162938083276 162:1.2912625392712989 163:0.8089851187197574 165:0.7704212005482295 167:1.4341052028030772 169:1.0381983966108006 175:0.623765748619474 176:0.5243434148070072 177:1.0040493193570896 183:0.564650386975777 186:0.8761113190480675 187:0.5911290755873968 188:0.8989671489114471 190:0.625470320861203 196:0.7908259076931016 197:0.8823862162440039 199:0.6277586101005855 200:0.5475539193885061 201:0.5993339094478175 206:0.6516670517630058 209:0.5936673871229642 210:0.6246167941521141 213:4.714512228297927 230:0.8634735037769254 241:1.1514732544956165 243:1.3407341040673402 244:0.6985967248216952 248:0.9125891699278446 251:1.2740410836002625 257:1.1672730256161516 267:0.9231887679541187 273:1.326037984325008 274:4.973603382575683 276:0.8537922071845312 281:2.248663369376011 283:2.5997571957404735 296:1.0471190064917533 297:1.5705454858519257 312:1.4845365545607205 315:1.752752235990372 317:2.764632069396464 324:1.3957495848824255 347:1.294811716601723 353:1.1974200905783368 354:1.2362614612570297 356:1.3532096264863318 357:1.2059130226984176 358:1.502707946716559 361:1.774523847409008 362:2.0175132973869343 364:1.561093583198097 365:1.501952854765448 366:1.5278143075931034 368:1.6607117996070913 369:1.5931200856990606 370:1.213873678248198 371:1.7098370127788587 372:1.0853124629280746 374:2.684594484922847 376:1.635649558606621 377:1.294811716601723 379:1.6923089354828804 380:3.6809964707765204 381:4.728555960173844 382:1.4780671278058182 385:1.9323285466214302 386:2.288608050277541 388:3.962006835333502 393:2.446513069744394 396:1.4674522471012585 397:1.6529486254069519 405:2.141923185735063 408:2.501308147121387 412:2.561095608546235 423:2.128955804878469 442:3.5889010848993803 446:4.451676822408923 447:1.6588324725136065 449:2.5737329527477613 450:4.680120790071666 451:5.391096002213772 465:2.1966200615316835 2485:0.0 
1.0 2:0.5277026570734246 3:1.0211787071313685 6:0.8107535336194768 7:1.0080084701117218 8:0.5903720617724708 9:0.7627984531756382 10:0.48242404988302695 11:0.48557949860029265 12:0.5494958093103514 13:0.8488779582371074 14:1.0343692735516683 15:1.0569992649449833 16:1.1239977353185098 17:0.5422346917858087 18:1.1541333176831683 19:1.5245570478856514 20:0.9138989141974074 22:0.7612408731871162 23:0.8898909892904574 24:1.457240295399435 26:0.7776622094461492 27:0.48028951652846824 29:0.8651357229887664 31:2.851269141079318 35:2.737861436225663 36:0.7051677222907861 37:0.5704460988261973 38:0.4979375113287172 39:0.8453159671154745 42:0.5081964742445442 44:0.686539521868536 47:0.601947748305831 48:1.7218199062440527 49:0.48028951652846824 51:1.1860040249114163 52:1.3321990949896978 57:0.9131436104937845 58:1.147247138091795 59:0.5315108992107563 60:1.4043486158305747 61:0.49935123399125086 62:0.8093061292101876 64:0.8330069537793267 67:1.1960149578181158 68:0.9116291376550035 69:0.7669951016734555 70:1.779098725630252 73:1.1151977221073186 75:2.8456108816760595 77:0.8060556010813729 79:0.613469113994565 80:1.0385829410393457 81:0.9761461364441604 83:0.6762677626765826 84:0.5014875879755966 85:2.0432294367163646 86:2.7364509764038476 87:1.1787164290055412 88:0.7678824235827509 89:1.6615287395786038 95:2.652532846832098 99:0.8183995049662175 100:0.4834158893034788 106:0.7760408738463814 107:0.49829015894465345 112:0.48028951652846824 113:1.02604828488796 114:0.8647973912363399 115:0.4944394410474972 116:0.5080126889750662 118:1.8004551012371044 120:1.2885930010832685 122:0.48028951652846824 123:0.7878185519131923 124:0.9145553961828462 129:1.1478099661763301 132:1.367934495783951 133:0.48658489985652953 135:0.9776755264044714 137:0.48028951652846824 138:0.48424566883140213 139:1.8340619154044107 140:0.816868174470804 143:0.6646945849137845 147:1.0519322461343288 148:0.5635061160274867 150:0.8242788506778833 152:0.5655693390943871 153:0.7672478167166338 154:1.2687542688178812 155:0.9605790330569365 156:0.9616192893240892 157:1.2723005107108476 158:0.9099824786457137 159:0.48028951652846824 160:0.8934431606315706 161:0.48491162938083276 162:1.2912625392712989 163:0.8089851187197574 165:0.7704212005482295 166:1.0456106458541061 167:1.4341052028030772 169:1.0381983966108006 175:0.623765748619474 176:0.5243434148070072 177:1.0040493193570896 183:0.564650386975777 186:0.8761113190480675 187:0.5911290755873968 188:0.5671851217315349 190:0.625470320861203 196:0.7908259076931016 197:0.8823862162440039 199:0.6277586101005855 200:0.5475539193885061 201:0.5993339094478175 206:0.6516670517630058 209:0.5936673871229642 210:0.6246167941521141 213:4.407458008049672 230:0.8634735037769254 241:1.1514732544956165 244:0.6985967248216952 257:1.1672730256161516 267:0.9231887679541187 274:4.6496746632281445 276:0.8537922071845312 290:2.415712226471672 296:1.0471190064917533 297:0.9909038763613203 312:1.4845365545607205 315:1.752752235990372 324:1.3957495848824255 347:1.294811716601723 353:1.1974200905783368 354:1.2362614612570297 356:1.3532096264863318 357:1.2059130226984176 358:1.502707946716559 361:1.774523847409008 364:1.561093583198097 365:1.501952854765448 366:1.5278143075931034 368:1.6607117996070913 369:1.5931200856990606 370:1.213873678248198 371:1.7098370127788587 372:1.0853124629280746 377:1.294811716601723 379:1.6923089354828804 380:5.392562359543743 381:5.135368441637144 388:3.139816130802251 391:1.6954501729583036 392:2.3311953600052533 405:2.141923185735063 413:2.3224501962044344 418:2.280418065508148 442:3.5889010848993803 446:3.527870414423829 450:3.7089079755545313 451:4.171121245054624 465:2.1966200615316835 466:2.561095608546235 467:2.6131638347323363 469:2.5997571957404735 470:2.5365251484698783 2485:0.0 
1.0 2:0.5277026570734246 3:1.0211787071313685 6:0.8107535336194768 7:1.0080084701117218 8:0.5903720617724708 9:0.7627984531756382 10:0.48242404988302695 11:0.48557949860029265 12:0.5494958093103514 13:0.8488779582371074 14:1.0343692735516683 15:1.0569992649449833 16:1.1239977353185098 17:0.5422346917858087 18:1.1541333176831683 19:1.5976620542522473 20:0.9138989141974074 22:0.7612408731871162 23:0.8898909892904574 24:1.457240295399435 26:0.7776622094461492 27:0.48028951652846824 29:0.8651357229887664 31:2.969290826937377 35:2.7767264616859224 36:0.7051677222907861 37:0.5704460988261973 38:0.4979375113287172 39:0.8453159671154745 42:0.5081964742445442 44:0.686539521868536 47:0.601947748305831 48:1.7772824031687264 49:0.48028951652846824 51:1.1860040249114163 52:1.3321990949896978 57:0.9131436104937845 58:1.147247138091795 59:0.8424248439736309 60:1.4043486158305747 61:0.49935123399125086 62:0.8093061292101876 64:0.8330069537793267 67:1.1960149578181158 68:0.9116291376550035 69:0.7669951016734555 70:1.779098725630252 73:1.1151977221073186 75:2.9633983569840954 77:0.8060556010813729 79:0.613469113994565 80:1.0385829410393457 81:0.9761461364441604 83:0.6762677626765826 84:0.5014875879755966 85:2.470390977519453 86:2.7364509764038476 87:1.1787164290055412 88:0.7678824235827509 89:1.7218199062440527 95:2.7623283038328696 97:1.2798888779678388 99:0.8183995049662175 100:0.4834158893034788 106:0.7760408738463814 107:0.49829015894465345 112:0.48028951652846824 113:1.02604828488796 114:0.8647973912363399 115:0.4944394410474972 116:0.5080126889750662 118:1.8004551012371044 120:1.2885930010832685 122:0.48028951652846824 123:0.7878185519131923 124:0.9145553961828462 129:1.1478099661763301 133:0.48658489985652953 135:1.549579047223904 137:0.48028951652846824 138:0.48424566883140213 139:1.9099786628294364 140:0.816868174470804 143:0.6646945849137845 147:1.0519322461343288 148:0.5635061160274867 150:1.040124104264722 152:0.5655693390943871 153:0.7672478167166338 154:1.2687542688178812 155:0.9605790330569365 156:0.9616192893240892 157:1.2723005107108476 158:0.9099824786457137 159:0.48028951652846824 160:0.8934431606315706 161:0.48491162938083276 162:1.2912625392712989 163:0.8089851187197574 164:1.3966243477905882 165:0.7704212005482295 167:1.4341052028030772 169:1.0381983966108006 175:0.623765748619474 176:0.5243434148070072 177:1.0040493193570896 183:0.564650386975777 186:0.8761113190480675 187:0.5911290755873968 188:0.5671851217315349 190:0.625470320861203 196:0.7908259076931016 197:0.8823862162440039 199:0.6277586101005855 200:0.5475539193885061 201:0.5993339094478175 206:0.6516670517630058 209:0.5936673871229642 210:0.6246167941521141 213:4.567389509085089 230:0.8634735037769254 241:1.1514732544956165 244:0.6985967248216952 257:1.8500839737049262 267:0.9231887679541187 268:1.1101143502990731 274:4.818395374091021 276:0.8537922071845312 288:2.062045490648238 296:1.0471190064917533 297:0.9909038763613203 312:1.4845365545607205 315:1.752752235990372 324:1.3957495848824255 347:1.294811716601723 353:1.1974200905783368 354:1.2362614612570297 356:1.3532096264863318 357:1.2059130226984176 358:1.502707946716559 359:2.1354062523926456 361:1.774523847409008 362:3.1976829210645814 364:1.561093583198097 365:1.501952854765448 366:1.5278143075931034 368:1.6607117996070913 369:1.5931200856990606 370:1.213873678248198 371:1.7098370127788587 372:1.0853124629280746 377:1.294811716601723 380:4.644900392408869 381:4.728555960173844 382:2.3426809711208465 385:1.9323285466214302 391:1.6954501729583036 397:2.6198615868886006 398:1.9709558093754913 400:1.2784205515216915 402:2.2258384112044616 422:1.5587232384959826 442:3.5889010848993803 445:2.3959579543676073 446:2.2258384112044616 447:1.6588324725136065 450:2.340060395035833 451:4.842521803036943 465:2.1966200615316835 467:2.6131638347323363 470:2.5365251484698783 473:2.6696801020222867 2485:0.0 
1.0 2:0.5277026570734246 3:1.0211787071313685 6:0.8107535336194768 7:1.0080084701117218 8:0.5903720617724708 9:0.7627984531756382 10:0.48242404988302695 11:0.48557949860029265 12:0.5494958093103514 13:0.8488779582371074 14:1.0343692735516683 15:1.0569992649449833 16:1.1239977353185098 17:0.5422346917858087 18:1.1541333176831683 19:1.5976620542522473 20:0.9138989141974074 22:0.7612408731871162 23:0.8898909892904574 24:1.457240295399435 26:0.7776622094461492 27:0.48028951652846824 29:0.8651357229887664 31:2.969290826937377 35:2.7767264616859224 36:0.7051677222907861 37:0.5704460988261973 38:0.4979375113287172 39:0.8453159671154745 42:0.5081964742445442 44:0.686539521868536 47:0.601947748305831 48:1.7772824031687264 49:0.48028951652846824 51:1.1860040249114163 52:1.3321990949896978 57:0.9131436104937845 58:1.147247138091795 59:0.8424248439736309 60:1.4043486158305747 61:0.49935123399125086 62:0.8093061292101876 64:0.8330069537793267 67:1.1960149578181158 68:0.9116291376550035 69:0.7669951016734555 70:1.779098725630252 73:1.1151977221073186 75:2.9633983569840954 77:0.8060556010813729 79:0.613469113994565 80:1.0385829410393457 81:0.9761461364441604 83:0.6762677626765826 84:0.5014875879755966 85:2.470390977519453 86:2.7364509764038476 87:1.1787164290055412 88:0.7678824235827509 89:1.7218199062440527 95:2.7623283038328696 97:1.2798888779678388 99:0.8183995049662175 100:0.4834158893034788 106:0.7760408738463814 107:0.49829015894465345 112:0.48028951652846824 113:1.02604828488796 114:0.8647973912363399 115:0.4944394410474972 116:0.5080126889750662 118:1.8004551012371044 120:1.2885930010832685 122:0.48028951652846824 123:0.7878185519131923 124:0.9145553961828462 129:1.1478099661763301 133:0.48658489985652953 135:1.549579047223904 137:0.48028951652846824 138:0.48424566883140213 139:1.9099786628294364 140:0.816868174470804 143:0.6646945849137845 147:1.0519322461343288 148:0.5635061160274867 150:1.040124104264722 152:0.5655693390943871 153:0.7672478167166338 154:1.2687542688178812 155:0.9605790330569365 156:0.9616192893240892 157:1.2723005107108476 158:0.9099824786457137 159:0.48028951652846824 160:0.8934431606315706 161:0.48491162938083276 162:1.2912625392712989 163:0.8089851187197574 165:0.7704212005482295 167:1.4341052028030772 169:1.0381983966108006 175:0.623765748619474 176:0.5243434148070072 177:1.0040493193570896 183:0.564650386975777 186:0.8761113190480675 187:0.5911290755873968 188:0.5671851217315349 190:0.625470320861203 196:0.7908259076931016 197:0.8823862162440039 199:0.6277586101005855 200:0.5475539193885061 201:0.5993339094478175 206:0.6516670517630058 209:0.5936673871229642 210:0.6246167941521141 213:4.567389509085089 230:0.8634735037769254 241:1.1514732544956165 244:0.6985967248216952 257:1.8500839737049262 266:1.6413582532011792 267:0.9231887679541187 268:1.1101143502990731 274:4.818395374091021 276:0.8537922071845312 296:1.0471190064917533 297:0.9909038763613203 312:1.4845365545607205 315:1.752752235990372 324:1.3957495848824255 347:1.294811716601723 353:1.1974200905783368 354:1.2362614612570297 356:1.3532096264863318 357:1.2059130226984176 358:1.502707946716559 359:2.1354062523926456 361:1.774523847409008 362:3.1976829210645814 364:1.561093583198097 365:1.501952854765448 366:1.5278143075931034 368:1.6607117996070913 369:1.5931200856990606 370:1.213873678248198 371:1.7098370127788587 372:1.0853124629280746 377:1.294811716601723 380:4.644900392408869 381:4.728555960173844 382:2.3426809711208465 385:1.9323285466214302 391:1.6954501729583036 397:2.6198615868886006 398:1.9709558093754913 400:1.2784205515216915 402:2.2258384112044616 422:1.5587232384959826 442:3.5889010848993803 445:2.3959579543676073 446:2.2258384112044616 447:1.6588324725136065 450:2.340060395035833 451:4.842521803036943 465:2.1966200615316835 467:2.6131638347323363 470:2.5365251484698783 473:2.6696801020222867 475:2.0283516549787115 2485:0.0 
